{"schema":"quantum-harness/proof-bundle@1","task":"kernel-correctness-oracle","problem_id":"gemm_bf16_tile1","constraints":{"shape":[16,128,128],"tile":[8,128,128],"declared_dtype":"bf16","accum_dtype":"fp32"},"kernel":{"name":"tiled_gemm_bf16","source_sha256":"f8081aad736ba9d7fd930e9807481d7185140ae39ad1e8478a4303075b960eea","grid":[2,1],"block_spec":{"a":{"block":[8,128],"index_map":"(i,j)->(i,0)"},"b":{"block":[128,128],"index_map":"(i,j)->(0,j)"},"out":{"block":[8,128],"index_map":"(i,j)->(i,j)"}}},"oracle":{"numeric":{"runner":"numpy.float64","reduction_len":128}},"hardware":{"device_kind":"TPU v5e","output":[[12.324411392211914,0.9470906257629395,-16.048982620239258,-2.962144374847412,-9.798896789550781,-0.41488218307495117,0.26184701919555664,-14.1619234085083,-14.879551887512207,3.3310599327087402,7.903842926025391,7.854439735412598,-16.60573387145996,1.7328331470489502,-4.652864456176758,-12.452980041503906,9.78176212310791,-10.637937545776367,-8.456130981445312,23.247844696044922,16.29479217529297,1.0040602684020996,-10.64153003692627,7.318493843078613,21.85226058959961,-7.508203506469727,-1.3602104187011719,4.918469429016113,-3.4801788330078125,-0.8796701431274414,6.68229341506958,-17.891773223876953,3.974642753601074,29.657861709594727,0.18465423583984375,7.215620040893555,-5.038278579711914,-2.8101754188537598,-2.814265251159668,8.11931037902832,5.461278915405273,5.39913272857666,-11.118614196777344,-28.85808563232422,-11.736228942871094,-21.373796463012695,-1.1715683937072754,0.29661107063293457,-12.934272766113281,-14.860435485839844,-2.076411008834839,-29.84201431274414,-6.4521684646606445,-16.575531005859375,-3.9988040924072266,5.572000503540039,-4.437712669372559,-8.876158714294434,-4.79084587097168,-11.31239128112793,-16.324649810791016,3.8350749015808105,-14.041598320007324,18.298974990844727,-22.10247802734375,7.994370460510254,21.123802185058594,7.635678768157959,-3.488685131072998,4.123722553253174,-20.536052703857422,-7.8450608253479,8.12606430053711,-4.433348655700684,2.3335394859313965,-6.274656295776367,14.398981094360352,-0.8110067844390869,11.278816223144531,1.1377429962158203,-3.231109619140625,-7.32711124420166,1.9743494987487793,-18.471378326416016,22.877864837646484,-3.078800678253174,-3.277651309967041,11.5021333694458,9.418323516845703,-5.966251373291016,-4.463623046875,-11.771636962890625,11.519521713256836,-9.01340389251709,-20.189498901367188,2.639768600463867,7.396076202392578,2.0985403060913086,-6.714391708374023,8.067474365234375,3.761052131652832,19.942716598510742,3.1838741302490234,14.939300537109375,-0.5329771041870117,-3.4850239753723145,3.3564505577087402,-26.71748924255371,-5.28637170791626,10.306023597717285,15.278650283813477,-13.247339248657227,-16.421051025390625,0.17528247833251953,-1.6999742984771729,-3.4775309562683105,7.108127117156982,-11.226451873779297,3.089632987976074,-8.361373901367188,-22.55698013305664,-11.94197940826416,-3.558074474334717,-21.559005737304688,-7.325756072998047,6.471173286437988,-6.8438825607299805,7.395234107971191],[-7.597683429718018,1.7626380920410156,-1.2573399543762207,12.387436866760254,0.6926373243331909,-6.845619201660156,-16.454442977905273,-7.930690765380859,-13.727994918823242,18.195165634155273,2.837416887283325,-6.907515048980713,0.24989795684814453,7.460097789764404,3.744131088256836,-7.763830184936523,-5.804712295532227,-3.478907585144043,-0.5988155603408813,-8.227313041687012,-5.463150978088379,-2.185094118118286,10.595039367675781,7.020211696624756,16.59937858581543,-12.616020202636719,12.568559646606445,8.623254776000977,-12.809377670288086,4.928555965423584,4.180960178375244,-8.76926040649414,13.635770797729492,27.293249130249023,-7.553328514099121,-5.850002288818359,-20.480815887451172,-1.9278268814086914,2.9461965560913086,-7.729475021362305,-5.5069732666015625,-1.478839635848999,-0.6139135360717773,-1.4575119018554688,-14.688493728637695,1.3470044136047363,16.39143180847168,-7.29070520401001,8.234436988830566,-13.977277755737305,8.3424072265625,0.21748924255371094,-9.573216438293457,-5.9883599281311035,9.058996200561523,-0.6002926826477051,1.702991008758545,-25.81523895263672,-2.950251579284668,-1.1900458335876465,7.294814109802246,8.604399681091309,-0.9934457540512085,8.288374900817871,-9.712865829467773,-3.5865321159362793,21.308605194091797,7.480480194091797,10.668669700622559,-4.136425018310547,3.9752755165100098,-0.35337257385253906,4.158624649047852,-12.258127212524414,19.858137130737305,7.898312568664551,15.957666397094727,6.816938877105713,0.5251452922821045,7.926884651184082,11.089033126831055,2.154913902282715,6.530096054077148,-15.836607933044434,-10.596840858459473,9.221880912780762,-12.540851593017578,5.391436576843262,7.246665000915527,3.3765687942504883,-0.6594767570495605,10.428125381469727,-8.316767692565918,9.760171890258789,-7.653025150299072,-3.221792221069336,1.7585104703903198,2.0901060104370117,-8.145345687866211,15.741395950317383,6.919541358947754,3.8241891860961914,0.45287466049194336,-6.437324523925781,1.3018810749053955,1.5976457595825195,10.508892059326172,0.7953300476074219,4.113652229309082,11.880006790161133,-1.2840590476989746,8.129683494567871,3.903143882751465,8.067923545837402,14.837221145629883,-3.3418540954589844,15.629143714904785,7.4300665855407715,-7.140213489532471,14.339139938354492,5.028181552886963,-1.836496353149414,-2.448566436767578,-4.54933500289917,5.060110092163086,-1.5754690170288086,8.127223014831543,3.9228429794311523],[7.458192825317383,10.399754524230957,-12.523582458496094,-3.8172664642333984,10.340177536010742,4.42269229888916,11.551736831665039,-4.8837971687316895,-6.29566764831543,3.45282244682312,-1.6939244270324707,5.435614109039307,4.501062393188477,2.003167152404785,13.6177978515625,1.6529746055603027,10.828352928161621,-17.543071746826172,0.9475220441818237,-4.68200159072876,3.8807754516601562,1.2141320705413818,20.73792839050293,-1.7179174423217773,-7.884738922119141,6.8389668464660645,-1.1271772384643555,-2.0417041778564453,-1.9230012893676758,-10.781041145324707,-4.57334566116333,-0.5824751853942871,0.6967048645019531,-10.469816207885742,7.878868103027344,1.7780637741088867,-6.838867664337158,-0.6238431930541992,-5.81069803237915,6.567279815673828,5.175093173980713,-0.719005823135376,-17.576473236083984,27.05588150024414,-9.87551212310791,-0.5908408164978027,12.988616943359375,4.844200611114502,-5.9333815574646,-1.6575310230255127,-5.7609782218933105,10.624612808227539,-2.416659355163574,15.433120727539062,-14.665851593017578,-11.235607147216797,-13.641382217407227,-2.0092806816101074,5.244988441467285,6.641097545623779,11.076264381408691,3.382563591003418,0.10737133026123047,-3.3660988807678223,0.15459370613098145,-0.21748733520507812,-8.136877059936523,15.083014488220215,18.123926162719727,-13.95380687713623,13.724525451660156,9.735206604003906,14.551431655883789,-0.30986976623535156,-15.013481140136719,-2.9749412536621094,6.638546943664551,5.95512580871582,-16.91852378845215,4.254993438720703,9.278158187866211,-11.862457275390625,-1.0412445068359375,11.279914855957031,2.850174903869629,-10.362067222595215,-8.415846824645996,-5.363503932952881,-5.690514087677002,0.7120070457458496,-2.341949224472046,7.028799533843994,-3.5905470848083496,3.616668224334717,-11.62098503112793,14.765037536621094,5.061768531799316,-1.2029948234558105,-11.829548835754395,19.781835556030273,13.557207107543945,-9.179571151733398,-13.161635398864746,-4.295804500579834,-5.923396110534668,-6.148540496826172,16.433738708496094,8.908554077148438,-6.313087463378906,-26.90595245361328,2.4108705520629883,-5.175861358642578,-11.767641067504883,-8.83480453491211,9.954253196716309,18.206655502319336,-23.28549575805664,21.01746368408203,-5.853559494018555,-24.435977935791016,0.06752443313598633,11.3135347366333,3.194331169128418,2.3696365356445312,-7.656128883361816,-10.139991760253906,2.8419899940490723,4.9019246101379395],[-2.473328113555908,2.685885429382324,-0.04912209510803223,-7.07866096496582,-15.47400951385498,-0.29496192932128906,-6.978524208068848,-14.483713150024414,6.599180221557617,-4.242586135864258,3.238199234008789,-10.458980560302734,9.537727355957031,-5.705965995788574,-2.0885543823242188,10.455320358276367,-11.837566375732422,8.633328437805176,-12.30116081237793,-6.193412780761719,-5.081481456756592,0.2637615203857422,-28.163217544555664,6.5363969802856445,10.41966438293457,6.371305465698242,10.706371307373047,-18.8302001953125,6.020575523376465,13.726983070373535,8.419963836669922,12.209260940551758,2.889495849609375,12.66632080078125,-4.68973445892334,-3.053234100341797,-25.38811683654785,-6.100647449493408,0.5620784759521484,-6.373300075531006,-0.8604738712310791,-2.050967216491699,3.0219287872314453,-15.182151794433594,2.6053285598754883,-4.016791343688965,8.813505172729492,2.5242156982421875,7.891797065734863,10.161443710327148,-22.839670181274414,-9.042530059814453,-5.870965957641602,7.811990737915039,22.19043731689453,11.460463523864746,9.44414234161377,6.219610214233398,4.526739120483398,-18.36367416381836,-18.657960891723633,1.5849204063415527,-5.007346153259277,-3.803476333618164,-11.561878204345703,3.0219340324401855,8.801790237426758,5.520211219787598,15.649847030639648,-6.057537078857422,-8.906649589538574,5.224891662597656,-0.45612668991088867,-3.5805916786193848,-8.245495796203613,13.775688171386719,-14.384710311889648,3.9921178817749023,-1.1014041900634766,8.917941093444824,9.168453216552734,-12.143786430358887,9.381759643554688,-7.226708889007568,-4.09727668762207,8.122294425964355,-14.361350059509277,0.1646428108215332,-3.5196070671081543,3.4029150009155273,7.738653659820557,1.9521656036376953,13.37789249420166,-0.7490949630737305,-7.781400203704834,12.513063430786133,-1.2982871532440186,-1.7192721366882324,-22.664093017578125,0.7096142768859863,-0.8927001953125,5.19373893737793,9.550084114074707,2.562694549560547,-5.145715713500977,-6.761101722717285,3.4771435260772705,-1.7658705711364746,-6.4863667488098145,-7.631567001342773,4.342270374298096,-8.920028686523438,-15.306427001953125,0.7485790252685547,8.917917251586914,7.8772430419921875,11.764294624328613,-26.202274322509766,0.8677892684936523,0.7068696022033691,-11.382970809936523,-7.501636505126953,7.072473526000977,-0.931959867477417,-0.35820627212524414,17.582422256469727,3.9455857276916504,-6.277677536010742],[-27.99179458618164,5.978504180908203,2.732133388519287,-8.90011215209961,14.221739768981934,7.3645920753479,-9.880919456481934,-6.099175453186035,6.677005767822266,13.0452880859375,-12.747254371643066,-11.065533638000488,-2.9639101028442383,6.105704307556152,-0.31704235076904297,6.162504196166992,-8.623649597167969,6.72453498840332,1.5723490715026855,-3.074899196624756,11.243976593017578,-20.99782943725586,6.400311470031738,-1.1667962074279785,-28.011306762695312,-7.547711372375488,6.764620780944824,-0.3535623550415039,-10.2099609375,8.990076065063477,-15.92929458618164,-1.250091552734375,7.53050422668457,-15.778889656066895,-9.721366882324219,10.018011093139648,-4.432723522186279,11.243541717529297,14.528644561767578,9.478717803955078,0.9778289794921875,-12.529544830322266,11.726838111877441,-0.5718135833740234,-10.510252952575684,-2.224276542663574,9.33687686920166,-7.132347106933594,4.3098978996276855,-10.136445999145508,12.835570335388184,6.59484338760376,-2.2814393043518066,-1.7708311080932617,2.8957338333129883,-19.349227905273438,-7.566549301147461,11.616117477416992,-3.0143160820007324,-5.320450782775879,1.9344596862792969,-8.356857299804688,-0.2593574523925781,-19.233535766601562,-21.96596908569336,13.408244132995605,-6.35869026184082,8.383184432983398,-4.943219184875488,6.045518398284912,3.6207752227783203,5.425297737121582,0.7744441032409668,1.228508472442627,-4.393575668334961,12.304468154907227,-0.5808286666870117,12.545265197753906,-6.210025787353516,3.075226306915283,2.250399112701416,5.716491222381592,0.5339117050170898,-1.2075181007385254,-2.2872986793518066,-22.564830780029297,4.655249118804932,13.684728622436523,-5.635537624359131,1.1844253540039062,0.9989395141601562,6.080730438232422,7.912762641906738,-3.532491683959961,-5.2160515785217285,2.9418563842773438,2.83497953414917,-5.655843734741211,-30.581689834594727,-8.073406219482422,18.993072509765625,-3.785964012145996,3.79095458984375,-4.230927467346191,2.0013980865478516,4.0782880783081055,21.720821380615234,-0.0034575462341308594,9.5137357711792,17.629535675048828,19.415306091308594,-14.069419860839844,-2.628732681274414,3.625232696533203,-0.04829549789428711,3.1364264488220215,-1.1396450996398926,-7.296141624450684,4.660669803619385,-5.277217864990234,-16.49663734436035,1.0706849098205566,4.12692928314209,-11.105855941772461,-1.220062255859375,14.172835350036621,5.554553031921387,-10.224742889404297],[-17.472084045410156,-4.504019737243652,-1.4760236740112305,4.357569694519043,-4.113761901855469,-13.464482307434082,-2.800159454345703,-3.3167548179626465,6.894451141357422,7.7223310470581055,-0.38695621490478516,9.580698013305664,-7.808900833129883,-1.3281688690185547,15.9183349609375,17.131912231445312,8.568304061889648,6.075325965881348,-0.46426963806152344,18.10260772705078,0.07939696311950684,0.52972412109375,-5.6581315994262695,-10.207742691040039,4.03756046295166,-9.059683799743652,-5.444578170776367,12.130505561828613,-7.946880340576172,6.326155662536621,2.011082649230957,14.862958908081055,12.046501159667969,-0.9424281120300293,7.940817832946777,1.2725253105163574,-18.834732055664062,-1.578474998474121,-17.9788875579834,-16.665271759033203,8.542269706726074,2.5238378047943115,-11.517925262451172,-8.981271743774414,11.001056671142578,0.8418960571289062,0.27024364471435547,6.754377365112305,-5.677029609680176,-2.7376880645751953,-0.7991962432861328,18.945453643798828,7.103784084320068,12.057151794433594,-6.248122215270996,-10.815812110900879,0.5400362014770508,-1.3826804161071777,-8.069586753845215,-9.553251266479492,-4.797336578369141,-15.458045959472656,-2.4618546962738037,-35.484378814697266,-8.853996276855469,4.62060546875,-2.175175666809082,4.774839401245117,6.426486968994141,-1.1928772926330566,-12.246316909790039,17.916994094848633,13.058156967163086,0.32254743576049805,10.70695686340332,6.691061019897461,2.834634304046631,8.003307342529297,-2.797469139099121,15.395256042480469,0.27616214752197266,-12.431355476379395,-5.471723556518555,6.275981903076172,-14.67959213256836,13.15078353881836,-17.221546173095703,-13.255511283874512,4.355138778686523,15.9217529296875,-11.04757022857666,2.7307662963867188,7.593598365783691,-1.5677213668823242,-8.384052276611328,-18.967676162719727,6.659085750579834,-17.846824645996094,-10.412389755249023,6.835411071777344,-2.352271556854248,-4.961859703063965,-3.6582155227661133,0.25243425369262695,17.90648078918457,-9.684137344360352,-18.376880645751953,-10.509964942932129,-15.67905044555664,-17.423322677612305,-6.932945251464844,0.25086164474487305,-15.082328796386719,0.2796502113342285,4.865198135375977,-19.560606002807617,25.542076110839844,-9.170114517211914,-14.69924545288086,15.065591812133789,19.21133041381836,-3.7444310188293457,-11.258744239807129,8.18541145324707,4.414432048797607,-3.3005762100219727,9.648462295532227,-5.545432090759277],[-6.411386489868164,8.548123359680176,-9.3965482711792,-14.19959545135498,12.919246673583984,0.5451092720031738,13.514854431152344,0.04273414611816406,-1.968451976776123,5.359053611755371,11.376184463500977,-3.8376412391662598,-9.371442794799805,26.22625160217285,-22.81522560119629,-1.9781322479248047,-13.701112747192383,-7.1925201416015625,-4.231350421905518,-5.27931022644043,11.22496223449707,8.335793495178223,33.697784423828125,-7.480840682983398,10.587980270385742,-28.452192306518555,-12.420802116394043,-12.632644653320312,19.54971694946289,-3.491103172302246,-4.474242210388184,-21.20615577697754,3.9343137741088867,18.011693954467773,-29.494434356689453,26.33889389038086,6.553617477416992,-27.198932647705078,6.931260108947754,-13.546112060546875,1.1659154891967773,-4.500408172607422,0.9608173370361328,-29.60530662536621,-0.4059023857116699,-21.516075134277344,-7.897716522216797,-8.732162475585938,-2.380338668823242,-18.134300231933594,1.8614702224731445,-23.465696334838867,-23.873388290405273,-7.038092136383057,17.548728942871094,29.48818588256836,2.987943649291992,-22.887487411499023,9.000236511230469,-20.056495666503906,16.06793975830078,9.782185554504395,8.399259567260742,-5.6024932861328125,-30.40375518798828,0.32570552825927734,7.914085388183594,24.774173736572266,-3.3303494453430176,9.361663818359375,-9.097890853881836,5.076332092285156,16.012842178344727,-23.468135833740234,-15.281407356262207,-5.060337066650391,-7.054457187652588,-9.080273628234863,20.247102737426758,12.46584701538086,-6.517331123352051,-4.509264945983887,9.473489761352539,7.768609046936035,1.544830322265625,0.9103021621704102,18.009017944335938,4.049223899841309,23.629852294921875,-5.7790727615356445,-4.34733247756958,-2.400663375854492,0.25728702545166016,-6.16444206237793,43.30828857421875,0.1125941276550293,0.45403003692626953,1.9021449089050293,-11.032217025756836,-4.970794677734375,-15.531501770019531,10.734413146972656,-9.702967643737793,-18.642316818237305,4.582789421081543,-4.145086288452148,29.474536895751953,4.2657976150512695,8.908235549926758,7.8965606689453125,14.761968612670898,3.6126089096069336,-27.21733856201172,-11.384187698364258,-19.161754608154297,-8.085768699645996,-3.8707408905029297,-8.647343635559082,-21.43221092224121,-7.642843246459961,-15.295408248901367,0.6788911819458008,-3.3623533248901367,-13.943960189819336,-32.17238235473633,3.1851234436035156,1.1888737678527832,-2.8230419158935547],[-1.0710844993591309,-19.96935272216797,6.693459510803223,7.833806991577148,-5.8506269454956055,-0.7907829284667969,6.746674537658691,13.922548294067383,3.2602224349975586,-4.143164157867432,2.1676807403564453,7.399639129638672,5.70515251159668,-18.38236427307129,3.481872081756592,-0.6476922035217285,-7.154716491699219,-9.041524887084961,-2.1107044219970703,4.8981451988220215,-19.71202850341797,-3.9642791748046875,24.90035057067871,4.81303596496582,-26.430118560791016,-14.013790130615234,-2.215874671936035,-12.502436637878418,-2.240995407104492,-12.97563648223877,6.5692596435546875,14.495233535766602,0.4578523635864258,-17.900503158569336,13.452703475952148,-17.552671432495117,-3.9891200065612793,-4.156318664550781,13.543262481689453,-10.746506690979004,10.644403457641602,-3.5840320587158203,1.7151012420654297,9.776968955993652,2.056713819503784,1.758286476135254,16.990604400634766,-8.776101112365723,-5.088784217834473,17.573366165161133,17.437698364257812,19.807613372802734,-8.833415031433105,7.647564888000488,-24.274662017822266,1.8124446868896484,9.983545303344727,-12.851415634155273,1.004744529724121,-2.108307361602783,-0.45856475830078125,6.534745216369629,-3.3338942527770996,1.8992571830749512,7.041328430175781,8.400982856750488,-10.90815544128418,-2.381824493408203,8.415441513061523,-8.769798278808594,5.384910583496094,-13.521008491516113,5.791460037231445,1.5779237747192383,4.266708850860596,1.330796718597412,-13.708673477172852,-6.81584358215332,-0.5275349617004395,4.882345676422119,-4.350226402282715,-9.934298515319824,2.3677358627319336,0.9843664169311523,7.673608779907227,7.894575119018555,-11.161434173583984,-7.447134971618652,-11.546765327453613,11.44719123840332,-3.542694091796875,-3.8175792694091797,-17.618236541748047,8.690984725952148,10.704797744750977,15.174304962158203,12.541559219360352,6.917221546173096,8.09721565246582,3.9448471069335938,2.6689891815185547,12.459497451782227,-10.094381332397461,9.223919868469238,12.721633911132812,7.09820556640625,5.4809794425964355,-2.6166200637817383,-8.287171363830566,-1.6998424530029297,1.7149343490600586,9.242000579833984,-16.011516571044922,-4.067508697509766,-0.07460737228393555,3.1566381454467773,8.298222541809082,-9.73613452911377,17.55089569091797,4.566062927246094,20.090974807739258,11.29239273071289,-11.161368370056152,15.895854949951172,1.8066139221191406,4.551787376403809,-9.791872024536133,1.488809585571289],[-2.8372902870178223,-11.662324905395508,13.412635803222656,-1.1134953498840332,5.931087493896484,-7.951515197753906,-3.618539810180664,9.798995971679688,20.774169921875,4.072814464569092,-22.4173583984375,-3.028841257095337,-5.144478797912598,-2.3052501678466797,-1.3719673156738281,17.833526611328125,-3.0159058570861816,17.75275230407715,-23.13453483581543,1.626575231552124,-11.998380661010742,2.507350444793701,-6.695432186126709,-17.646268844604492,-5.60665225982666,1.3475780487060547,-19.6669921875,-5.348993301391602,6.199339866638184,8.790626525878906,-4.599246501922607,2.141289234161377,-2.818039894104004,18.352977752685547,-6.824908256530762,-7.079174041748047,-1.8593864440917969,-4.81404972076416,-0.39469432830810547,-7.415038108825684,17.75029182434082,-7.770423889160156,-0.8992891311645508,5.978738784790039,3.092057228088379,8.283178329467773,-33.516475677490234,5.163567543029785,15.443977355957031,-2.6520280838012695,-11.49138069152832,-16.877151489257812,-8.853385925292969,-24.83570098876953,-2.694326877593994,-11.811022758483887,11.778298377990723,-6.145898818969727,9.51558780670166,-0.6821017265319824,-6.355617523193359,0.17306232452392578,14.999598503112793,2.989208698272705,-5.35511589050293,-21.374988555908203,1.6194515228271484,-16.130632400512695,-9.95501708984375,16.572494506835938,-23.480133056640625,-11.230703353881836,1.7298402786254883,12.587297439575195,-3.0657596588134766,3.358156204223633,-4.8697509765625,-5.739086627960205,8.399486541748047,-16.02857208251953,14.246066093444824,-0.019927978515625,6.420808792114258,19.29153823852539,-10.50952434539795,-3.466477870941162,2.3526787757873535,-21.971942901611328,2.417254686355591,5.5890607833862305,-19.164119720458984,1.5141220092773438,-0.22284507751464844,-6.599274635314941,19.735973358154297,-19.87041473388672,-4.38515567779541,-11.380011558532715,-9.008277893066406,-16.05977439880371,-7.840299606323242,5.113327980041504,-10.802236557006836,-14.024731636047363,18.998647689819336,1.097320556640625,5.4195098876953125,2.4912002086639404,-14.223167419433594,-19.294464111328125,5.546558380126953,-2.93436336517334,10.71069622039795,13.627531051635742,-4.421233177185059,-0.5891077518463135,-5.284477233886719,-0.2735939025878906,-2.2545299530029297,19.078170776367188,-2.5878634452819824,4.705165863037109,5.926767349243164,-13.21044921875,6.812612533569336,20.102123260498047,1.4923210144042969,-2.8275322914123535],[-3.6553096771240234,6.408487319946289,0.7826826572418213,-8.183881759643555,-8.932127952575684,1.185347318649292,-3.1165695190429688,-12.941529273986816,0.8562593460083008,-6.552859306335449,1.428991675376892,-8.507129669189453,5.179510116577148,7.475033760070801,-7.4513702392578125,21.52300453186035,-3.0495657920837402,4.231692790985107,-1.6772723197937012,-20.948457717895508,-2.7015275955200195,-12.592264175415039,-3.6048755645751953,-6.457420349121094,-6.274212837219238,-4.209808349609375,-3.6476316452026367,-3.4473228454589844,14.626083374023438,8.181026458740234,6.494876861572266,16.6417236328125,1.9295411109924316,0.15932703018188477,7.018756866455078,14.454849243164062,-14.666905403137207,-19.8681640625,1.0587124824523926,-1.8068172931671143,-15.486255645751953,-11.911699295043945,-10.061711311340332,4.291834354400635,4.328215599060059,-10.841455459594727,5.701993942260742,11.028810501098633,1.0576152801513672,-3.1443495750427246,4.185718059539795,0.30350255966186523,7.227276802062988,-15.713951110839844,-17.58232879638672,-9.383731842041016,-0.8468499183654785,-4.979927062988281,-4.339013576507568,-14.11555290222168,-6.859791278839111,-1.2216002941131592,-2.446458339691162,-0.5203135013580322,2.007741928100586,0.42154359817504883,15.911039352416992,-3.8138270378112793,6.4775495529174805,-12.304218292236328,10.511938095092773,4.461943626403809,10.447060585021973,-0.10111522674560547,12.923318862915039,-15.784870147705078,-7.796351432800293,-7.628737449645996,25.54452133178711,18.791301727294922,-1.2704706192016602,-7.022953987121582,17.352035522460938,-6.497969627380371,-15.63231086730957,-1.4280874729156494,-12.016810417175293,-12.031046867370605,6.0717291831970215,3.4785614013671875,-3.2283124923706055,1.464238166809082,8.599035263061523,15.798320770263672,6.494190216064453,2.862105369567871,-17.14259910583496,2.3382225036621094,1.8816189765930176,-4.8299384117126465,-4.802702903747559,8.017838478088379,-4.307453155517578,-1.9693455696105957,-2.5293831825256348,-0.4660301208496094,-4.003683567047119,-11.287031173706055,-0.10253000259399414,-4.838924884796143,5.150838851928711,-10.998860359191895,7.076180458068848,5.1401214599609375,-9.368965148925781,-8.743877410888672,-5.834725379943848,-20.84549903869629,4.195918083190918,-10.046457290649414,-9.556903839111328,-18.76404571533203,-9.713940620422363,3.3725032806396484,-0.06303071975708008,7.213052749633789,-3.388284683227539,-2.848876953125],[2.506218433380127,23.967077255249023,-4.696122169494629,-9.070261001586914,11.802783012390137,11.723361015319824,2.216485023498535,4.67777681350708,-9.441872596740723,-6.570512771606445,2.447465181350708,8.441798210144043,20.245159149169922,-5.727648735046387,-0.012212753295898438,7.058383941650391,-20.135133743286133,6.112851142883301,-10.066267013549805,-3.3352158069610596,15.612689971923828,-3.5056872367858887,-3.4973130226135254,6.149251461029053,-23.917558670043945,0.9260632991790771,7.652474880218506,10.566263198852539,25.308361053466797,6.696562767028809,-2.5523533821105957,-0.707557201385498,2.9427413940429688,10.19302749633789,2.5306081771850586,12.401693344116211,19.392881393432617,-13.699555397033691,3.0317578315734863,-6.5722174644470215,7.243598937988281,9.284416198730469,5.66717004776001,-3.6667063236236572,24.197105407714844,8.844507217407227,17.433433532714844,-17.095333099365234,-2.9384708404541016,12.08486270904541,-3.603875160217285,15.918441772460938,-0.9425487518310547,11.158830642700195,5.890871047973633,-1.676926612854004,10.304342269897461,10.482955932617188,-4.299890518188477,0.47609126567840576,1.6707220077514648,1.047165036201477,2.899916410446167,-24.18091583251953,4.630407333374023,-7.319357872009277,14.227385520935059,-14.441374778747559,-3.5853891372680664,-5.5955352783203125,15.635066986083984,-25.8391056060791,13.659587860107422,8.85263442993164,14.873376846313477,-11.046276092529297,-24.147695541381836,-3.1509671211242676,2.775221824645996,5.217955589294434,-8.757786750793457,-14.615620613098145,2.3259177207946777,21.309398651123047,-2.0173768997192383,9.623164176940918,-14.912800788879395,-11.732256889343262,1.908658504486084,2.1006507873535156,-11.704290390014648,-12.388477325439453,7.936094760894775,10.183784484863281,-1.838674783706665,-5.040111541748047,14.699335098266602,3.114077568054199,12.989432334899902,-5.626157283782959,13.783682823181152,7.833850860595703,3.0860676765441895,1.6361446380615234,7.315579414367676,-10.55583381652832,-9.939980506896973,9.804536819458008,24.624610900878906,14.93327522277832,-8.620443344116211,-0.059839725494384766,-0.8150482177734375,17.71218490600586,8.220267295837402,-8.591630935668945,4.667812347412109,-19.105396270751953,5.746866226196289,5.3055219650268555,5.783111095428467,2.857790470123291,-5.80888557434082,15.682184219360352,3.137453079223633,20.500680923461914,14.981120109558105,1.902909278869629],[7.257338047027588,19.81460189819336,6.986013412475586,5.0122175216674805,-28.9163761138916,0.010619878768920898,14.758520126342773,2.0264387130737305,4.940879821777344,-13.268221855163574,-11.075862884521484,8.8294677734375,-5.381477355957031,-12.670863151550293,-12.60748291015625,-10.802230834960938,-8.53177261352539,10.605098724365234,-5.966732978820801,26.856426239013672,-7.731739044189453,-8.060535430908203,-18.440828323364258,6.14493465423584,20.19890594482422,23.781314849853516,-2.4348065853118896,-5.222772598266602,9.64093017578125,-6.333812713623047,-9.145666122436523,-7.3354387283325195,12.595085144042969,2.150935649871826,-1.2076387405395508,1.2995281219482422,17.98369598388672,7.247054100036621,-2.688507080078125,2.125582218170166,-4.936939239501953,23.16640853881836,-10.384535789489746,2.2470149993896484,1.9209494590759277,-6.2932281494140625,9.99919319152832,-21.268186569213867,-6.737607955932617,-3.0143165588378906,13.40781307220459,-8.594223022460938,-1.4938266277313232,0.8389101028442383,19.537023544311523,2.6342992782592773,1.149980068206787,-2.5548534393310547,9.101154327392578,-29.246871948242188,-0.8604187965393066,4.279149532318115,5.650291919708252,-9.302001953125,-6.4712018966674805,1.8561697006225586,4.1649169921875,4.08010196685791,17.183767318725586,4.682226181030273,-2.0084686279296875,-11.153895378112793,-10.453828811645508,2.6243972778320312,-2.9378747940063477,11.875473022460938,-0.8739049434661865,-3.417487621307373,-8.378717422485352,-14.666790962219238,0.05115032196044922,12.846319198608398,-11.996009826660156,9.852354049682617,6.522422790527344,7.011471748352051,18.10880470275879,-19.033206939697266,-9.706585884094238,-7.444167137145996,22.232973098754883,-17.082481384277344,1.0002214908599854,-8.276134490966797,6.00178861618042,-11.3704252243042,3.143989086151123,-14.114740371704102,-0.5413694381713867,-31.4595947265625,1.516726016998291,6.531519889831543,5.664313316345215,8.987106323242188,10.689988136291504,-8.229249000549316,-15.521512985229492,7.769372940063477,4.538627624511719,12.346609115600586,6.6247711181640625,-5.6216630935668945,-10.30981731414795,12.06657886505127,16.059473037719727,-13.776054382324219,15.043577194213867,-0.03889274597167969,-10.619269371032715,-9.886076927185059,5.719889163970947,11.273736000061035,2.086839199066162,-4.047443389892578,9.979560852050781,-5.513195037841797,5.292032241821289,-3.2033114433288574],[9.873167037963867,13.385858535766602,-7.139895439147949,-9.698281288146973,5.559704780578613,2.1481552124023438,3.278001308441162,-1.6316275596618652,7.669271945953369,-12.848116874694824,9.378395080566406,-24.721254348754883,15.892799377441406,0.18929815292358398,6.117568016052246,5.172240257263184,12.566697120666504,-1.876939058303833,4.30143928527832,-20.569618225097656,3.3357152938842773,8.412263870239258,-7.172595024108887,24.484970092773438,1.6685431003570557,-9.413527488708496,14.217514038085938,4.337339878082275,-13.838857650756836,-1.3085150718688965,-15.120170593261719,0.6685836315155029,17.39422607421875,3.01065731048584,3.2901368141174316,6.810970783233643,13.855460166931152,16.75765609741211,6.162991523742676,4.064548492431641,-0.08978962898254395,-10.421457290649414,-13.00373649597168,2.560009002685547,15.7894287109375,0.16121673583984375,13.394623756408691,5.630723476409912,-8.965093612670898,9.122604370117188,-13.607579231262207,0.3631901741027832,11.038152694702148,-1.36238431930542,0.47016286849975586,-8.460474014282227,-1.5795674324035645,10.047720909118652,1.1178293228149414,10.4637451171875,11.348100662231445,-8.925581932067871,-2.0802347660064697,4.115568161010742,15.992774963378906,-1.2354416847229004,-7.284111976623535,-5.117967128753662,0.31299829483032227,-7.482900619506836,5.886211395263672,-5.081943511962891,22.798826217651367,13.351276397705078,11.835565567016602,1.8673300743103027,-1.412825584411621,-9.947101593017578,-18.35200309753418,4.77027702331543,-18.92143440246582,8.82287883758545,13.670066833496094,-3.9698009490966797,-0.5667400360107422,5.18061637878418,-7.130049228668213,-6.214834213256836,-3.889437198638916,-24.37744140625,-4.525975227355957,-15.061491012573242,-19.99555015563965,6.579919338226318,-17.250253677368164,-3.1618545055389404,19.541105270385742,-5.016157150268555,14.74599552154541,-5.417849540710449,-13.740071296691895,-15.647229194641113,-10.005451202392578,9.193288803100586,13.841415405273438,15.25874137878418,3.6159133911132812,0.6871800422668457,10.942596435546875,-7.191007137298584,-9.182914733886719,4.202602863311768,22.1074275970459,-0.8241615295410156,14.614777565002441,4.384919166564941,3.410005569458008,6.733326435089111,15.794868469238281,-7.028331756591797,28.303531646728516,9.181188583374023,-22.223814010620117,28.936725616455078,-3.5590572357177734,-4.088442802429199,10.33149528503418,-0.7663488388061523],[-11.567012786865234,4.612663269042969,12.435873031616211,-0.5665569305419922,-2.8746016025543213,-8.524225234985352,-8.53483772277832,-26.17496109008789,18.93948745727539,16.350933074951172,-1.8996620178222656,-26.25748634338379,12.229747772216797,-4.054744720458984,11.306682586669922,-4.419694900512695,8.976524353027344,7.793285369873047,8.689870834350586,7.403177261352539,-3.1072168350219727,4.632019996643066,11.98126220703125,5.369667053222656,16.684574127197266,-9.152057647705078,18.219547271728516,6.701688766479492,-17.373851776123047,-0.376115083694458,-3.236215591430664,-3.4173660278320312,5.131093502044678,10.019157409667969,4.2157135009765625,-3.717866897583008,8.372371673583984,14.758899688720703,8.37587833404541,11.99121379852295,1.2659809589385986,-20.624990463256836,-0.6119942665100098,5.133720397949219,4.2257795333862305,5.960553169250488,3.263737678527832,9.109844207763672,6.535722732543945,-16.62285041809082,0.48474836349487305,-7.165755271911621,18.599166870117188,-11.190834045410156,22.414403915405273,-4.206209659576416,-0.15190505981445312,3.943338394165039,2.621163845062256,8.099335670471191,-11.149898529052734,-16.977466583251953,0.7728557586669922,1.404675006866455,-5.3853373527526855,-5.77220344543457,7.867326736450195,-4.295969009399414,4.147159576416016,-10.63296890258789,-4.661291122436523,-7.374203681945801,4.17282772064209,5.923943519592285,-7.571983337402344,2.76383113861084,14.472826957702637,-12.562324523925781,-13.770042419433594,2.4156198501586914,16.69900894165039,1.140587329864502,19.811256408691406,-2.7246904373168945,3.6273880004882812,-14.659050941467285,3.632290840148926,-5.696347713470459,-7.836671829223633,-11.118773460388184,-12.958585739135742,4.014102935791016,-10.44101333618164,-0.6107883453369141,-7.239971160888672,20.581350326538086,-12.421113967895508,-10.783466339111328,0.5015387535095215,-7.82912540435791,5.802243232727051,-6.249420166015625,10.851726531982422,-8.554961204528809,-3.4989328384399414,13.519002914428711,-9.79267692565918,-10.85869026184082,13.598390579223633,6.22615909576416,9.31267261505127,0.004748344421386719,2.3729782104492188,0.9705371856689453,-7.803125381469727,-7.744270324707031,2.4686338901519775,20.382144927978516,-1.8438496589660645,-3.8337535858154297,3.152437210083008,1.8442707061767578,9.103151321411133,1.3503997325897217,-15.771183013916016,-11.12002182006836,-6.413713455200195,-15.286748886108398],[1.498134970664978,12.121932983398438,5.853455066680908,-0.7423633337020874,-6.649906158447266,10.825185775756836,1.629072904586792,13.339790344238281,-2.273851156234741,5.441171646118164,8.934135437011719,-3.75823974609375,0.7091488838195801,-1.359627366065979,6.586843490600586,-6.746429920196533,6.103450775146484,-13.765706062316895,-14.944584846496582,2.8228578567504883,-1.7830305099487305,0.6744611263275146,2.2841341495513916,16.006492614746094,-5.5453200340271,-6.1750030517578125,31.984527587890625,14.407633781433105,10.15298843383789,-12.802825927734375,-5.528101921081543,18.639097213745117,-18.25723648071289,-0.3867616653442383,-14.799415588378906,7.19160270690918,7.637026786804199,-4.223029136657715,7.781027317047119,-9.631063461303711,4.645778656005859,-1.1940604448318481,15.597558975219727,-0.7072744369506836,18.354013442993164,-5.172187805175781,4.389220237731934,-3.6861705780029297,0.06627321243286133,-13.727898597717285,-7.780167579650879,0.4075965881347656,-16.277482986450195,6.122431755065918,5.007000923156738,8.961524963378906,-11.653884887695312,-1.9204566478729248,-10.03886604309082,20.178546905517578,-6.17897367477417,-1.1031663417816162,9.702746391296387,7.967214584350586,1.9843964576721191,-0.6953814029693604,5.9325408935546875,-8.370264053344727,-1.4264668226242065,-3.0340518951416016,5.469736099243164,-1.6110024452209473,11.435120582580566,5.4691853523254395,-6.979451656341553,-7.415970802307129,-11.349363327026367,3.956976890563965,0.7812561988830566,12.906755447387695,6.022697448730469,9.156238555908203,-0.9511257410049438,-3.130476951599121,-3.215345859527588,-1.9035558700561523,7.022138595581055,10.433053016662598,-6.444584846496582,7.870114326477051,7.6952104568481445,-2.132748603820801,-9.930065155029297,-7.547236442565918,1.5910793542861938,-13.899458885192871,-6.55816650390625,-0.5012526512145996,6.102959632873535,10.539617538452148,-22.01492691040039,-7.684542655944824,25.75560760498047,6.313342094421387,-8.135311126708984,10.273467063903809,-22.226299285888672,-10.15733528137207,-10.461172103881836,-1.5445632934570312,11.134063720703125,-5.6877851486206055,7.708017826080322,0.2070600986480713,1.2905296087265015,5.931600093841553,2.6027274131774902,26.293163299560547,-14.514022827148438,4.844379425048828,0.23202013969421387,6.636032581329346,4.968475341796875,-1.5619852542877197,0.8578102588653564,6.9725446701049805,-13.781329154968262,-4.487144470214844],[-5.301599502563477,-3.02199387550354,0.6544961929321289,-11.193015098571777,1.3759875297546387,8.445643424987793,-4.433091163635254,23.92513084411621,20.721561431884766,5.401900768280029,9.796902656555176,12.434825897216797,-0.1944429874420166,9.440908432006836,9.67612075805664,12.359890937805176,-13.250202178955078,-1.431999683380127,10.549599647521973,5.287131309509277,8.369670867919922,8.642508506774902,8.299581527709961,-32.42481231689453,-1.714468002319336,-13.387260437011719,9.547515869140625,-1.6560823917388916,-1.4093360900878906,-6.045435905456543,-20.428340911865234,-13.736717224121094,-4.019835472106934,2.9144041538238525,16.342334747314453,29.259506225585938,1.2731409072875977,-0.9804031848907471,13.22475814819336,-7.495656967163086,-7.9864091873168945,14.933626174926758,-8.451375007629395,-7.128413200378418,-19.46790313720703,4.562988758087158,3.5952157974243164,5.399224281311035,-0.18503570556640625,21.449813842773438,-1.1351022720336914,20.055940628051758,9.798863410949707,0.3725292682647705,-4.208393096923828,-8.792478561401367,-11.304337501525879,-11.6575288772583,-1.797715425491333,-0.3006160259246826,-6.376518249511719,13.257472038269043,-0.6406865119934082,9.842178344726562,8.294300079345703,8.84617805480957,-3.5282058715820312,1.3837018013000488,0.7546067237854004,-2.903757095336914,6.783448696136475,23.730945587158203,-3.452280282974243,10.951149940490723,13.491759300231934,9.760177612304688,-1.4579384326934814,-1.6947963237762451,7.725464344024658,-11.05471420288086,-0.5455946922302246,-14.5823974609375,-1.2594947814941406,-0.445080041885376,8.50973129272461,-7.446707725524902,0.7354953289031982,4.3551344871521,-4.049073696136475,-11.919439315795898,5.934393405914307,-11.335707664489746,-10.759257316589355,6.273433208465576,8.961190223693848,9.514726638793945,-2.140657424926758,10.861608505249023,-13.777422904968262,0.8478407859802246,4.977046966552734,-15.6181640625,-5.58418083190918,-6.5921630859375,3.125488758087158,5.330000400543213,3.3401007652282715,17.629926681518555,-0.681304931640625,-29.517038345336914,13.497716903686523,-13.355012893676758,-9.724550247192383,-8.387771606445312,-0.7042617797851562,-4.804344177246094,-13.50235366821289,-20.704275131225586,-0.7454214096069336,7.3861188888549805,-24.903928756713867,-21.18621063232422,5.140802383422852,7.20322322845459,-0.02376556396484375,-8.195093154907227,10.66842269897461,-6.041645050048828]],"output_sha256":"c566e3e7e7328edc91fce26add3f8b44fd525b7a11e49d8c8264c515619ce5f4"},"holdout_hardware":{"output":[[12.324411392211914,0.9470906257629395,-16.048982620239258,-2.962144374847412,-9.798896789550781,-0.41488218307495117,0.26184701919555664,-14.1619234085083,-14.879551887512207,3.3310599327087402,7.903842926025391,7.854439735412598,-16.60573387145996,1.7328331470489502,-4.652864456176758,-12.452980041503906,9.78176212310791,-10.637937545776367,-8.456130981445312,23.247844696044922,16.29479217529297,1.0040602684020996,-10.64153003692627,7.318493843078613,21.85226058959961,-7.508203506469727,-1.3602104187011719,4.918469429016113,-3.4801788330078125,-0.8796701431274414,6.68229341506958,-17.891773223876953,3.974642753601074,29.657861709594727,0.18465423583984375,7.215620040893555,-5.038278579711914,-2.8101754188537598,-2.814265251159668,8.11931037902832,5.461278915405273,5.39913272857666,-11.118614196777344,-28.85808563232422,-11.736228942871094,-21.373796463012695,-1.1715683937072754,0.29661107063293457,-12.934272766113281,-14.860435485839844,-2.076411008834839,-29.84201431274414,-6.4521684646606445,-16.575531005859375,-3.9988040924072266,5.572000503540039,-4.437712669372559,-8.876158714294434,-4.79084587097168,-11.31239128112793,-16.324649810791016,3.8350749015808105,-14.041598320007324,18.298974990844727,-22.10247802734375,7.994370460510254,21.123802185058594,7.635678768157959,-3.488685131072998,4.123722553253174,-20.536052703857422,-7.8450608253479,8.12606430053711,-4.433348655700684,2.3335394859313965,-6.274656295776367,14.398981094360352,-0.8110067844390869,11.278816223144531,1.1377429962158203,-3.231109619140625,-7.32711124420166,1.9743494987487793,-18.471378326416016,22.877864837646484,-3.078800678253174,-3.277651309967041,11.5021333694458,9.418323516845703,-5.966251373291016,-4.463623046875,-11.771636962890625,11.519521713256836,-9.01340389251709,-20.189498901367188,2.639768600463867,7.396076202392578,2.0985403060913086,-6.714391708374023,8.067474365234375,3.761052131652832,19.942716598510742,3.1838741302490234,14.939300537109375,-0.5329771041870117,-3.4850239753723145,3.3564505577087402,-26.71748924255371,-5.28637170791626,10.306023597717285,15.278650283813477,-13.247339248657227,-16.421051025390625,0.17528247833251953,-1.6999742984771729,-3.4775309562683105,7.108127117156982,-11.226451873779297,3.089632987976074,-8.361373901367188,-22.55698013305664,-11.94197940826416,-3.558074474334717,-21.559005737304688,-7.325756072998047,6.471173286437988,-6.8438825607299805,7.395234107971191],[-7.597683429718018,1.7626380920410156,-1.2573399543762207,12.387436866760254,0.6926373243331909,-6.845619201660156,-16.454442977905273,-7.930690765380859,-13.727994918823242,18.195165634155273,2.837416887283325,-6.907515048980713,0.24989795684814453,7.460097789764404,3.744131088256836,-7.763830184936523,-5.804712295532227,-3.478907585144043,-0.5988155603408813,-8.227313041687012,-5.463150978088379,-2.185094118118286,10.595039367675781,7.020211696624756,16.59937858581543,-12.616020202636719,12.568559646606445,8.623254776000977,-12.809377670288086,4.928555965423584,4.180960178375244,-8.76926040649414,13.635770797729492,27.293249130249023,-7.553328514099121,-5.850002288818359,-20.480815887451172,-1.9278268814086914,2.9461965560913086,-7.729475021362305,-5.5069732666015625,-1.478839635848999,-0.6139135360717773,-1.4575119018554688,-14.688493728637695,1.3470044136047363,16.39143180847168,-7.29070520401001,8.234436988830566,-13.977277755737305,8.3424072265625,0.21748924255371094,-9.573216438293457,-5.9883599281311035,9.058996200561523,-0.6002926826477051,1.702991008758545,-25.81523895263672,-2.950251579284668,-1.1900458335876465,7.294814109802246,8.604399681091309,-0.9934457540512085,8.288374900817871,-9.712865829467773,-3.5865321159362793,21.308605194091797,7.480480194091797,10.668669700622559,-4.136425018310547,3.9752755165100098,-0.35337257385253906,4.158624649047852,-12.258127212524414,19.858137130737305,7.898312568664551,15.957666397094727,6.816938877105713,0.5251452922821045,7.926884651184082,11.089033126831055,2.154913902282715,6.530096054077148,-15.836607933044434,-10.596840858459473,9.221880912780762,-12.540851593017578,5.391436576843262,7.246665000915527,3.3765687942504883,-0.6594767570495605,10.428125381469727,-8.316767692565918,9.760171890258789,-7.653025150299072,-3.221792221069336,1.7585104703903198,2.0901060104370117,-8.145345687866211,15.741395950317383,6.919541358947754,3.8241891860961914,0.45287466049194336,-6.437324523925781,1.3018810749053955,1.5976457595825195,10.508892059326172,0.7953300476074219,4.113652229309082,11.880006790161133,-1.2840590476989746,8.129683494567871,3.903143882751465,8.067923545837402,14.837221145629883,-3.3418540954589844,15.629143714904785,7.4300665855407715,-7.140213489532471,14.339139938354492,5.028181552886963,-1.836496353149414,-2.448566436767578,-4.54933500289917,5.060110092163086,-1.5754690170288086,8.127223014831543,3.9228429794311523],[7.458192825317383,10.399754524230957,-12.523582458496094,-3.8172664642333984,10.340177536010742,4.42269229888916,11.551736831665039,-4.8837971687316895,-6.29566764831543,3.45282244682312,-1.6939244270324707,5.435614109039307,4.501062393188477,2.003167152404785,13.6177978515625,1.6529746055603027,10.828352928161621,-17.543071746826172,0.9475220441818237,-4.68200159072876,3.8807754516601562,1.2141320705413818,20.73792839050293,-1.7179174423217773,-7.884738922119141,6.8389668464660645,-1.1271772384643555,-2.0417041778564453,-1.9230012893676758,-10.781041145324707,-4.57334566116333,-0.5824751853942871,0.6967048645019531,-10.469816207885742,7.878868103027344,1.7780637741088867,-6.838867664337158,-0.6238431930541992,-5.81069803237915,6.567279815673828,5.175093173980713,-0.719005823135376,-17.576473236083984,27.05588150024414,-9.87551212310791,-0.5908408164978027,12.988616943359375,4.844200611114502,-5.9333815574646,-1.6575310230255127,-5.7609782218933105,10.624612808227539,-2.416659355163574,15.433120727539062,-14.665851593017578,-11.235607147216797,-13.641382217407227,-2.0092806816101074,5.244988441467285,6.641097545623779,11.076264381408691,3.382563591003418,0.10737133026123047,-3.3660988807678223,0.15459370613098145,-0.21748733520507812,-8.136877059936523,15.083014488220215,18.123926162719727,-13.95380687713623,13.724525451660156,9.735206604003906,14.551431655883789,-0.30986976623535156,-15.013481140136719,-2.9749412536621094,6.638546943664551,5.95512580871582,-16.91852378845215,4.254993438720703,9.278158187866211,-11.862457275390625,-1.0412445068359375,11.279914855957031,2.850174903869629,-10.362067222595215,-8.415846824645996,-5.363503932952881,-5.690514087677002,0.7120070457458496,-2.341949224472046,7.028799533843994,-3.5905470848083496,3.616668224334717,-11.62098503112793,14.765037536621094,5.061768531799316,-1.2029948234558105,-11.829548835754395,19.781835556030273,13.557207107543945,-9.179571151733398,-13.161635398864746,-4.295804500579834,-5.923396110534668,-6.148540496826172,16.433738708496094,8.908554077148438,-6.313087463378906,-26.90595245361328,2.4108705520629883,-5.175861358642578,-11.767641067504883,-8.83480453491211,9.954253196716309,18.206655502319336,-23.28549575805664,21.01746368408203,-5.853559494018555,-24.435977935791016,0.06752443313598633,11.3135347366333,3.194331169128418,2.3696365356445312,-7.656128883361816,-10.139991760253906,2.8419899940490723,4.9019246101379395],[-2.473328113555908,2.685885429382324,-0.04912209510803223,-7.07866096496582,-15.47400951385498,-0.29496192932128906,-6.978524208068848,-14.483713150024414,6.599180221557617,-4.242586135864258,3.238199234008789,-10.458980560302734,9.537727355957031,-5.705965995788574,-2.0885543823242188,10.455320358276367,-11.837566375732422,8.633328437805176,-12.30116081237793,-6.193412780761719,-5.081481456756592,0.2637615203857422,-28.163217544555664,6.5363969802856445,10.41966438293457,6.371305465698242,10.706371307373047,-18.8302001953125,6.020575523376465,13.726983070373535,8.419963836669922,12.209260940551758,2.889495849609375,12.66632080078125,-4.68973445892334,-3.053234100341797,-25.38811683654785,-6.100647449493408,0.5620784759521484,-6.373300075531006,-0.8604738712310791,-2.050967216491699,3.0219287872314453,-15.182151794433594,2.6053285598754883,-4.016791343688965,8.813505172729492,2.5242156982421875,7.891797065734863,10.161443710327148,-22.839670181274414,-9.042530059814453,-5.870965957641602,7.811990737915039,22.19043731689453,11.460463523864746,9.44414234161377,6.219610214233398,4.526739120483398,-18.36367416381836,-18.657960891723633,1.5849204063415527,-5.007346153259277,-3.803476333618164,-11.561878204345703,3.0219340324401855,8.801790237426758,5.520211219787598,15.649847030639648,-6.057537078857422,-8.906649589538574,5.224891662597656,-0.45612668991088867,-3.5805916786193848,-8.245495796203613,13.775688171386719,-14.384710311889648,3.9921178817749023,-1.1014041900634766,8.917941093444824,9.168453216552734,-12.143786430358887,9.381759643554688,-7.226708889007568,-4.09727668762207,8.122294425964355,-14.361350059509277,0.1646428108215332,-3.5196070671081543,3.4029150009155273,7.738653659820557,1.9521656036376953,13.37789249420166,-0.7490949630737305,-7.781400203704834,12.513063430786133,-1.2982871532440186,-1.7192721366882324,-22.664093017578125,0.7096142768859863,-0.8927001953125,5.19373893737793,9.550084114074707,2.562694549560547,-5.145715713500977,-6.761101722717285,3.4771435260772705,-1.7658705711364746,-6.4863667488098145,-7.631567001342773,4.342270374298096,-8.920028686523438,-15.306427001953125,0.7485790252685547,8.917917251586914,7.8772430419921875,11.764294624328613,-26.202274322509766,0.8677892684936523,0.7068696022033691,-11.382970809936523,-7.501636505126953,7.072473526000977,-0.931959867477417,-0.35820627212524414,17.582422256469727,3.9455857276916504,-6.277677536010742],[-27.99179458618164,5.978504180908203,2.732133388519287,-8.90011215209961,14.221739768981934,7.3645920753479,-9.880919456481934,-6.099175453186035,6.677005767822266,13.0452880859375,-12.747254371643066,-11.065533638000488,-2.9639101028442383,6.105704307556152,-0.31704235076904297,6.162504196166992,-8.623649597167969,6.72453498840332,1.5723490715026855,-3.074899196624756,11.243976593017578,-20.99782943725586,6.400311470031738,-1.1667962074279785,-28.011306762695312,-7.547711372375488,6.764620780944824,-0.3535623550415039,-10.2099609375,8.990076065063477,-15.92929458618164,-1.250091552734375,7.53050422668457,-15.778889656066895,-9.721366882324219,10.018011093139648,-4.432723522186279,11.243541717529297,14.528644561767578,9.478717803955078,0.9778289794921875,-12.529544830322266,11.726838111877441,-0.5718135833740234,-10.510252952575684,-2.224276542663574,9.33687686920166,-7.132347106933594,4.3098978996276855,-10.136445999145508,12.835570335388184,6.59484338760376,-2.2814393043518066,-1.7708311080932617,2.8957338333129883,-19.349227905273438,-7.566549301147461,11.616117477416992,-3.0143160820007324,-5.320450782775879,1.9344596862792969,-8.356857299804688,-0.2593574523925781,-19.233535766601562,-21.96596908569336,13.408244132995605,-6.35869026184082,8.383184432983398,-4.943219184875488,6.045518398284912,3.6207752227783203,5.425297737121582,0.7744441032409668,1.228508472442627,-4.393575668334961,12.304468154907227,-0.5808286666870117,12.545265197753906,-6.210025787353516,3.075226306915283,2.250399112701416,5.716491222381592,0.5339117050170898,-1.2075181007385254,-2.2872986793518066,-22.564830780029297,4.655249118804932,13.684728622436523,-5.635537624359131,1.1844253540039062,0.9989395141601562,6.080730438232422,7.912762641906738,-3.532491683959961,-5.2160515785217285,2.9418563842773438,2.83497953414917,-5.655843734741211,-30.581689834594727,-8.073406219482422,18.993072509765625,-3.785964012145996,3.79095458984375,-4.230927467346191,2.0013980865478516,4.0782880783081055,21.720821380615234,-0.0034575462341308594,9.5137357711792,17.629535675048828,19.415306091308594,-14.069419860839844,-2.628732681274414,3.625232696533203,-0.04829549789428711,3.1364264488220215,-1.1396450996398926,-7.296141624450684,4.660669803619385,-5.277217864990234,-16.49663734436035,1.0706849098205566,4.12692928314209,-11.105855941772461,-1.220062255859375,14.172835350036621,5.554553031921387,-10.224742889404297],[-17.472084045410156,-4.504019737243652,-1.4760236740112305,4.357569694519043,-4.113761901855469,-13.464482307434082,-2.800159454345703,-3.3167548179626465,6.894451141357422,7.7223310470581055,-0.38695621490478516,9.580698013305664,-7.808900833129883,-1.3281688690185547,15.9183349609375,17.131912231445312,8.568304061889648,6.075325965881348,-0.46426963806152344,18.10260772705078,0.07939696311950684,0.52972412109375,-5.6581315994262695,-10.207742691040039,4.03756046295166,-9.059683799743652,-5.444578170776367,12.130505561828613,-7.946880340576172,6.326155662536621,2.011082649230957,14.862958908081055,12.046501159667969,-0.9424281120300293,7.940817832946777,1.2725253105163574,-18.834732055664062,-1.578474998474121,-17.9788875579834,-16.665271759033203,8.542269706726074,2.5238378047943115,-11.517925262451172,-8.981271743774414,11.001056671142578,0.8418960571289062,0.27024364471435547,6.754377365112305,-5.677029609680176,-2.7376880645751953,-0.7991962432861328,18.945453643798828,7.103784084320068,12.057151794433594,-6.248122215270996,-10.815812110900879,0.5400362014770508,-1.3826804161071777,-8.069586753845215,-9.553251266479492,-4.797336578369141,-15.458045959472656,-2.4618546962738037,-35.484378814697266,-8.853996276855469,4.62060546875,-2.175175666809082,4.774839401245117,6.426486968994141,-1.1928772926330566,-12.246316909790039,17.916994094848633,13.058156967163086,0.32254743576049805,10.70695686340332,6.691061019897461,2.834634304046631,8.003307342529297,-2.797469139099121,15.395256042480469,0.27616214752197266,-12.431355476379395,-5.471723556518555,6.275981903076172,-14.67959213256836,13.15078353881836,-17.221546173095703,-13.255511283874512,4.355138778686523,15.9217529296875,-11.04757022857666,2.7307662963867188,7.593598365783691,-1.5677213668823242,-8.384052276611328,-18.967676162719727,6.659085750579834,-17.846824645996094,-10.412389755249023,6.835411071777344,-2.352271556854248,-4.961859703063965,-3.6582155227661133,0.25243425369262695,17.90648078918457,-9.684137344360352,-18.376880645751953,-10.509964942932129,-15.67905044555664,-17.423322677612305,-6.932945251464844,0.25086164474487305,-15.082328796386719,0.2796502113342285,4.865198135375977,-19.560606002807617,25.542076110839844,-9.170114517211914,-14.69924545288086,15.065591812133789,19.21133041381836,-3.7444310188293457,-11.258744239807129,8.18541145324707,4.414432048797607,-3.3005762100219727,9.648462295532227,-5.545432090759277],[-6.411386489868164,8.548123359680176,-9.3965482711792,-14.19959545135498,12.919246673583984,0.5451092720031738,13.514854431152344,0.04273414611816406,-1.968451976776123,5.359053611755371,11.376184463500977,-3.8376412391662598,-9.371442794799805,26.22625160217285,-22.81522560119629,-1.9781322479248047,-13.701112747192383,-7.1925201416015625,-4.231350421905518,-5.27931022644043,11.22496223449707,8.335793495178223,33.697784423828125,-7.480840682983398,10.587980270385742,-28.452192306518555,-12.420802116394043,-12.632644653320312,19.54971694946289,-3.491103172302246,-4.474242210388184,-21.20615577697754,3.9343137741088867,18.011693954467773,-29.494434356689453,26.33889389038086,6.553617477416992,-27.198932647705078,6.931260108947754,-13.546112060546875,1.1659154891967773,-4.500408172607422,0.9608173370361328,-29.60530662536621,-0.4059023857116699,-21.516075134277344,-7.897716522216797,-8.732162475585938,-2.380338668823242,-18.134300231933594,1.8614702224731445,-23.465696334838867,-23.873388290405273,-7.038092136383057,17.548728942871094,29.48818588256836,2.987943649291992,-22.887487411499023,9.000236511230469,-20.056495666503906,16.06793975830078,9.782185554504395,8.399259567260742,-5.6024932861328125,-30.40375518798828,0.32570552825927734,7.914085388183594,24.774173736572266,-3.3303494453430176,9.361663818359375,-9.097890853881836,5.076332092285156,16.012842178344727,-23.468135833740234,-15.281407356262207,-5.060337066650391,-7.054457187652588,-9.080273628234863,20.247102737426758,12.46584701538086,-6.517331123352051,-4.509264945983887,9.473489761352539,7.768609046936035,1.544830322265625,0.9103021621704102,18.009017944335938,4.049223899841309,23.629852294921875,-5.7790727615356445,-4.34733247756958,-2.400663375854492,0.25728702545166016,-6.16444206237793,43.30828857421875,0.1125941276550293,0.45403003692626953,1.9021449089050293,-11.032217025756836,-4.970794677734375,-15.531501770019531,10.734413146972656,-9.702967643737793,-18.642316818237305,4.582789421081543,-4.145086288452148,29.474536895751953,4.2657976150512695,8.908235549926758,7.8965606689453125,14.761968612670898,3.6126089096069336,-27.21733856201172,-11.384187698364258,-19.161754608154297,-8.085768699645996,-3.8707408905029297,-8.647343635559082,-21.43221092224121,-7.642843246459961,-15.295408248901367,0.6788911819458008,-3.3623533248901367,-13.943960189819336,-32.17238235473633,3.1851234436035156,1.1888737678527832,-2.8230419158935547],[-1.0710844993591309,-19.96935272216797,6.693459510803223,7.833806991577148,-5.8506269454956055,-0.7907829284667969,6.746674537658691,13.922548294067383,3.2602224349975586,-4.143164157867432,2.1676807403564453,7.399639129638672,5.70515251159668,-18.38236427307129,3.481872081756592,-0.6476922035217285,-7.154716491699219,-9.041524887084961,-2.1107044219970703,4.8981451988220215,-19.71202850341797,-3.9642791748046875,24.90035057067871,4.81303596496582,-26.430118560791016,-14.013790130615234,-2.215874671936035,-12.502436637878418,-2.240995407104492,-12.97563648223877,6.5692596435546875,14.495233535766602,0.4578523635864258,-17.900503158569336,13.452703475952148,-17.552671432495117,-3.9891200065612793,-4.156318664550781,13.543262481689453,-10.746506690979004,10.644403457641602,-3.5840320587158203,1.7151012420654297,9.776968955993652,2.056713819503784,1.758286476135254,16.990604400634766,-8.776101112365723,-5.088784217834473,17.573366165161133,17.437698364257812,19.807613372802734,-8.833415031433105,7.647564888000488,-24.274662017822266,1.8124446868896484,9.983545303344727,-12.851415634155273,1.004744529724121,-2.108307361602783,-0.45856475830078125,6.534745216369629,-3.3338942527770996,1.8992571830749512,7.041328430175781,8.400982856750488,-10.90815544128418,-2.381824493408203,8.415441513061523,-8.769798278808594,5.384910583496094,-13.521008491516113,5.791460037231445,1.5779237747192383,4.266708850860596,1.330796718597412,-13.708673477172852,-6.81584358215332,-0.5275349617004395,4.882345676422119,-4.350226402282715,-9.934298515319824,2.3677358627319336,0.9843664169311523,7.673608779907227,7.894575119018555,-11.161434173583984,-7.447134971618652,-11.546765327453613,11.44719123840332,-3.542694091796875,-3.8175792694091797,-17.618236541748047,8.690984725952148,10.704797744750977,15.174304962158203,12.541559219360352,6.917221546173096,8.09721565246582,3.9448471069335938,2.6689891815185547,12.459497451782227,-10.094381332397461,9.223919868469238,12.721633911132812,7.09820556640625,5.4809794425964355,-2.6166200637817383,-8.287171363830566,-1.6998424530029297,1.7149343490600586,9.242000579833984,-16.011516571044922,-4.067508697509766,-0.07460737228393555,3.1566381454467773,8.298222541809082,-9.73613452911377,17.55089569091797,4.566062927246094,20.090974807739258,11.29239273071289,-11.161368370056152,15.895854949951172,1.8066139221191406,4.551787376403809,-9.791872024536133,1.488809585571289],[-2.8372902870178223,-11.662324905395508,13.412635803222656,-1.1134953498840332,5.931087493896484,-7.951515197753906,-3.618539810180664,9.798995971679688,20.774169921875,4.072814464569092,-22.4173583984375,-3.028841257095337,-5.144478797912598,-2.3052501678466797,-1.3719673156738281,17.833526611328125,-3.0159058570861816,17.75275230407715,-23.13453483581543,1.626575231552124,-11.998380661010742,2.507350444793701,-6.695432186126709,-17.646268844604492,-5.60665225982666,1.3475780487060547,-19.6669921875,-5.348993301391602,6.199339866638184,8.790626525878906,-4.599246501922607,2.141289234161377,-2.818039894104004,18.352977752685547,-6.824908256530762,-7.079174041748047,-1.8593864440917969,-4.81404972076416,-0.39469432830810547,-7.415038108825684,17.75029182434082,-7.770423889160156,-0.8992891311645508,5.978738784790039,3.092057228088379,8.283178329467773,-33.516475677490234,5.163567543029785,15.443977355957031,-2.6520280838012695,-11.49138069152832,-16.877151489257812,-8.853385925292969,-24.83570098876953,-2.694326877593994,-11.811022758483887,11.778298377990723,-6.145898818969727,9.51558780670166,-0.6821017265319824,-6.355617523193359,0.17306232452392578,14.999598503112793,2.989208698272705,-5.35511589050293,-21.374988555908203,1.6194515228271484,-16.130632400512695,-9.95501708984375,16.572494506835938,-23.480133056640625,-11.230703353881836,1.7298402786254883,12.587297439575195,-3.0657596588134766,3.358156204223633,-4.8697509765625,-5.739086627960205,8.399486541748047,-16.02857208251953,14.246066093444824,-0.019927978515625,6.420808792114258,19.29153823852539,-10.50952434539795,-3.466477870941162,2.3526787757873535,-21.971942901611328,2.417254686355591,5.5890607833862305,-19.164119720458984,1.5141220092773438,-0.22284507751464844,-6.599274635314941,19.735973358154297,-19.87041473388672,-4.38515567779541,-11.380011558532715,-9.008277893066406,-16.05977439880371,-7.840299606323242,5.113327980041504,-10.802236557006836,-14.024731636047363,18.998647689819336,1.097320556640625,5.4195098876953125,2.4912002086639404,-14.223167419433594,-19.294464111328125,5.546558380126953,-2.93436336517334,10.71069622039795,13.627531051635742,-4.421233177185059,-0.5891077518463135,-5.284477233886719,-0.2735939025878906,-2.2545299530029297,19.078170776367188,-2.5878634452819824,4.705165863037109,5.926767349243164,-13.21044921875,6.812612533569336,20.102123260498047,1.4923210144042969,-2.8275322914123535],[-3.6553096771240234,6.408487319946289,0.7826826572418213,-8.183881759643555,-8.932127952575684,1.185347318649292,-3.1165695190429688,-12.941529273986816,0.8562593460083008,-6.552859306335449,1.428991675376892,-8.507129669189453,5.179510116577148,7.475033760070801,-7.4513702392578125,21.52300453186035,-3.0495657920837402,4.231692790985107,-1.6772723197937012,-20.948457717895508,-2.7015275955200195,-12.592264175415039,-3.6048755645751953,-6.457420349121094,-6.274212837219238,-4.209808349609375,-3.6476316452026367,-3.4473228454589844,14.626083374023438,8.181026458740234,6.494876861572266,16.6417236328125,1.9295411109924316,0.15932703018188477,7.018756866455078,14.454849243164062,-14.666905403137207,-19.8681640625,1.0587124824523926,-1.8068172931671143,-15.486255645751953,-11.911699295043945,-10.061711311340332,4.291834354400635,4.328215599060059,-10.841455459594727,5.701993942260742,11.028810501098633,1.0576152801513672,-3.1443495750427246,4.185718059539795,0.30350255966186523,7.227276802062988,-15.713951110839844,-17.58232879638672,-9.383731842041016,-0.8468499183654785,-4.979927062988281,-4.339013576507568,-14.11555290222168,-6.859791278839111,-1.2216002941131592,-2.446458339691162,-0.5203135013580322,2.007741928100586,0.42154359817504883,15.911039352416992,-3.8138270378112793,6.4775495529174805,-12.304218292236328,10.511938095092773,4.461943626403809,10.447060585021973,-0.10111522674560547,12.923318862915039,-15.784870147705078,-7.796351432800293,-7.628737449645996,25.54452133178711,18.791301727294922,-1.2704706192016602,-7.022953987121582,17.352035522460938,-6.497969627380371,-15.63231086730957,-1.4280874729156494,-12.016810417175293,-12.031046867370605,6.0717291831970215,3.4785614013671875,-3.2283124923706055,1.464238166809082,8.599035263061523,15.798320770263672,6.494190216064453,2.862105369567871,-17.14259910583496,2.3382225036621094,1.8816189765930176,-4.8299384117126465,-4.802702903747559,8.017838478088379,-4.307453155517578,-1.9693455696105957,-2.5293831825256348,-0.4660301208496094,-4.003683567047119,-11.287031173706055,-0.10253000259399414,-4.838924884796143,5.150838851928711,-10.998860359191895,7.076180458068848,5.1401214599609375,-9.368965148925781,-8.743877410888672,-5.834725379943848,-20.84549903869629,4.195918083190918,-10.046457290649414,-9.556903839111328,-18.76404571533203,-9.713940620422363,3.3725032806396484,-0.06303071975708008,7.213052749633789,-3.388284683227539,-2.848876953125],[2.506218433380127,23.967077255249023,-4.696122169494629,-9.070261001586914,11.802783012390137,11.723361015319824,2.216485023498535,4.67777681350708,-9.441872596740723,-6.570512771606445,2.447465181350708,8.441798210144043,20.245159149169922,-5.727648735046387,-0.012212753295898438,7.058383941650391,-20.135133743286133,6.112851142883301,-10.066267013549805,-3.3352158069610596,15.612689971923828,-3.5056872367858887,-3.4973130226135254,6.149251461029053,-23.917558670043945,0.9260632991790771,7.652474880218506,10.566263198852539,25.308361053466797,6.696562767028809,-2.5523533821105957,-0.707557201385498,2.9427413940429688,10.19302749633789,2.5306081771850586,12.401693344116211,19.392881393432617,-13.699555397033691,3.0317578315734863,-6.5722174644470215,7.243598937988281,9.284416198730469,5.66717004776001,-3.6667063236236572,24.197105407714844,8.844507217407227,17.433433532714844,-17.095333099365234,-2.9384708404541016,12.08486270904541,-3.603875160217285,15.918441772460938,-0.9425487518310547,11.158830642700195,5.890871047973633,-1.676926612854004,10.304342269897461,10.482955932617188,-4.299890518188477,0.47609126567840576,1.6707220077514648,1.047165036201477,2.899916410446167,-24.18091583251953,4.630407333374023,-7.319357872009277,14.227385520935059,-14.441374778747559,-3.5853891372680664,-5.5955352783203125,15.635066986083984,-25.8391056060791,13.659587860107422,8.85263442993164,14.873376846313477,-11.046276092529297,-24.147695541381836,-3.1509671211242676,2.775221824645996,5.217955589294434,-8.757786750793457,-14.615620613098145,2.3259177207946777,21.309398651123047,-2.0173768997192383,9.623164176940918,-14.912800788879395,-11.732256889343262,1.908658504486084,2.1006507873535156,-11.704290390014648,-12.388477325439453,7.936094760894775,10.183784484863281,-1.838674783706665,-5.040111541748047,14.699335098266602,3.114077568054199,12.989432334899902,-5.626157283782959,13.783682823181152,7.833850860595703,3.0860676765441895,1.6361446380615234,7.315579414367676,-10.55583381652832,-9.939980506896973,9.804536819458008,24.624610900878906,14.93327522277832,-8.620443344116211,-0.059839725494384766,-0.8150482177734375,17.71218490600586,8.220267295837402,-8.591630935668945,4.667812347412109,-19.105396270751953,5.746866226196289,5.3055219650268555,5.783111095428467,2.857790470123291,-5.80888557434082,15.682184219360352,3.137453079223633,20.500680923461914,14.981120109558105,1.902909278869629],[7.257338047027588,19.81460189819336,6.986013412475586,5.0122175216674805,-28.9163761138916,0.010619878768920898,14.758520126342773,2.0264387130737305,4.940879821777344,-13.268221855163574,-11.075862884521484,8.8294677734375,-5.381477355957031,-12.670863151550293,-12.60748291015625,-10.802230834960938,-8.53177261352539,10.605098724365234,-5.966732978820801,26.856426239013672,-7.731739044189453,-8.060535430908203,-18.440828323364258,6.14493465423584,20.19890594482422,23.781314849853516,-2.4348065853118896,-5.222772598266602,9.64093017578125,-6.333812713623047,-9.145666122436523,-7.3354387283325195,12.595085144042969,2.150935649871826,-1.2076387405395508,1.2995281219482422,17.98369598388672,7.247054100036621,-2.688507080078125,2.125582218170166,-4.936939239501953,23.16640853881836,-10.384535789489746,2.2470149993896484,1.9209494590759277,-6.2932281494140625,9.99919319152832,-21.268186569213867,-6.737607955932617,-3.0143165588378906,13.40781307220459,-8.594223022460938,-1.4938266277313232,0.8389101028442383,19.537023544311523,2.6342992782592773,1.149980068206787,-2.5548534393310547,9.101154327392578,-29.246871948242188,-0.8604187965393066,4.279149532318115,5.650291919708252,-9.302001953125,-6.4712018966674805,1.8561697006225586,4.1649169921875,4.08010196685791,17.183767318725586,4.682226181030273,-2.0084686279296875,-11.153895378112793,-10.453828811645508,2.6243972778320312,-2.9378747940063477,11.875473022460938,-0.8739049434661865,-3.417487621307373,-8.378717422485352,-14.666790962219238,0.05115032196044922,12.846319198608398,-11.996009826660156,9.852354049682617,6.522422790527344,7.011471748352051,18.10880470275879,-19.033206939697266,-9.706585884094238,-7.444167137145996,22.232973098754883,-17.082481384277344,1.0002214908599854,-8.276134490966797,6.00178861618042,-11.3704252243042,3.143989086151123,-14.114740371704102,-0.5413694381713867,-31.4595947265625,1.516726016998291,6.531519889831543,5.664313316345215,8.987106323242188,10.689988136291504,-8.229249000549316,-15.521512985229492,7.769372940063477,4.538627624511719,12.346609115600586,6.6247711181640625,-5.6216630935668945,-10.30981731414795,12.06657886505127,16.059473037719727,-13.776054382324219,15.043577194213867,-0.03889274597167969,-10.619269371032715,-9.886076927185059,5.719889163970947,11.273736000061035,2.086839199066162,-4.047443389892578,9.979560852050781,-5.513195037841797,5.292032241821289,-3.2033114433288574],[9.873167037963867,13.385858535766602,-7.139895439147949,-9.698281288146973,5.559704780578613,2.1481552124023438,3.278001308441162,-1.6316275596618652,7.669271945953369,-12.848116874694824,9.378395080566406,-24.721254348754883,15.892799377441406,0.18929815292358398,6.117568016052246,5.172240257263184,12.566697120666504,-1.876939058303833,4.30143928527832,-20.569618225097656,3.3357152938842773,8.412263870239258,-7.172595024108887,24.484970092773438,1.6685431003570557,-9.413527488708496,14.217514038085938,4.337339878082275,-13.838857650756836,-1.3085150718688965,-15.120170593261719,0.6685836315155029,17.39422607421875,3.01065731048584,3.2901368141174316,6.810970783233643,13.855460166931152,16.75765609741211,6.162991523742676,4.064548492431641,-0.08978962898254395,-10.421457290649414,-13.00373649597168,2.560009002685547,15.7894287109375,0.16121673583984375,13.394623756408691,5.630723476409912,-8.965093612670898,9.122604370117188,-13.607579231262207,0.3631901741027832,11.038152694702148,-1.36238431930542,0.47016286849975586,-8.460474014282227,-1.5795674324035645,10.047720909118652,1.1178293228149414,10.4637451171875,11.348100662231445,-8.925581932067871,-2.0802347660064697,4.115568161010742,15.992774963378906,-1.2354416847229004,-7.284111976623535,-5.117967128753662,0.31299829483032227,-7.482900619506836,5.886211395263672,-5.081943511962891,22.798826217651367,13.351276397705078,11.835565567016602,1.8673300743103027,-1.412825584411621,-9.947101593017578,-18.35200309753418,4.77027702331543,-18.92143440246582,8.82287883758545,13.670066833496094,-3.9698009490966797,-0.5667400360107422,5.18061637878418,-7.130049228668213,-6.214834213256836,-3.889437198638916,-24.37744140625,-4.525975227355957,-15.061491012573242,-19.99555015563965,6.579919338226318,-17.250253677368164,-3.1618545055389404,19.541105270385742,-5.016157150268555,14.74599552154541,-5.417849540710449,-13.740071296691895,-15.647229194641113,-10.005451202392578,9.193288803100586,13.841415405273438,15.25874137878418,3.6159133911132812,0.6871800422668457,10.942596435546875,-7.191007137298584,-9.182914733886719,4.202602863311768,22.1074275970459,-0.8241615295410156,14.614777565002441,4.384919166564941,3.410005569458008,6.733326435089111,15.794868469238281,-7.028331756591797,28.303531646728516,9.181188583374023,-22.223814010620117,28.936725616455078,-3.5590572357177734,-4.088442802429199,10.33149528503418,-0.7663488388061523],[-11.567012786865234,4.612663269042969,12.435873031616211,-0.5665569305419922,-2.8746016025543213,-8.524225234985352,-8.53483772277832,-26.17496109008789,18.93948745727539,16.350933074951172,-1.8996620178222656,-26.25748634338379,12.229747772216797,-4.054744720458984,11.306682586669922,-4.419694900512695,8.976524353027344,7.793285369873047,8.689870834350586,7.403177261352539,-3.1072168350219727,4.632019996643066,11.98126220703125,5.369667053222656,16.684574127197266,-9.152057647705078,18.219547271728516,6.701688766479492,-17.373851776123047,-0.376115083694458,-3.236215591430664,-3.4173660278320312,5.131093502044678,10.019157409667969,4.2157135009765625,-3.717866897583008,8.372371673583984,14.758899688720703,8.37587833404541,11.99121379852295,1.2659809589385986,-20.624990463256836,-0.6119942665100098,5.133720397949219,4.2257795333862305,5.960553169250488,3.263737678527832,9.109844207763672,6.535722732543945,-16.62285041809082,0.48474836349487305,-7.165755271911621,18.599166870117188,-11.190834045410156,22.414403915405273,-4.206209659576416,-0.15190505981445312,3.943338394165039,2.621163845062256,8.099335670471191,-11.149898529052734,-16.977466583251953,0.7728557586669922,1.404675006866455,-5.3853373527526855,-5.77220344543457,7.867326736450195,-4.295969009399414,4.147159576416016,-10.63296890258789,-4.661291122436523,-7.374203681945801,4.17282772064209,5.923943519592285,-7.571983337402344,2.76383113861084,14.472826957702637,-12.562324523925781,-13.770042419433594,2.4156198501586914,16.69900894165039,1.140587329864502,19.811256408691406,-2.7246904373168945,3.6273880004882812,-14.659050941467285,3.632290840148926,-5.696347713470459,-7.836671829223633,-11.118773460388184,-12.958585739135742,4.014102935791016,-10.44101333618164,-0.6107883453369141,-7.239971160888672,20.581350326538086,-12.421113967895508,-10.783466339111328,0.5015387535095215,-7.82912540435791,5.802243232727051,-6.249420166015625,10.851726531982422,-8.554961204528809,-3.4989328384399414,13.519002914428711,-9.79267692565918,-10.85869026184082,13.598390579223633,6.22615909576416,9.31267261505127,0.004748344421386719,2.3729782104492188,0.9705371856689453,-7.803125381469727,-7.744270324707031,2.4686338901519775,20.382144927978516,-1.8438496589660645,-3.8337535858154297,3.152437210083008,1.8442707061767578,9.103151321411133,1.3503997325897217,-15.771183013916016,-11.12002182006836,-6.413713455200195,-15.286748886108398],[1.498134970664978,12.121932983398438,5.853455066680908,-0.7423633337020874,-6.649906158447266,10.825185775756836,1.629072904586792,13.339790344238281,-2.273851156234741,5.441171646118164,8.934135437011719,-3.75823974609375,0.7091488838195801,-1.359627366065979,6.586843490600586,-6.746429920196533,6.103450775146484,-13.765706062316895,-14.944584846496582,2.8228578567504883,-1.7830305099487305,0.6744611263275146,2.2841341495513916,16.006492614746094,-5.5453200340271,-6.1750030517578125,31.984527587890625,14.407633781433105,10.15298843383789,-12.802825927734375,-5.528101921081543,18.639097213745117,-18.25723648071289,-0.3867616653442383,-14.799415588378906,7.19160270690918,7.637026786804199,-4.223029136657715,7.781027317047119,-9.631063461303711,4.645778656005859,-1.1940604448318481,15.597558975219727,-0.7072744369506836,18.354013442993164,-5.172187805175781,4.389220237731934,-3.6861705780029297,0.06627321243286133,-13.727898597717285,-7.780167579650879,0.4075965881347656,-16.277482986450195,6.122431755065918,5.007000923156738,8.961524963378906,-11.653884887695312,-1.9204566478729248,-10.03886604309082,20.178546905517578,-6.17897367477417,-1.1031663417816162,9.702746391296387,7.967214584350586,1.9843964576721191,-0.6953814029693604,5.9325408935546875,-8.370264053344727,-1.4264668226242065,-3.0340518951416016,5.469736099243164,-1.6110024452209473,11.435120582580566,5.4691853523254395,-6.979451656341553,-7.415970802307129,-11.349363327026367,3.956976890563965,0.7812561988830566,12.906755447387695,6.022697448730469,9.156238555908203,-0.9511257410049438,-3.130476951599121,-3.215345859527588,-1.9035558700561523,7.022138595581055,10.433053016662598,-6.444584846496582,7.870114326477051,7.6952104568481445,-2.132748603820801,-9.930065155029297,-7.547236442565918,1.5910793542861938,-13.899458885192871,-6.55816650390625,-0.5012526512145996,6.102959632873535,10.539617538452148,-22.01492691040039,-7.684542655944824,25.75560760498047,6.313342094421387,-8.135311126708984,10.273467063903809,-22.226299285888672,-10.15733528137207,-10.461172103881836,-1.5445632934570312,11.134063720703125,-5.6877851486206055,7.708017826080322,0.2070600986480713,1.2905296087265015,5.931600093841553,2.6027274131774902,26.293163299560547,-14.514022827148438,4.844379425048828,0.23202013969421387,6.636032581329346,4.968475341796875,-1.5619852542877197,0.8578102588653564,6.9725446701049805,-13.781329154968262,-4.487144470214844],[-5.301599502563477,-3.02199387550354,0.6544961929321289,-11.193015098571777,1.3759875297546387,8.445643424987793,-4.433091163635254,23.92513084411621,20.721561431884766,5.401900768280029,9.796902656555176,12.434825897216797,-0.1944429874420166,9.440908432006836,9.67612075805664,12.359890937805176,-13.250202178955078,-1.431999683380127,10.549599647521973,5.287131309509277,8.369670867919922,8.642508506774902,8.299581527709961,-32.42481231689453,-1.714468002319336,-13.387260437011719,9.547515869140625,-1.6560823917388916,-1.4093360900878906,-6.045435905456543,-20.428340911865234,-13.736717224121094,-4.019835472106934,2.9144041538238525,16.342334747314453,29.259506225585938,1.2731409072875977,-0.9804031848907471,13.22475814819336,-7.495656967163086,-7.9864091873168945,14.933626174926758,-8.451375007629395,-7.128413200378418,-19.46790313720703,4.562988758087158,3.5952157974243164,5.399224281311035,-0.18503570556640625,21.449813842773438,-1.1351022720336914,20.055940628051758,9.798863410949707,0.3725292682647705,-4.208393096923828,-8.792478561401367,-11.304337501525879,-11.6575288772583,-1.797715425491333,-0.3006160259246826,-6.376518249511719,13.257472038269043,-0.6406865119934082,9.842178344726562,8.294300079345703,8.84617805480957,-3.5282058715820312,1.3837018013000488,0.7546067237854004,-2.903757095336914,6.783448696136475,23.730945587158203,-3.452280282974243,10.951149940490723,13.491759300231934,9.760177612304688,-1.4579384326934814,-1.6947963237762451,7.725464344024658,-11.05471420288086,-0.5455946922302246,-14.5823974609375,-1.2594947814941406,-0.445080041885376,8.50973129272461,-7.446707725524902,0.7354953289031982,4.3551344871521,-4.049073696136475,-11.919439315795898,5.934393405914307,-11.335707664489746,-10.759257316589355,6.273433208465576,8.961190223693848,9.514726638793945,-2.140657424926758,10.861608505249023,-13.777422904968262,0.8478407859802246,4.977046966552734,-15.6181640625,-5.58418083190918,-6.5921630859375,3.125488758087158,5.330000400543213,3.3401007652282715,17.629926681518555,-0.681304931640625,-29.517038345336914,13.497716903686523,-13.355012893676758,-9.724550247192383,-8.387771606445312,-0.7042617797851562,-4.804344177246094,-13.50235366821289,-20.704275131225586,-0.7454214096069336,7.3861188888549805,-24.903928756713867,-21.18621063232422,5.140802383422852,7.20322322845459,-0.02376556396484375,-8.195093154907227,10.66842269897461,-6.041645050048828]],"output_sha256":"1eb3a1fcc4e2693c489187696d5c486b7621f19d8c8dc918b906d9b0311bba89"},"claim":{},"meta":{"model":"opus-4.8","note":"generated by make_fixtures.py; hardware output is numpy-emulated (roadmap, not on-silicon)"}}