{"schema":"quantum-harness/proof-bundle@1","task":"kernel-correctness-oracle","problem_id":"gemm_int8_tile1","constraints":{"shape":[16,128,128],"tile":[8,128,128],"declared_dtype":"int8","accum_dtype":"int32"},"kernel":{"name":"tiled_gemm_int8","source_sha256":"f8081aad736ba9d7fd930e9807481d7185140ae39ad1e8478a4303075b960eea","grid":[2,1],"block_spec":{"a":{"block":[8,128],"index_map":"(i,j)->(i,0)"},"b":{"block":[128,128],"index_map":"(i,j)->(0,j)"},"out":{"block":[8,128],"index_map":"(i,j)->(i,j)"}}},"oracle":{"numeric":{"runner":"numpy.float64","reduction_len":128}},"hardware":{"device_kind":"TPU v5e","output":[[39697,25943,-11897,-110599,3907,61994,21029,-135233,-105190,-60175,106,-5924,-44932,22442,120033,636,16546,-39813,18519,11355,-18947,67426,81706,-26595,-28106,-71083,-70833,-30467,-70674,22785,95201,-43253,52944,61817,76025,-42257,-51054,-50348,75741,-155401,-62891,-33160,-18614,-96012,25173,-17667,11991,90227,-6218,-56898,-404,96216,-17998,-51110,16220,13737,-3302,-124794,82346,-132204,-42685,-51206,-114599,-162612,-28487,-115009,22624,-22095,46441,-48567,98174,-41095,28371,-92515,-109953,35804,30395,-59415,59752,-54975,5799,-23182,12033,-30724,44084,-46426,15181,-71360,54347,2228,-63436,12831,136472,-62440,-4704,-35515,50490,19291,-4454,-134071,-13892,-15124,-5529,-31648,-79,-56048,-15705,-47767,-40694,61381,-69282,-32390,62731,-38296,161536,-158614,10953,-77628,-151753,65521,-7270,-14482,-1921,-28964,61740,8792,89077,97006],[-67923,42552,67526,21598,22907,-62964,-93977,27516,88830,81074,34341,-58532,-38656,-13841,-35016,-90256,77920,52941,-82636,117644,-42357,-44123,17258,-12722,121616,-31126,64032,18310,-20591,30598,-36107,28446,4249,8616,46160,54046,-6138,-43496,-79946,46575,25599,18629,-45683,45009,121678,-27886,-16977,156991,-50870,-92734,91973,-19397,84420,150343,139573,80362,-42798,81555,3687,-50818,6339,9587,45022,-35038,-114590,54651,-83115,-127791,24198,80867,-62335,76171,-46347,93224,27995,-23518,18218,54436,-55017,-80650,-17528,-23990,-105289,-40977,61689,-58739,-48826,-6372,-64608,82274,31954,-4495,-96310,-186948,-112784,15372,-57048,128538,29351,129905,-29257,27923,-130804,82104,38512,62973,-67016,39313,-92338,-3740,-92799,88401,-84665,-46616,390,13892,-62572,50875,-15672,37888,-21076,-16180,-67886,28285,-87266,-63865,-86954,-71236],[30231,-40335,11124,-67507,-44229,36361,-17760,47773,-42796,54520,11089,-33550,71971,-16522,-71107,-129670,8578,5361,89051,84589,2508,7824,-93408,20046,33705,-88295,-22544,68522,52458,64272,-94945,78111,3823,-33862,34960,136785,50913,-79862,62189,-34888,7499,-25643,-8640,66462,-113866,-47116,53180,-69129,-55317,15384,-21745,24183,6361,27424,16811,76351,-33196,-52856,22908,-29693,4756,-83937,29957,54317,-122676,59660,162040,-49420,158492,7634,91640,-52537,21057,-19384,-113673,24630,-92328,2533,7143,-137356,17141,-110814,-8481,-7867,30308,-23148,98363,76596,-122481,71704,111368,102762,-102238,-55657,-12396,-16306,-149950,-34101,-40976,-27577,-30635,-88582,99438,33115,-7804,-54553,-6072,-95058,80089,79128,-104188,19838,-56647,-112377,33075,23193,52510,37055,6971,18215,-15602,43220,8452,-3126,-66183,-6148,97428,17110],[-62916,63627,-16084,-47827,19630,16837,-73921,31118,69822,93321,-38336,25798,-36870,40499,21254,60858,44474,84122,24635,-109266,62314,106027,66728,22272,58206,87562,31916,10223,-49782,-131866,-66875,-77077,-83736,-91201,19105,26650,-42799,-48889,-42175,55042,-61594,-66523,63034,79230,-59170,20871,74896,5919,-65036,-138220,-47290,55651,39694,28427,75499,-55113,45789,-29759,-35897,-40524,-25134,105234,-61029,23991,-6068,27139,-77582,78204,37932,170141,16695,27491,-110527,-6729,-56970,750,16208,79763,-123931,51029,-33950,14276,5549,59976,60411,86526,53046,-15347,-10839,-92896,10676,-28081,58812,27523,-26449,117242,77312,87716,6628,114273,93153,62632,69186,-47716,33605,-9264,64521,-24324,-104708,-134784,-30622,-94041,-70840,-88588,17303,-85490,-87921,87807,-15990,6569,-38513,-38118,-48938,117919,-76006,8609,6194,76057],[55295,-63044,49274,-8765,-1839,-109371,-1170,-46902,-47195,-9177,14005,-84311,77789,11683,-69096,-13525,-37173,-6205,-219209,75233,74266,-9119,-45535,-72729,49092,69507,-7712,5181,-17869,26164,-34464,-24316,-96257,-4866,117625,-25028,34799,2847,54836,23737,19352,1926,-14493,52508,71354,-19881,-65868,58263,59584,87839,-29951,59009,89127,-8423,-58160,24019,45440,11319,-36812,9224,-34857,81280,8704,-15496,-100418,-33831,-4530,-14888,-98608,-104702,13579,51150,-39538,80771,-47483,90608,-71471,-46097,31615,-5792,-21564,-33545,-92538,1137,38021,1272,-52266,17927,17759,2855,-22765,-29125,-11236,-31696,-114631,-43315,-75722,-67898,-13762,-60614,-69364,-50800,48348,-48904,25561,-67139,-115518,1632,54334,9666,51252,81179,-3437,-137602,-18022,47584,70023,-103090,8313,-681,9188,94168,65628,-31476,8954,44170,9159,-85357],[-57073,-62688,-96374,13106,114121,-4959,-110712,80332,-20194,-54174,30203,-105177,67353,-78836,-55827,13020,28719,91966,-126982,-49592,32616,34682,-5763,-8338,-2487,55830,10758,54965,-25210,-69043,-32846,-26225,-68606,3834,-59530,14710,-37470,-67085,-32185,-101363,-3276,-29279,-110640,54239,-34950,23189,75201,-64657,-37199,115069,5449,-44278,-55676,-25452,-49989,71223,31097,14229,-51352,73271,22068,17391,45058,47372,36138,-10016,31111,24466,-9358,69904,150,-126,19331,-30990,-5726,37992,23416,-47331,-66556,48976,656,13117,-78116,45403,5049,-45256,-20984,29986,61770,48557,12628,28872,-54187,61278,35749,93263,-4384,127478,-11428,19607,-74126,-3774,-45917,-28762,48831,6403,-10406,-80603,-65610,-92186,-15119,9917,-62068,-51872,-113058,94940,-7044,40938,82924,-37314,118253,50884,56180,46250,-27626,126785,18669,4979],[-70023,-63851,27798,-33654,131897,-103055,7770,98440,-14211,-13580,29978,152573,-36734,43392,-11500,78268,-118770,-9069,-23470,5353,92556,38372,8113,82819,-29572,-12062,-9087,6580,-34030,-41424,65147,-92809,-43507,81728,50482,-18808,6330,41751,-35821,44748,52738,17432,68230,-16637,13661,-3978,79827,-47876,-81086,10767,-32271,34698,50051,82338,82095,-44333,191058,-15509,-30442,-3036,13755,47374,124878,-89446,-66127,52436,-61001,-29560,-85255,77298,4632,118283,-76007,21478,-34547,-28581,25124,-35563,-89307,22064,1985,-12967,17788,-996,45237,62028,31072,28185,88899,-19896,3652,88474,-5124,-13937,-110929,-100685,-83743,-106246,-32085,37020,8130,105556,-17273,68328,-115830,67095,97945,-96043,6726,-36323,-2711,-38558,-45286,-1347,429,-44780,59790,8105,11351,-26700,34715,-40259,20674,86525,-51922,-40942,-20552,-5604],[-76078,-45212,-58158,-59803,18736,74114,21419,-10101,98324,138882,-79804,65477,82425,61503,86052,-14052,-52803,-9333,21848,-64484,26785,29631,25788,-37511,-61597,-3456,86459,-72447,21820,-7673,-55578,-87393,56995,-21811,-35028,-33365,51147,2385,39948,112896,90317,-24457,43355,-23399,52624,-23332,-78100,37691,37993,-13725,-37738,59012,-31258,91912,-132750,77597,119595,60092,-93980,-48421,-9124,30742,-58058,-100655,13717,75418,87911,4744,-47652,35031,132570,-65507,-109510,-103571,70651,-69751,-45527,24061,48613,-23830,-10105,121117,-28344,-68927,86976,-37833,50550,-17961,-5077,2085,80221,1268,25135,58559,-3215,2034,42175,-135047,-22607,-47978,32250,-7489,-23877,-37868,117770,19496,36590,-35125,29531,61162,-57476,30995,28962,-28670,49601,-62854,-26733,-5481,-12508,-15105,-54138,-42112,62186,71795,30748,-83169,-13860,146610],[-28437,19767,-64891,-4425,-28604,25192,-101748,17047,-17546,-21235,694,113442,40331,10548,-24915,-79849,111214,-26020,-11749,-57397,45523,-83943,17689,13145,-65330,-148131,32109,-88934,-20825,52220,68841,-3212,-48879,-23400,-52395,-47655,81608,-32231,75809,-97501,-35330,99038,-54809,-21031,24923,5564,-4470,51955,8398,-23264,64956,-55954,20531,87453,-18974,75442,-408,71619,-15746,106209,93843,-95921,78116,50955,62927,17137,7078,-35454,-89522,26944,148398,-104929,49670,88602,-85595,104521,-22484,-115773,-7785,-65861,-9909,-715,71143,-41603,-73373,-9598,52780,17164,38293,5962,-4802,31392,36116,-93149,71022,-16868,10415,12267,50773,-7399,32299,-12643,-4429,6817,-8207,7896,-10545,-1302,60499,59299,3976,23528,-54099,-12207,-28474,73622,44558,-56315,69715,-68926,52588,33457,-52852,-8423,-53956,84691,44699,-25188],[101177,-44116,-42193,73826,-75132,-33157,-359,32302,-35748,-35040,-33265,-48928,29003,36595,-150,-142795,-85126,-54352,21913,30751,-44896,59761,-44119,-36281,88507,-33740,75420,115324,128952,-17892,61431,-40656,89659,-21448,-27301,75978,5766,-85888,83563,-78083,-23776,-34170,-23998,-32210,-32425,-14696,-21463,22472,66073,61481,66652,30282,-20003,88911,-22998,65672,30448,12883,37105,-58603,-5963,26537,-24090,23604,-17130,43321,76503,61330,5851,26615,38658,84368,8754,-87968,61656,-21139,-77499,120755,80762,-100300,3403,-174777,67628,36248,15054,-67557,-5739,-28366,-42328,-55741,53496,81554,-23069,60825,19388,-28948,-25082,-13645,-49320,-24826,-68901,-33745,7509,1429,11990,64374,-25666,-171815,35473,-41600,-48317,-73189,112364,-118745,-3948,52549,43412,32571,85987,109864,84051,22965,-23420,116896,-11144,-56494,-81662,-64248],[49039,-77018,-72166,-20999,-58705,17897,8903,37678,65482,36152,-164614,5259,-38477,37674,-17489,69653,96013,-954,-3018,-66090,68539,9027,-79880,38451,698,13241,-53399,58998,-65875,56495,105374,-80191,1639,-83725,-11344,65411,-149019,20130,-82091,-11963,-127528,-42974,-30511,16821,-36862,14904,-59902,27420,87406,-4706,73601,95753,-104296,10980,-20904,-52581,-35958,-11206,-45164,-50133,-51046,-159204,-57478,-80799,31303,6672,83226,11474,4748,-83135,6181,-81779,105247,2631,105867,-38180,-228725,-14303,-17463,105298,55553,99947,-31730,-14475,-24484,81555,23404,31305,39096,13431,32187,-49083,-50404,30413,-42187,47790,-3886,54427,60443,15265,10387,28702,55630,-39896,65792,10635,75405,-23265,12680,55332,93228,64943,42747,37977,-12021,-26061,32347,83874,-60098,1305,-23361,112725,63381,-35889,37299,-20755,12210,-24497],[-57405,6393,29294,-35556,-80255,-24253,123905,-75497,37598,41919,-81386,79100,56024,-77045,37298,71363,-52548,-63328,19681,46892,2876,60441,-15844,-116993,90319,6645,29883,21126,49367,3783,-27909,27777,-24520,17543,72282,-5200,28310,-55101,26579,-114567,-12521,-7085,140038,-59780,11227,-127465,28656,10268,-56140,224,-9714,-5584,106480,67216,88016,-83430,23024,15752,119897,-12870,-16113,74015,23404,-80680,33734,69268,27706,-23407,27347,-1198,1828,-25779,-42478,-88302,65982,27017,43187,22469,-57707,-37709,22389,-91939,-77238,-1796,-65573,36321,-7087,19254,2206,14348,-70627,31508,-43564,-76704,-33072,-2330,-39860,-26522,-121617,-54577,63091,-106655,-54822,57838,68512,-92936,8536,-116213,23993,74752,65945,117052,-82001,97572,17861,-48770,97137,-83078,13486,56651,-21205,22768,-12590,42081,-7573,28914,15640,-36465],[-68787,67026,-12134,-4301,65367,-36283,-62912,78963,37690,33106,55947,34835,77116,54419,50072,-52292,36155,-57190,-54145,24850,-7879,35816,22467,-101466,-56087,-22258,33772,82188,-15348,56868,37995,-86906,66153,53354,-20509,34110,92037,471,-53266,-6764,49237,-49519,-57373,-75408,134372,23246,-110707,117357,-13305,-11328,-24658,-43805,34674,33239,-47307,104601,23129,44361,-77866,91128,114569,8770,52884,-15837,78848,63031,51867,-29992,-65340,14796,120267,-39259,-22157,11437,54329,472,153993,-92628,25791,-77168,-48324,29979,193360,-69018,-27288,24879,-49244,59222,104427,85719,-20364,129425,-59272,-74657,-27398,-77926,-29827,-65161,30824,-30393,26900,-31083,-48597,32442,-85643,78207,4472,-55463,-54669,115118,-11637,61360,-58476,30210,20553,-3857,146867,-31799,-28756,-32576,12054,74971,-36984,95884,987,20459,9440,-21275],[171567,55270,65060,64136,30234,-42285,91066,-94439,12193,-30879,80468,-50712,75716,-60226,-99106,-64960,-138747,-43906,47175,-22553,33896,-56538,2610,708,-2472,-90762,-29839,-77540,90154,19708,-19356,-6118,-75453,7333,91656,-23927,53646,44125,38664,-48958,111124,29418,-58133,-97214,73245,1650,3602,-27016,-12671,-13062,-74723,45883,18254,-79579,-106631,13397,79647,119441,-62119,-47671,34020,34207,11202,89791,-11758,-10287,-51152,48112,-13937,98161,-146225,61595,-38330,20647,55779,-25922,23522,-44569,-36876,2078,-32516,-16484,37561,65396,8713,-60016,-20323,24900,-16671,-4435,-29463,119097,36918,21118,-173919,-2413,-108577,-9745,-26159,-12546,-34455,-54937,4898,-53452,-66368,-95046,-19942,36503,-72262,-3463,-10645,15706,-43251,-13405,-26923,55087,68725,-155160,-45170,-6231,66131,62776,-95421,-34725,-92692,101138,-83482,-43483],[-38646,-16839,68485,43932,-25977,-77626,-36473,-52068,32364,34947,58105,53042,-23581,-60904,8410,-4804,31412,-18842,16093,43276,60332,74741,57332,-4259,-9916,32075,74855,92468,40486,-57812,-59766,35231,-19502,-36725,12962,-26850,-73768,-14126,-133884,-98489,-105379,8224,120825,23775,17738,-8218,95943,-43932,10116,13880,21943,-31503,25084,-34197,-24849,27674,36948,19635,41381,-12443,7304,-94,60743,158756,25519,3527,-107564,30003,-32576,57955,-34470,9001,50804,34183,-22201,25142,-79773,-107394,-126103,44558,-33580,-78646,-52471,-6443,-34324,39732,9398,-38581,-35100,-54508,-1021,-30160,47827,-29124,106380,27762,-10170,-70760,-29095,27451,-18769,-28684,63421,-594,-68323,33613,127701,-95176,-107304,-3478,37347,-28085,-78423,18377,-23701,-25531,-52330,-90852,104159,159900,-40160,-28697,-86446,-30008,-5324,6930,-74459,-18254],[-23970,-27040,70744,-17966,39152,15661,-32144,32759,2987,-16749,-17803,45757,-57061,-63657,20543,-71175,-30810,575,-58157,-9583,-25958,122324,-29103,105342,-27801,1154,73222,1370,-47888,-47448,6243,-73636,45875,-136560,55274,41714,-3230,41023,-89786,-106286,-56115,-55782,80297,-29192,-7430,-32551,43745,31780,5042,76392,2638,-57059,-25072,-71852,-90845,-122763,57004,44983,-17119,-31672,100582,-40789,23345,-31175,9796,-42937,-26692,-16675,57713,69310,52723,-68156,-12799,47169,-42137,-60420,81009,-85905,21947,32918,-116858,62129,39909,-75513,-17317,-113184,27107,116067,68100,53990,-36368,-56979,-14432,-48471,-48797,-123380,-22735,-78575,15510,12799,-63881,17115,42015,12577,-92317,6037,-2326,-123132,-92590,-78287,64445,23061,-49253,84318,-25960,24628,-31205,29709,-11454,100824,-77261,102644,-134065,-122640,-52713,-68314,92077,-1693]],"output_sha256":"68ac294d5c17f40ee411b86558e98a478e333832cc6fb380dc338f0046cfc6c0"},"holdout_hardware":{"output":[[-8370,1880,83801,-44464,39935,-79817,-21507,5987,-16447,6185,24795,73728,78005,-64793,19900,13482,68364,100058,-50780,5782,13802,-33213,105357,8905,-18925,63105,14987,5454,824,-44609,56560,-108724,61240,-65976,-95174,59433,18554,45985,-10753,-19529,-13836,-4280,41789,-66890,-32787,-56717,-7775,49465,46881,-40043,-46960,-20552,-35054,-69640,22628,-80098,132008,-16495,-36834,-16980,711,-30193,-61347,48592,30042,34964,-84762,-6371,36601,34693,-44482,10544,-140426,29431,30149,2858,-14373,-3883,-65513,-23878,-40081,-46821,8913,-60827,-65251,-52926,99277,49005,-26938,18007,-92402,-46131,-133277,-8889,-24500,19211,-19540,-112328,85348,61500,3341,-3878,92597,-91311,-30245,-41463,18239,7383,-41486,59207,-113566,33170,-93091,20066,-30972,81489,-48879,53494,90375,36869,-7994,51700,-98329,-49761,-15285,-21723,42749,-2070],[-44461,-119448,108443,-128128,-50145,40168,53350,117764,19785,-80014,2788,69179,68694,27043,-58684,-74929,37582,24500,-36823,-83238,-20396,-110215,52858,-18330,109491,-10923,17106,50736,-37222,-13516,-63760,-32196,38983,25607,80198,-112568,86976,16393,-85227,-2777,-51109,14605,-78907,-37830,-125991,94350,75215,51088,80257,39884,47103,20945,35803,41409,57689,-69963,-71122,-19265,-79987,-41870,27662,41888,-15563,-43435,-33830,-31824,-1640,54066,115734,-67194,-116640,18831,13120,-107956,-64666,-87964,-13070,-41100,63447,-40342,-9693,51771,-72351,112012,-101712,-28613,-100592,35672,-104862,27701,43130,35595,45868,-12755,-40914,60724,-122763,-10018,88350,-78473,-128870,117371,-12213,-1240,3549,-5375,-10133,65338,-58912,124591,20083,45818,-15638,1929,39469,-49565,-15678,-58017,17922,-34870,-63841,-22683,46387,40771,7036,88055,-10392,-17594],[62817,-58070,77279,-73718,-33395,-19388,83917,-41312,28486,-15586,-31381,-4193,-37910,23054,73165,-65826,69847,156147,-22582,44673,-34644,-35198,20819,-56960,11572,-42185,-45703,1372,-11843,-110132,27876,-9762,41491,20989,52450,74760,42683,-83539,88736,18704,-4298,13424,40282,-86905,44872,-31435,-20054,59694,-32366,8213,-8460,-10170,-8327,-8792,142449,22177,90931,69265,-15651,7082,64214,43881,-89957,25792,34521,-42368,-6221,45314,-47789,158031,-43100,49883,-84015,-155711,12455,16505,-27603,-16605,59289,-59482,-14710,52115,96319,-65925,53694,-123785,86765,26450,132644,34254,36969,7432,-25790,-61550,18716,-10170,-54202,14256,43339,49482,5790,19309,-67374,-40162,19965,-54014,-30339,45164,33745,97372,-57264,-95365,-56746,101204,28435,107260,-44352,28958,-84733,-10604,-14873,-84880,-52615,-91840,-22042,-4360,99856,36317],[68347,14434,36309,-138628,-8533,-23568,-140161,-26893,98329,-74062,-8181,-27791,66040,70421,57485,-7332,129478,98497,-47235,16512,13941,97904,8141,-37936,-60882,60607,-17812,-20706,-19642,-92822,47002,-86698,24864,5133,-15136,51772,-48595,-84942,30331,-99565,-121202,-161273,13435,-78279,-3175,26958,20848,-46600,-11935,53084,8345,-122341,-81744,-10927,-57978,-49495,-58255,-40585,88058,135781,42897,-26286,59984,138156,28105,7082,-12806,72058,32987,126750,40801,18191,-42729,68437,44712,20082,7417,40886,102788,73840,-43607,-9268,-43024,-32916,-64325,-38422,-22331,-82921,26916,13661,-20379,-13312,-816,10362,-62135,-12977,44312,-37516,-39050,-41195,-67599,-116068,-89674,-24732,97866,5403,-16355,19877,27397,-30238,-52068,80529,-28928,104994,-14957,-73864,-24807,11393,-49193,11506,124883,23827,1644,-51602,-3314,9182,-27014,85530],[10205,55898,10647,-48855,19163,13884,31737,39336,59524,-3237,9,114074,63658,-4886,42621,-82429,-21341,39424,-70063,-44235,-15861,42810,28318,-66037,-8309,47184,-91040,-5108,-40677,-105529,28018,56751,-31593,44002,-23272,-3112,-6218,31217,-86257,83143,50280,37264,-45880,-67712,30469,16218,-6372,64852,-60168,-30349,-33418,45388,-39465,59397,-39315,-25492,-21457,-6664,-4970,-97064,73754,-74536,-65026,68679,71556,76256,-97111,-57903,126234,67692,22545,47663,-61333,-8003,-111551,-88614,5570,8255,38737,63275,-50045,70525,-11420,33049,-22117,-24096,-18273,-34034,-46228,-93149,9550,27489,49728,80217,26930,17495,-32435,-73385,-17325,14764,-49396,78041,-111418,-45292,-9523,-10896,-79865,33284,54621,169955,-91864,-91510,41027,15059,14603,5484,-109695,-25818,-11312,60365,37505,-80720,-56035,-71399,-9790,-28419,-18287,-48166],[-67123,-38958,-12997,4419,52302,12957,16573,-5881,52151,-69956,17761,4564,-51901,-6751,40498,-123040,40346,-125902,-99941,-16577,20268,-43225,49717,-66122,-8244,-13722,59105,-32375,-23884,60759,-25084,-45133,-4238,-114636,7802,31858,-15845,-32551,33351,-52939,-41496,-54647,17633,-103249,-86957,23122,-33859,-22326,-78314,-65961,-114574,-48864,-6297,19425,963,-139923,30485,-32066,17057,-27030,61259,30081,27082,-50457,84592,-4303,-72432,-26765,105157,34079,20943,-23541,-15221,14092,-39459,74008,90566,136621,-26427,17202,46939,-35360,-20251,-31838,-64235,10197,-60662,-29778,-49588,-29625,-32859,-23087,-44251,-96252,8229,23939,-45199,-74128,-43307,-37090,149632,-14419,9877,-68997,67603,70160,90914,13948,-2711,60611,-28126,-10386,-76045,-3108,61367,9733,-4792,27270,67658,-39639,-95815,148334,-58897,20151,-132944,5092,-80312,120187],[21859,-24614,88708,42198,17334,14903,-126383,-83426,-74033,-1109,10873,-15050,75750,38555,34389,-79021,-18473,13790,-126073,-118669,57736,-1522,64234,-14685,64074,60278,84064,44737,37035,-30438,2957,-26354,-70557,-35940,-31133,-31193,-53346,-112918,-71076,8659,-66920,9350,4812,-12810,-81407,37806,-92631,214476,-152,72465,-24434,-14364,-52189,-39807,-2755,-142193,99980,-81498,90312,131200,34102,-45785,15848,86691,-6763,67804,-50773,48228,-102043,-8518,79126,-12944,19712,49559,-55285,127300,-4863,-29184,38502,-28780,1002,51531,26096,-23330,29110,-54238,-43336,-60973,-6353,-21683,-75539,10467,-34682,127374,17924,25215,21255,-32121,77518,-113303,-27948,1921,27244,-73584,-7407,-64908,-25258,140825,-13547,6527,-4666,-118555,108407,-62585,25660,26017,-5759,61828,83858,89428,41489,-44971,47072,15999,-67812,-15236,-99413,2481],[-3134,25352,70915,-30467,9891,51177,-103374,-32423,28250,85598,48145,92585,7325,113018,2425,3273,98328,22969,-4193,-105036,-38236,86308,-6733,172853,23031,73318,78307,3772,3423,130132,-23680,38451,58291,-40575,6131,23241,-38922,-22513,-36336,91619,91747,-8443,-73063,961,24388,221,-41828,9949,51080,11212,-2534,-20013,-108802,-50019,-86587,51323,-6685,-167584,-116843,56999,45409,36878,103096,40466,-180491,31542,23773,-5344,16483,63075,-48065,-84375,3864,-66801,-41623,17854,-48315,14223,-120929,51207,79523,35621,48667,-37413,-64647,21349,-63278,16141,-57371,72742,-141571,61214,-30571,55337,22656,-101554,-55103,-112859,24876,64180,-49751,-36718,185751,10408,26730,-106892,-33064,38112,26318,-25309,101149,50541,39535,-95571,16353,-52287,-53119,34920,-53672,-41650,-18579,-36456,120299,1998,22516,11807,10856,-1718],[-1156,30224,9643,11393,-35443,-27947,14289,37899,-19525,-20502,64345,35334,72818,-48963,-44213,53238,69551,49728,79535,3850,27330,129485,12429,-23843,37829,66311,45779,-19790,-2873,72044,-26190,-1679,107893,-14942,-59680,61741,-13292,-25414,61281,52114,11771,15890,-3117,25562,9974,-79235,-90903,72519,-9306,70136,-15080,60082,-10786,-108861,4447,-40041,55465,67515,-23093,26037,62254,-15545,29917,2612,-94810,-16813,44562,26058,-64331,44258,102524,-77779,15475,39619,104848,-29275,50591,-16219,-60535,-27571,-67949,37771,-17191,-96328,-15268,9830,3294,42265,-16083,-66231,37348,22433,-51956,24548,1533,-13239,49281,-76933,-110775,-21109,68003,-24480,-3483,42730,-71883,59645,21060,19365,65277,-13789,42055,57392,-87869,-27201,-40505,-30189,104002,24169,-64131,2944,95207,-18365,-372,-17559,75784,-50973,10210,61941],[6894,-16720,-42988,30282,35250,-1602,17365,30617,30444,50343,-51972,117334,-23372,84572,-75945,-15717,17360,43325,-2514,-58039,-58351,-51742,5851,-34088,60191,-15661,-67041,26428,68282,-64726,-9882,-25831,84496,6613,75671,-56710,-24243,-275,-47591,-11678,17541,75338,11368,-18620,-18850,-4658,-35326,-67461,3317,-14896,-86423,-72721,26861,40062,-65298,24634,-75879,-83577,47055,-69900,-45133,43080,117164,26334,50060,-103331,32728,42331,32346,-56611,-88590,58775,44624,-69039,67009,-15610,7428,-67617,-83596,78787,48661,65207,-43049,-3067,-30895,51957,60922,136178,4771,-11508,-46306,13768,4911,-85563,-23477,-7993,-43932,52671,7661,49746,-17012,-28297,34662,70727,122,89147,36697,10303,33508,51112,31204,-32327,-34043,-109927,30226,-50883,-115541,4306,33279,20046,62352,-38534,-58051,7903,40195,38309,47212,142018],[73503,15565,53983,-25451,-44998,53334,148053,21255,-39822,-50645,-34916,111138,32639,1340,-62523,-67301,12174,-10939,58137,81004,7825,-31431,52087,-90609,-21240,62787,-107096,52368,-66650,-81148,-51926,-4891,28755,17817,44445,-17450,81819,-30223,49926,-85131,32686,110562,57770,1475,36212,-118212,-47187,89847,68355,94420,-63231,-19957,-49693,53474,83397,-63064,-61737,45949,55149,38525,54299,515,38877,-87425,-62248,-78770,92911,-86324,-137176,24951,105347,13471,-258,82463,-39667,62217,-53250,7333,-34661,58157,-1195,66410,75144,-23204,42627,42070,-113446,20322,17793,29802,-22779,-182277,-27540,10588,-2059,-4810,36108,65336,-117864,51148,-51438,72593,-19040,60924,58570,44755,-36878,38486,34544,91121,72134,33491,39647,-30110,-1678,97284,-37678,-45490,-110551,-57252,-14165,-43823,130958,81940,-43730,-11080,-45675,7445],[-45407,19562,15032,36926,116354,-114738,-13337,122061,107583,2441,75713,73142,7703,109776,-21029,-15026,86643,27458,94006,-31242,13840,-60501,-22473,-41510,34291,42325,-29204,13005,-75516,87028,87033,-41156,924,-9621,-88236,82663,642,7194,-43481,-57971,-132187,15254,-8098,75650,15686,-5780,93043,3155,-49689,27360,-4293,48124,60263,-40923,60591,-69094,-48399,-58175,49207,49085,-85887,47258,-78612,63128,-16949,-62414,-155919,-24009,62105,2919,-101825,27077,-70447,-6044,4922,-13217,54852,87535,-18309,63310,-110816,-112974,1649,-84058,-10738,16093,-72364,60591,-35648,-109080,4673,-65900,-59762,-10783,43520,41794,-9768,54317,5327,-10175,-46746,7113,-36764,-25895,-33979,-65173,-29439,-32239,181373,4433,25989,32170,-17840,84047,22877,-53084,83768,44881,91722,43563,-78649,39094,78743,-4836,-54483,-28792,63126,5337],[59201,14121,-71413,-20846,-69162,52846,-19330,-30820,14184,-64801,-37766,-55702,36308,41969,95815,17866,12524,39055,-71778,-10870,-17196,-27496,153168,19191,-4638,-7764,97629,-170,-26459,30144,26257,75186,-25806,21999,-96146,-13629,-110463,-3480,-49524,-86992,40245,36121,-49993,37578,-4571,-44021,-27698,159359,23733,27904,-142314,22944,-42064,-44850,-63411,1918,31315,37221,-6689,-47543,42231,136756,64469,11053,22166,35852,-33608,22665,20159,92731,-12879,-101145,-10768,-130469,47059,84272,-21250,522,-29259,-36885,3419,-36167,-40308,25956,-47663,38418,-67253,-11909,86667,81447,-2494,-136987,-120842,-34618,-77481,-26414,18190,-68384,100691,55949,-171,-94980,81604,-9260,41755,-63099,-17293,8175,-23558,-4483,-19187,-47464,-59984,284,63967,10812,-26718,44009,-44114,65905,-41147,120865,-102803,-56720,-4494,107847,82056,-38814],[19675,-49370,-153309,-85854,59552,80516,-13928,17406,-21593,846,139145,-24883,4967,87663,45724,26034,-50577,-608,97105,-51642,80331,6712,-252252,50753,110546,19198,78691,-436,-58740,55466,-107719,35305,47327,78025,-49307,-8128,-46167,-76479,-44766,-92952,13213,51517,-78199,33371,40381,-131727,91763,-60267,116244,172595,-95903,78632,13491,26297,768,-52640,12719,-47570,102802,-25981,-73510,-54141,-43007,-86704,-15182,-31971,17973,34679,-19613,-95945,-43155,36723,32015,33310,20530,-70545,-22457,-72440,-28870,116646,64021,-24677,30098,34475,69744,26520,923,-23594,-31283,-116245,-134,40431,68815,-93644,33791,28588,-99613,75891,55722,-39607,2413,-87841,-56955,-51035,25010,22444,-43474,-42430,26097,86915,78824,-51480,-57394,-15684,2218,-2995,-28456,-15437,69198,-85353,163393,71976,65994,75922,33830,77904,-100231,-75992],[-34973,43173,63374,4698,135055,-13943,-13547,-23910,-68763,5145,83662,-98975,-121316,74927,12628,65579,-154172,-15978,-48217,46057,-51380,-46688,39202,-14059,-20054,84880,-54495,-45488,-49797,2793,66187,-65922,9474,77459,-34982,-65280,105188,-1283,-36431,10380,-11296,42047,-86249,76383,-6430,6863,-48259,-184429,12684,28438,52014,-41652,150852,6000,-42855,-23334,-4540,-74139,68294,1159,-129387,-16109,100131,-27340,158622,7172,-8350,-11834,129291,-164061,-33007,21165,55626,-60260,-19967,1528,-60229,17453,-27229,-118584,77905,-86848,9503,-71114,44072,36789,-4967,42240,-175666,-32314,82958,-25752,1310,103588,26263,141251,-58470,35135,35300,59852,-186758,142769,-6425,113764,743,18698,-38089,-55919,5051,-11945,-6431,-64538,42539,19563,61197,-61014,-90301,-121,93691,109810,-90957,-44179,24832,-56885,55627,58891,32521,-61542],[25744,7901,31043,-22676,-39086,-2602,-105804,-74566,-3574,77690,-18987,17736,40487,-70995,6252,-85660,-34318,34775,24583,65271,-3002,55970,-11880,5813,41977,-18824,39552,-64264,-61883,7663,-5181,-47688,-1879,-106369,21761,-16322,-162298,-44183,-13353,146193,-69380,-9606,-130803,-62766,2662,83405,-14275,129867,-53820,30701,-63301,-23963,-51298,-10480,-158583,18038,73346,-19625,31131,-24166,39332,-1198,13341,5443,139264,-106558,-24854,29248,85625,142526,74824,-47028,-45162,2700,29999,5973,97125,-17946,-2396,-66555,-126042,-37736,88423,48621,42180,14035,132306,-115802,-37330,71886,93778,11548,52257,64992,-4408,15539,-19051,-31940,84161,-83450,22742,4819,34097,-119397,35341,88017,-72550,80495,-30963,38743,-29136,103887,-1428,36577,42481,16830,-46449,-64507,28856,26253,34968,-14351,-9228,-124204,46523,-146355,3709,62885]],"output_sha256":"499b7a15b5534083f6b99c3edfc32be2d86f5e2c68f2893cf8ab4dc6532c4d28"},"claim":{},"meta":{"model":"opus-4.8","note":"generated by make_fixtures.py; hardware output is numpy-emulated (roadmap, not on-silicon)"}}