{"schema":"quantum-harness/proof-bundle@1","task":"kernel-correctness-oracle","problem_id":"gemm_bf16_tile1","constraints":{"shape":[16,128,128],"tile":[8,128,128],"declared_dtype":"bf16","accum_dtype":"fp32"},"kernel":{"name":"tiled_gemm_bf16","source_sha256":"f8081aad736ba9d7fd930e9807481d7185140ae39ad1e8478a4303075b960eea","grid":[2,1],"block_spec":{"a":{"block":[8,128],"index_map":"(i,j)->(i,0)"},"b":{"block":[128,128],"index_map":"(i,j)->(0,j)"},"out":{"block":[8,128],"index_map":"(i,j)->(i,j)"}}},"oracle":{"numeric":{"runner":"numpy.float64","reduction_len":128}},"hardware":{"device_kind":"TPU v5e","output":[[5.416600704193115,-24.589420318603516,-15.08106803894043,0.46022701263427734,1.7075386047363281,-6.176959991455078,-20.02753257751465,6.089202404022217,6.046273231506348,-0.5131886005401611,6.3528242111206055,3.1670355796813965,3.0934805870056152,-14.124408721923828,-10.861032485961914,-2.4363269805908203,4.75921630859375,20.772109985351562,11.004261016845703,-13.556114196777344,-21.13134002685547,-5.638758659362793,-7.57748556137085,-1.161170244216919,-8.367353439331055,-11.315811157226562,14.524144172668457,13.56396770477295,2.6980981826782227,-4.273567199707031,27.167844772338867,-5.212502479553223,-9.26573657989502,0.026174545288085938,16.77271842956543,-28.646154403686523,13.342019081115723,-20.09014129638672,2.231161594390869,-27.97923469543457,16.488401412963867,5.298501491546631,9.711408615112305,-16.302602767944336,3.1476900577545166,-8.75561809539795,-3.6617493629455566,-7.872688293457031,-6.195240497589111,-24.291061401367188,3.1944782733917236,7.095808506011963,27.386075973510742,-2.5923683643341064,-17.2635440826416,-16.49496078491211,8.251582145690918,6.7498931884765625,12.66007137298584,-17.15683937072754,-1.0477770566940308,4.109927177429199,10.83981990814209,-6.95859432220459,-4.102764129638672,9.454619407653809,12.122474670410156,-13.405712127685547,-17.4943904876709,-5.135093688964844,9.740447044372559,-11.849846839904785,6.082411766052246,-3.219517946243286,8.551779747009277,-14.131109237670898,-5.50047492980957,-14.684059143066406,11.239115715026855,0.12799715995788574,20.077909469604492,14.980401992797852,1.1085078716278076,0.5600681304931641,-15.866605758666992,1.8174644708633423,-0.9492201805114746,6.109656810760498,-7.290243148803711,3.2445902824401855,-21.181671142578125,-1.0042963027954102,-12.550975799560547,-1.645298719406128,-2.5252223014831543,-4.44915246963501,4.659116744995117,-1.0627517700195312,5.581575393676758,-14.989551544189453,8.654061317443848,-14.174736022949219,2.657621383666992,-3.525195837020874,1.2239699363708496,8.992178916931152,-1.0888259410858154,13.327665328979492,-16.653396606445312,11.003150939941406,-15.43704605102539,11.832226753234863,-0.9829986095428467,6.75777530670166,28.544008255004883,0.2213425636291504,-0.24993038177490234,1.527158260345459,11.514593124389648,-6.029723167419434,-11.008963584899902,13.715953826904297,-18.23769760131836,12.306796073913574,17.199569702148438,5.777988433837891,-2.2564737796783447,-11.018681526184082],[-6.524828910827637,6.540079593658447,-6.797935485839844,5.12005090713501,-10.110397338867188,14.393614768981934,-3.031892776489258,-4.668245315551758,-7.3184943199157715,6.325161933898926,3.858917236328125,7.481612205505371,-24.77603530883789,-11.843338012695312,-17.497493743896484,-4.255148410797119,-23.425067901611328,6.477692127227783,23.815937042236328,-19.773807525634766,-2.418224334716797,9.780713081359863,-6.520117282867432,12.147364616394043,9.011819839477539,-8.993066787719727,-7.338581562042236,-14.820840835571289,6.739513874053955,-5.635666847229004,-13.960880279541016,-3.0647459030151367,-14.671806335449219,-2.670741558074951,-7.842705726623535,33.76191711425781,-0.816382884979248,19.540184020996094,1.9489259719848633,-4.630021095275879,8.424077033996582,0.01300954818725586,14.109383583068848,-9.81120777130127,-22.643089294433594,5.053328514099121,-10.679109573364258,-1.3310728073120117,-7.6037492752075195,3.267120361328125,-4.463132381439209,-13.77998161315918,0.6055593490600586,-15.134807586669922,11.877786636352539,9.975903511047363,-7.22492790222168,-15.671469688415527,11.632854461669922,5.286829948425293,6.626588821411133,-10.473702430725098,9.522016525268555,-9.183208465576172,-2.252805233001709,13.824973106384277,16.604063034057617,11.210406303405762,19.051116943359375,-9.493183135986328,8.090597152709961,16.770923614501953,-7.361743927001953,-10.749231338500977,13.42784309387207,-16.148950576782227,-0.17103290557861328,-25.320728302001953,-2.6834006309509277,7.687221527099609,23.57452964782715,-9.369060516357422,-7.723718643188477,22.315471649169922,7.240572452545166,-13.399312973022461,6.078313827514648,-7.247551918029785,-21.291126251220703,8.70807933807373,-2.1625800132751465,5.9019598960876465,16.736663818359375,5.208796501159668,-26.248149871826172,2.3239755630493164,2.2561721801757812,1.524324893951416,14.855342864990234,-4.698253154754639,-7.598288536071777,-1.0480284690856934,22.556520462036133,21.953996658325195,-14.394515991210938,-2.793917179107666,-6.101431846618652,-8.70798397064209,-13.708221435546875,12.521407127380371,-8.570075035095215,7.989601135253906,7.704169273376465,-6.522943496704102,6.984501838684082,14.910386085510254,-3.3906402587890625,19.857467651367188,0.6508793830871582,12.332897186279297,-3.6856284141540527,-8.246597290039062,-7.896404266357422,-6.020206451416016,1.5177621841430664,-6.658222198486328,0.95751953125,-1.7145285606384277],[3.87727689743042,-8.786957740783691,-1.2578001022338867,3.7654600143432617,-3.4746084213256836,-8.354240417480469,16.132770538330078,13.72607421875,4.468252182006836,1.7554931640625,-3.9072699546813965,20.586639404296875,9.664039611816406,-13.78929328918457,-8.961841583251953,-26.605276107788086,-13.304426193237305,6.0065107345581055,-0.686892032623291,-2.242921829223633,-0.21578645706176758,13.415746688842773,3.3217759132385254,-10.886070251464844,-10.060556411743164,-9.721455574035645,7.232873916625977,-26.294750213623047,-6.07219123840332,-10.715503692626953,15.561500549316406,14.496440887451172,6.584312438964844,-5.6478166580200195,-23.576772689819336,-6.662934303283691,-18.1262149810791,-13.946065902709961,2.490513801574707,4.012711048126221,19.95693588256836,-12.724370956420898,-17.019744873046875,21.685001373291016,-9.181760787963867,-8.797724723815918,5.848031520843506,-1.3102312088012695,18.468196868896484,7.765703201293945,5.692432403564453,1.3491325378417969,-7.724732875823975,4.520199775695801,24.178932189941406,11.257552146911621,8.254014015197754,-12.625218391418457,-1.3603603839874268,4.399850845336914,23.024797439575195,13.535648345947266,6.321323394775391,5.946606636047363,5.584342002868652,20.405698776245117,-14.237844467163086,4.842243194580078,4.646592140197754,-0.7750473022460938,2.292941093444824,28.150482177734375,-11.118062019348145,20.770809173583984,4.3618388175964355,-1.6179141998291016,5.929518699645996,8.749961853027344,26.868253707885742,-8.090683937072754,-6.727665901184082,-13.074771881103516,-0.47469425201416016,30.26176643371582,11.541840553283691,12.644450187683105,4.650792598724365,15.69678783416748,6.35886287689209,-20.672683715820312,8.720149040222168,-7.812429428100586,-12.02014446258545,8.358420372009277,4.114365577697754,-16.305814743041992,15.21218490600586,7.970783233642578,3.7915611267089844,-4.65604305267334,5.727041244506836,12.766407012939453,0.3324885368347168,3.867900848388672,12.100225448608398,30.041637420654297,11.332185745239258,10.09267520904541,2.1814308166503906,-3.982543468475342,17.625280380249023,-8.13782024383545,-6.780747413635254,15.383512496948242,1.927222728729248,-4.373507499694824,-10.803771018981934,-15.543688774108887,11.941448211669922,-1.4142632484436035,-17.941774368286133,-18.787036895751953,3.4045944213867188,13.508291244506836,-6.560746192932129,-13.46658706665039,9.00477123260498,-7.912332534790039],[-11.373738288879395,5.851299285888672,-20.597457885742188,-14.868587493896484,3.033601760864258,-3.009908437728882,5.285098075866699,-4.787402153015137,3.780625820159912,6.280246734619141,-14.924545288085938,14.062583923339844,-10.841331481933594,-5.722513675689697,-1.183053970336914,-3.190723419189453,-3.487330913543701,-12.172104835510254,20.8461856842041,1.8819599151611328,-8.030160903930664,20.933992385864258,-10.285149574279785,8.9169921875,8.865928649902344,3.972294807434082,-6.245809555053711,5.120057106018066,-40.36277770996094,-15.41054916381836,-11.156489372253418,-7.694736003875732,-5.859617233276367,4.839219570159912,-4.701314926147461,5.636767864227295,-7.203210830688477,-33.53084945678711,-19.02534294128418,8.337065696716309,-35.128456115722656,-19.4674072265625,22.025693893432617,17.16710090637207,-5.136674880981445,25.223873138427734,-11.566259384155273,-16.484512329101562,5.86861515045166,-10.137359619140625,-0.30502021312713623,9.234329223632812,13.413768768310547,-2.702888011932373,-13.4198579788208,-1.6529045104980469,6.237412452697754,10.547611236572266,-6.550598621368408,-12.338438034057617,3.945016384124756,4.023417949676514,12.205426216125488,-5.608148097991943,12.009910583496094,4.526029109954834,8.393592834472656,15.56753921508789,13.765087127685547,7.884032249450684,5.72985315322876,2.9557478427886963,-9.830682754516602,-4.888947486877441,5.507787704467773,-10.349629402160645,4.377406120300293,17.671382904052734,11.287410736083984,-9.590890884399414,9.444483757019043,6.895627021789551,8.397175788879395,2.3005666732788086,4.320955753326416,-8.632246971130371,0.07479476928710938,7.685213088989258,-6.952276229858398,-1.8652982711791992,-12.36341667175293,7.702024459838867,-7.815300941467285,13.062346458435059,-1.8308749198913574,5.702214241027832,10.238428115844727,-12.637602806091309,20.561769485473633,5.530582427978516,-9.07224178314209,10.505002975463867,4.104207515716553,4.368732452392578,-7.03910493850708,11.994729042053223,-5.3900532722473145,-13.810343742370605,4.919994354248047,3.946946144104004,14.279476165771484,22.79420280456543,-2.633007049560547,27.798906326293945,6.486031532287598,6.2433671951293945,-30.471399307250977,-24.659225463867188,-3.3982534408569336,-17.122913360595703,2.742013931274414,3.6035046577453613,12.320058822631836,5.280290603637695,18.93259048461914,-4.592914581298828,-1.83392333984375,-10.693795204162598],[-12.03105640411377,-4.793041706085205,-11.206047058105469,7.203951835632324,1.4839863777160645,11.365097045898438,23.265830993652344,2.9776759147644043,-11.606319427490234,11.828583717346191,-9.409042358398438,1.3230857849121094,-6.816341400146484,5.393764495849609,-8.629352569580078,-17.966859817504883,-7.397674560546875,-0.7778415679931641,6.357407569885254,25.906213760375977,2.998058319091797,-18.622652053833008,-10.82194709777832,5.532137870788574,4.459165573120117,12.797826766967773,3.026594638824463,15.458516120910645,-7.488619804382324,-12.232889175415039,9.430325508117676,14.278498649597168,-2.6324400901794434,-11.183917999267578,-10.296550750732422,8.90893840789795,5.189739227294922,-0.6729259490966797,2.2657582759857178,-5.693605422973633,-2.9571871757507324,5.636187553405762,-19.28571891784668,-6.551881313323975,-9.894240379333496,-8.36376667022705,6.232122898101807,-14.32815933227539,2.2642314434051514,-6.615572452545166,21.983524322509766,-2.488239288330078,-0.8231358528137207,-25.407272338867188,18.73003578186035,12.947640419006348,0.2748110294342041,14.031585693359375,10.457708358764648,16.54641342163086,17.775272369384766,20.19735336303711,-13.802584648132324,20.533092498779297,-11.747553825378418,-0.2645992040634155,-15.900304794311523,19.241233825683594,10.102280616760254,-8.018232345581055,7.415714740753174,8.2991304397583,-20.876129150390625,8.325647354125977,18.197988510131836,-6.687518119812012,-10.200056076049805,20.253541946411133,6.421414375305176,-2.5719470977783203,-7.083218574523926,-8.071484565734863,15.660961151123047,28.633014678955078,11.247198104858398,-10.407721519470215,-8.443733215332031,1.4794697761535645,-9.337079048156738,-13.662376403808594,-5.061408042907715,-3.2852706909179688,2.073300838470459,3.3267083168029785,-17.5513858795166,-5.926360130310059,-9.826912879943848,3.4354336261749268,-0.2779688835144043,8.142956733703613,-1.6032695770263672,6.391474723815918,-0.05003714561462402,14.708916664123535,-1.751570463180542,5.528850078582764,-0.22604084014892578,23.75946807861328,-21.776857376098633,-5.7135820388793945,-4.6077704429626465,-2.0814638137817383,4.923040390014648,3.7712340354919434,-9.384905815124512,-4.907139778137207,12.108153343200684,19.57056427001953,13.107451438903809,0.6631898880004883,-7.925533294677734,5.370511054992676,-18.902114868164062,30.628000259399414,11.1764497756958,-10.348898887634277,8.578685760498047,-3.666886329650879],[-17.67034149169922,-12.873379707336426,-16.160762786865234,-23.98333740234375,24.945608139038086,0.14419198036193848,-7.668994426727295,-22.43050765991211,2.6682233810424805,6.630423545837402,18.021007537841797,9.439006805419922,21.303142547607422,1.372596263885498,-8.599712371826172,-4.010478973388672,9.459442138671875,-6.808128356933594,1.6932826042175293,0.07885599136352539,-10.489057540893555,13.047611236572266,-3.270869255065918,6.812610626220703,24.456985473632812,5.80751371383667,-7.938106536865234,13.07420825958252,-5.330108165740967,17.56884002685547,-10.579751014709473,-8.406096458435059,-26.473400115966797,-10.284082412719727,8.267496109008789,8.486279487609863,-13.665467262268066,-16.762901306152344,-8.03862476348877,5.796247959136963,-13.770890235900879,0.5731148719787598,17.603477478027344,3.3604516983032227,-16.861618041992188,1.0802321434020996,-18.839984893798828,-19.1248836517334,6.489483833312988,-8.807554244995117,17.719331741333008,-2.176589012145996,-8.887989044189453,-4.8701934814453125,-5.300019264221191,9.543960571289062,-5.952339172363281,-17.411869049072266,4.739926815032959,13.5001802444458,8.709649085998535,-2.7684144973754883,17.715885162353516,11.72780990600586,10.22707462310791,-23.377107620239258,8.027704238891602,16.728652954101562,-21.65385627746582,17.130332946777344,12.809965133666992,-11.186286926269531,6.7092437744140625,-4.177253723144531,-19.142473220825195,13.927196502685547,3.8400917053222656,2.875641345977783,-1.3131935596466064,1.6765937805175781,0.035387516021728516,-1.3755946159362793,-0.11846017837524414,11.585983276367188,-4.23350715637207,-10.683111190795898,-18.896133422851562,-1.0428524017333984,-3.1945252418518066,-22.564638137817383,14.248899459838867,-11.545703887939453,-1.0908279418945312,-24.23732566833496,-7.280789852142334,6.5868682861328125,7.797540664672852,-3.9990882873535156,-9.360666275024414,0.42789220809936523,-11.512165069580078,8.50905990600586,-5.416203498840332,-0.1934518814086914,16.126991271972656,21.995046615600586,-11.452848434448242,3.816068649291992,20.167573928833008,-5.354714870452881,-5.398663520812988,-14.894379615783691,-2.3523921966552734,-6.335205078125,-0.6207475662231445,3.831448554992676,10.036121368408203,-6.276059150695801,-0.49605417251586914,-7.293143272399902,21.121315002441406,10.004366874694824,-1.0842399597167969,11.580484390258789,14.426311492919922,-12.358447074890137,9.309500694274902,-9.920597076416016],[6.0946044921875,-13.361028671264648,7.081655502319336,-29.235292434692383,-0.4628424644470215,5.432652473449707,-22.436548233032227,-12.878094673156738,-11.839341163635254,1.2234272956848145,6.421482086181641,6.426247596740723,13.731186866760254,3.034727096557617,3.814572334289551,9.438048362731934,45.25700378417969,-0.6597590446472168,-6.783720016479492,-3.152726173400879,-6.909725666046143,-17.332054138183594,3.5078282356262207,0.5497398376464844,-10.932357788085938,3.3247556686401367,2.6450376510620117,6.512385845184326,6.487181663513184,9.831552505493164,12.004684448242188,-5.740786552429199,-15.902502059936523,2.531747817993164,16.14041519165039,-23.135711669921875,6.581967353820801,-1.0119552612304688,9.261165618896484,-9.880882263183594,-4.496514320373535,4.885158538818359,-16.305370330810547,-16.30508041381836,1.0761423110961914,-8.682973861694336,-17.563812255859375,5.930000305175781,-2.155207633972168,-8.045064926147461,15.29273796081543,24.03759002685547,-4.131993770599365,-6.434289932250977,10.935672760009766,-5.760787010192871,-11.545341491699219,-2.3211240768432617,6.645459175109863,-11.705224990844727,-2.9384617805480957,-3.9434375762939453,-24.771562576293945,6.654644966125488,1.0031976699829102,-5.220019817352295,8.818623542785645,-0.007363319396972656,-4.836402893066406,22.089122772216797,-8.736187934875488,-6.184549331665039,18.507726669311523,-12.06734848022461,-0.4748234748840332,-2.1335859298706055,2.8896923065185547,-2.0978260040283203,8.05739688873291,-1.9023737907409668,-8.095857620239258,-9.576123237609863,0.6279101371765137,-8.183032989501953,-21.322032928466797,-4.8276495933532715,-23.08720588684082,21.19049072265625,17.652006149291992,42.59036636352539,-18.811325073242188,18.839092254638672,-7.302806854248047,-11.105463981628418,-1.0023870468139648,3.22225284576416,5.214845657348633,-12.71020793914795,-9.185399055480957,-14.340360641479492,-7.060885429382324,-12.210487365722656,2.005824089050293,2.2838189601898193,23.970102310180664,-8.988040924072266,-1.3760614395141602,-6.094063758850098,-4.820468902587891,-0.512789249420166,10.166922569274902,5.820907115936279,-0.44081592559814453,-7.100135803222656,6.490843772888184,6.115593910217285,7.649531364440918,3.061039447784424,-3.0982046127319336,8.703869819641113,-5.027958869934082,3.4170079231262207,-6.300654411315918,27.522130966186523,15.951050758361816,17.654579162597656,-9.070884704589844,-7.653933525085449],[-3.0421648025512695,-13.864227294921875,-10.045790672302246,1.5687084197998047,-9.326314926147461,4.7331414222717285,6.652266502380371,-1.983565330505371,-14.987936019897461,-0.2908182144165039,-1.5812387466430664,3.278034210205078,21.7701473236084,1.0196285247802734,-3.1780076026916504,8.363100051879883,18.941829681396484,-3.031679630279541,-8.816564559936523,-4.555905342102051,6.366876602172852,-19.471160888671875,-6.081418991088867,5.610839366912842,-1.045703411102295,1.9012622833251953,6.119439125061035,7.123994827270508,8.40584659576416,6.151638031005859,-17.8787841796875,2.404493808746338,-11.346643447875977,-0.007002472877502441,15.852907180786133,-11.429496765136719,3.5138134956359863,6.52637243270874,-3.0048561096191406,-34.19145584106445,6.598601341247559,14.356196403503418,-3.2816944122314453,-0.7679719924926758,-26.805652618408203,10.747403144836426,-2.953369617462158,-10.591893196105957,-29.74570083618164,16.763301849365234,-10.57581901550293,7.6655988693237305,9.421710014343262,-12.991410255432129,6.726350784301758,20.767759323120117,12.435630798339844,-5.003081321716309,8.605914115905762,21.839065551757812,9.203951835632324,-14.6687593460083,2.0430331230163574,-6.366881370544434,-22.584369659423828,-1.076418399810791,8.157402038574219,-9.853767395019531,1.795684814453125,16.140724182128906,7.618480682373047,8.107236862182617,-12.812450408935547,-20.585874557495117,9.118199348449707,-7.503695487976074,-14.01844596862793,-22.080299377441406,1.8975481986999512,4.537572860717773,2.0054969787597656,-8.824373245239258,19.393266677856445,12.462272644042969,4.124092102050781,-16.277175903320312,-9.02076244354248,-9.586530685424805,-16.97041893005371,13.857379913330078,24.44585418701172,14.760730743408203,12.752307891845703,5.63698148727417,-6.8908843994140625,3.511871337890625,1.8868465423583984,11.96700668334961,-0.8024883270263672,4.806220054626465,-9.50146770477295,17.808094024658203,-0.10222911834716797,14.334232330322266,-1.865830898284912,0.38394641876220703,4.074059963226318,4.091163635253906,16.98556137084961,-19.329051971435547,2.7055482864379883,-11.349942207336426,-11.44731330871582,-19.74052619934082,-16.69512939453125,12.725442886352539,10.746191024780273,4.391937255859375,0.8155727386474609,11.695341110229492,17.833114624023438,-3.0206446647644043,18.241191864013672,-7.157010078430176,-12.377632141113281,7.764430046081543,-15.415618896484375,-1.0103950500488281],[-2.513373374938965,11.155585289001465,9.362746238708496,12.517366409301758,11.271002769470215,-1.0756604671478271,3.226313591003418,-5.858646392822266,0.47040653228759766,7.127226829528809,-12.980079650878906,-7.574312210083008,7.564708709716797,6.837518692016602,12.618682861328125,0.8232114315032959,0.042023658752441406,-6.611663341522217,4.425748825073242,0.5091648101806641,1.6985788345336914,17.349485397338867,-1.0802507400512695,8.452922821044922,16.07341957092285,-1.3443164825439453,-12.954683303833008,4.628560543060303,-19.902114868164062,2.747844696044922,7.250838279724121,0.9091200828552246,4.35853910446167,-6.586789131164551,-17.250831604003906,0.09211874008178711,-2.1020216941833496,16.73412322998047,-20.030208587646484,11.349546432495117,-5.050532341003418,-0.09491592645645142,12.281047821044922,13.126912117004395,-1.4623618125915527,-4.94846248626709,3.974763870239258,-20.627941131591797,-4.366544723510742,-26.179811477661133,-7.1868414878845215,-8.666946411132812,-4.022162914276123,2.537893533706665,-9.353163719177246,-18.399877548217773,-15.43948745727539,10.783612251281738,2.1481122970581055,-3.4340972900390625,-4.092609405517578,13.90872859954834,-3.2640724182128906,14.781036376953125,-4.334849834442139,-22.19816780090332,-11.7686767578125,7.118714809417725,-6.641462326049805,-9.037351608276367,-6.800785064697266,-10.8169584274292,-9.518945693969727,3.251706123352051,4.778270244598389,-9.408405303955078,16.894102096557617,-0.8429708480834961,19.574317932128906,-18.627981185913086,-23.53597068786621,10.333142280578613,5.74545431137085,9.997200965881348,8.323126792907715,14.09162425994873,12.57239055633545,-9.524067878723145,19.365209579467773,-6.0570855140686035,0.478564977645874,-6.368173122406006,29.670175552368164,-0.2886843681335449,-20.589824676513672,1.407660961151123,15.50478458404541,15.760909080505371,14.512011528015137,-1.0286064147949219,-20.73626708984375,6.0572075843811035,8.691210746765137,-26.677213668823242,-2.163588047027588,2.2843894958496094,-12.052650451660156,-2.2513532638549805,25.50210189819336,-21.742034912109375,5.30574893951416,-13.63092041015625,7.059031963348389,5.60612678527832,0.6367611885070801,9.862847328186035,-5.873476028442383,0.31079959869384766,-6.3481268882751465,-0.9323139190673828,-16.92790412902832,8.017674446105957,13.459118843078613,9.710770606994629,-7.293841361999512,-8.151540756225586,-7.706107139587402,8.414464950561523],[2.793905258178711,-11.162135124206543,-11.084988594055176,15.16329574584961,12.125590324401855,-6.134487152099609,-14.529454231262207,-5.6999359130859375,-1.7038497924804688,1.1741981506347656,-18.640472412109375,0.6469011306762695,7.3243408203125,2.2167930603027344,-0.8933777809143066,-2.4351205825805664,19.36649513244629,3.1353259086608887,-5.911276817321777,-20.003238677978516,-1.2903923988342285,7.070740222930908,-0.10593700408935547,0.7721662521362305,-15.200307846069336,5.941802024841309,-3.800405979156494,1.7037384510040283,-3.347525119781494,12.696321487426758,3.7993602752685547,21.998456954956055,10.183780670166016,-8.993534088134766,22.496458053588867,-12.227459907531738,-13.078556060791016,-2.2248995304107666,-12.100272178649902,-6.586737632751465,3.153104782104492,5.840728759765625,-9.194149017333984,2.944695472717285,-8.385486602783203,0.893517255783081,1.1206073760986328,-14.054914474487305,-17.643442153930664,-6.712210655212402,12.299376487731934,-31.210346221923828,0.5840747356414795,-9.392707824707031,5.334122180938721,-0.5359487533569336,-0.09528923034667969,9.329601287841797,20.209365844726562,0.05828738212585449,7.560901641845703,-0.6650609970092773,-9.251489639282227,-8.649519920349121,-26.35654640197754,-13.850008964538574,-2.7725439071655273,7.666383743286133,-10.92327880859375,2.0784778594970703,-4.153710842132568,-37.56154251098633,13.948471069335938,-8.306228637695312,-28.308650970458984,-2.188581943511963,-12.232197761535645,23.588857650756836,-17.919740676879883,-9.763954162597656,9.682853698730469,7.395729064941406,0.7439680099487305,-7.251442909240723,0.6513338088989258,-13.794676780700684,-10.052572250366211,8.026529312133789,1.8770942687988281,-0.7960362434387207,2.1212096214294434,-21.444133758544922,2.162466526031494,3.0272693634033203,-5.608676433563232,5.703062057495117,-10.384340286254883,20.46345329284668,-6.468171119689941,3.7626752853393555,-17.85436248779297,10.853670120239258,7.242036819458008,14.849842071533203,-13.495798110961914,0.47493553161621094,17.576549530029297,-10.232381820678711,9.580028533935547,-12.56736946105957,3.629581928253174,-11.595907211303711,-14.282039642333984,13.601319313049316,16.312335968017578,-5.432469367980957,-8.141712188720703,-6.640643119812012,-24.05403709411621,-7.972373962402344,6.336360931396484,-3.5612998008728027,-7.417636871337891,14.109827041625977,-4.117460250854492,11.80059814453125,-1.3942475318908691,11.569940567016602],[4.343727111816406,1.5336847305297852,18.209239959716797,5.033546447753906,8.872255325317383,1.382344126701355,-5.639797210693359,-6.984249114990234,18.28993797302246,-2.6048531532287598,-6.889304161071777,-16.511743545532227,1.721677303314209,5.241449356079102,-2.176149368286133,7.545797348022461,-10.591383934020996,-6.028702259063721,-30.155019760131836,-1.015150547027588,7.4305877685546875,6.303799629211426,28.262094497680664,8.341327667236328,-32.083045959472656,3.532158851623535,-8.36900520324707,9.942020416259766,30.631813049316406,13.294130325317383,16.80461311340332,4.202393531799316,24.725189208984375,-2.132786750793457,5.573328018188477,10.974040985107422,10.949150085449219,1.9381704330444336,-1.751655101776123,-20.072185516357422,17.21454429626465,6.689981460571289,8.533232688903809,5.0219011306762695,-14.67321491241455,10.846095085144043,-4.92965030670166,18.847335815429688,-20.620254516601562,-34.96070861816406,-0.43560075759887695,7.293956756591797,-11.248250007629395,3.459333896636963,-0.6601400375366211,6.481601715087891,-1.0378971099853516,13.180869102478027,29.225183486938477,-5.752643585205078,-13.080589294433594,32.902835845947266,-10.050128936767578,-9.486028671264648,-24.87238311767578,6.3177313804626465,9.088052749633789,-15.628576278686523,2.7623510360717773,3.8321480751037598,4.085614204406738,-6.10936975479126,20.44063949584961,-15.952078819274902,-3.4556379318237305,15.516026496887207,-2.345487117767334,-11.659646987915039,1.0083537101745605,6.675711631774902,10.218744277954102,0.5789337158203125,4.595804214477539,-2.933652877807617,-13.686896324157715,9.453922271728516,5.857331275939941,21.29798126220703,-9.249412536621094,4.092689514160156,-6.795927047729492,13.213873863220215,11.314912796020508,-8.529034614562988,-11.651572227478027,7.602277755737305,-3.735159397125244,4.104250907897949,9.386205673217773,-21.500106811523438,-16.03196144104004,7.794976234436035,2.6669912338256836,12.973438262939453,15.011796951293945,12.747498512268066,-2.943455696105957,-10.097439765930176,-8.272817611694336,-34.84494400024414,17.16230583190918,-6.7355499267578125,19.22457504272461,7.343609809875488,8.864263534545898,-2.700652599334717,-13.214232444763184,-1.7828559875488281,8.075906753540039,1.504685878753662,-22.24147605895996,14.118963241577148,-29.730464935302734,13.020374298095703,3.225177764892578,15.246641159057617,13.08244800567627,-1.8201563358306885],[-9.388236999511719,-19.92726707458496,8.474027633666992,3.2620038986206055,-33.2045783996582,20.389516830444336,9.493368148803711,8.84323501586914,-7.171372413635254,29.910175323486328,-19.51061248779297,-0.8024473190307617,-10.679313659667969,8.988706588745117,5.969802379608154,-3.4904098510742188,8.807677268981934,-30.5191593170166,1.3131036758422852,2.242197036743164,-9.040404319763184,-35.20730209350586,-7.680926322937012,-17.599193572998047,-23.266754150390625,15.215902328491211,8.021398544311523,14.333642959594727,15.334522247314453,11.436882972717285,2.325350761413574,9.494906425476074,3.4646806716918945,15.920061111450195,-21.396787643432617,16.592355728149414,2.8490190505981445,-18.36699104309082,-8.313055992126465,0.7361788749694824,12.91852855682373,14.942014694213867,-0.6985011100769043,-0.47739648818969727,-14.411687850952148,-2.5734031200408936,-12.660210609436035,-2.9193220138549805,-9.808293342590332,10.299541473388672,9.416595458984375,8.41185188293457,1.5350818634033203,5.955624103546143,12.765100479125977,7.139512062072754,-9.241109848022461,-7.027919769287109,12.147735595703125,6.451625823974609,6.286694526672363,7.884477615356445,4.723627090454102,-1.710029125213623,-10.6114501953125,-10.080558776855469,5.632345676422119,-17.922346115112305,22.617069244384766,-7.874534606933594,-22.074865341186523,-6.5426764488220215,8.843345642089844,-3.5615406036376953,3.922471046447754,20.528818130493164,17.135643005371094,-19.82111167907715,0.2581665515899658,-16.8107852935791,4.547924995422363,7.369068145751953,-4.53393030166626,5.874225616455078,-13.580122947692871,-4.663366317749023,3.54701828956604,8.985513687133789,-4.788392066955566,-3.785572052001953,-11.07879638671875,-10.92113971710205,-15.282552719116211,-18.922672271728516,2.1196844577789307,5.545026779174805,6.042978763580322,-6.453908920288086,14.839408874511719,-14.390060424804688,5.097376823425293,12.806285858154297,-12.834031105041504,21.940582275390625,14.557963371276855,-7.681443214416504,-4.712337970733643,-0.7504215240478516,1.0752201080322266,-15.549995422363281,-2.303264617919922,-6.223104476928711,-0.7442374229431152,-18.642915725708008,-21.19713020324707,-0.19709348678588867,20.011016845703125,19.211536407470703,-3.6984567642211914,15.456286430358887,2.736536979675293,-5.68400764465332,19.1883544921875,-4.980794906616211,-14.943397521972656,2.1705679893493652,-5.5784478187561035,9.905752182006836],[-4.0902204513549805,25.958778381347656,-8.424463272094727,4.340070724487305,-9.821056365966797,7.753231048583984,10.80367660522461,-1.294330358505249,-3.781907081604004,-3.7803032398223877,2.1192188262939453,2.384866714477539,13.149297714233398,-7.812557697296143,-8.980317115783691,-8.703778266906738,11.990135192871094,0.2923569679260254,-6.0604963302612305,17.586835861206055,4.600127220153809,-1.8948259353637695,8.381025314331055,10.492831230163574,-1.1710538864135742,1.5444345474243164,-14.19858455657959,-2.915513038635254,-4.9535722732543945,5.006402969360352,-4.0990824699401855,-7.653116226196289,-1.0900852680206299,-10.29720687866211,5.443962097167969,0.4572572708129883,-4.614816665649414,-2.659116506576538,12.466466903686523,-10.098894119262695,-22.10057258605957,13.555330276489258,-0.33505725860595703,-16.835275650024414,-14.043927192687988,-6.934381484985352,4.6082282066345215,-7.4519147872924805,-1.8598313331604004,-18.601438522338867,-1.488286018371582,7.763982772827148,-6.07688045501709,-10.104421615600586,-2.1421737670898438,-1.9409174919128418,-7.524572372436523,-6.425007343292236,0.006389141082763672,10.932714462280273,-5.873448371887207,22.441776275634766,-14.561395645141602,-4.138816833496094,8.29227352142334,-4.926132678985596,-4.314558029174805,4.3795166015625,-14.67822265625,1.4434261322021484,-0.24046707153320312,6.772922515869141,-1.1263294219970703,15.402091979980469,1.035484790802002,-3.6276321411132812,12.120011329650879,3.730215549468994,-0.5175540447235107,16.955354690551758,-9.633756637573242,-22.012874603271484,-4.693983554840088,0.2554662227630615,-20.186809539794922,-14.672113418579102,-0.7025296688079834,-15.883502960205078,-17.316986083984375,2.1700782775878906,-6.352490425109863,3.626971483230591,4.809665679931641,-17.960498809814453,1.4979557991027832,-5.89826774597168,-8.829754829406738,-1.864476203918457,-7.595171928405762,4.639385223388672,3.441950798034668,-11.886524200439453,1.3557453155517578,-15.435812950134277,5.878431797027588,2.6634793281555176,-15.49070930480957,1.9529552459716797,10.865608215332031,-20.560165405273438,0.5034408569335938,4.825128555297852,-1.1099169254302979,-7.03056526184082,2.7506189346313477,-8.604965209960938,19.287799835205078,3.9281773567199707,25.55710220336914,-27.167200088500977,-4.276548385620117,1.0965912342071533,10.260221481323242,-13.143806457519531,2.7351036071777344,-17.797739028930664,-5.222268104553223,6.084329605102539],[16.183349609375,-11.25793170928955,-3.9333176612854004,-3.125668525695801,13.485275268554688,-0.9230818748474121,-2.1174087524414062,-0.16515612602233887,2.6709141731262207,-14.611469268798828,-19.595129013061523,-12.115299224853516,7.479154586791992,4.761394023895264,3.3784711360931396,1.1376049518585205,24.209026336669922,1.9270081520080566,2.966200828552246,-13.253177642822266,-12.624164581298828,17.85662841796875,-3.780980110168457,-12.776302337646484,0.3894059658050537,-0.847196102142334,-3.530252456665039,24.987552642822266,10.951496124267578,10.789239883422852,9.87402629852295,10.391615867614746,-4.669253826141357,-1.0407001972198486,12.875160217285156,-8.726219177246094,-14.246055603027344,16.927165985107422,-23.07985496520996,1.8043842315673828,-4.80758810043335,3.4122133255004883,5.6375651359558105,1.909905195236206,12.446006774902344,10.552844047546387,-11.412405967712402,-0.7641973495483398,-8.625113487243652,-14.595312118530273,4.733120441436768,-16.40520477294922,15.031328201293945,7.801815986633301,0.7667913436889648,-8.00192642211914,13.332938194274902,-3.92203426361084,-0.41548824310302734,-2.1468515396118164,5.933743953704834,2.018223285675049,7.189380645751953,7.260105133056641,-14.196544647216797,-2.0961060523986816,10.535865783691406,-3.8514013290405273,-6.98621940612793,-6.849072456359863,-2.8334739208221436,-9.039793968200684,1.5008177757263184,8.784503936767578,0.08371329307556152,-7.819984436035156,-8.572820663452148,5.554091453552246,-12.099510192871094,-7.304869651794434,2.4230222702026367,-7.93984317779541,-8.476249694824219,-22.50523567199707,-4.57625675201416,-4.825328350067139,-0.8347110748291016,7.918963432312012,1.6760821342468262,11.389872550964355,-22.513940811157227,4.565873146057129,23.336647033691406,-4.368091583251953,5.682018280029297,15.890420913696289,-3.7520861625671387,7.566493988037109,-7.050907135009766,-24.726001739501953,4.327678680419922,-7.92658805847168,-2.085984706878662,-12.003244400024414,-0.3301572799682617,11.289188385009766,14.145994186401367,-0.86138916015625,16.20734405517578,-9.11865520477295,6.366069793701172,-8.803909301757812,3.257805109024048,17.44944190979004,7.9026594161987305,-6.489247798919678,4.6948747634887695,-0.3649141788482666,-10.658312797546387,-5.95474910736084,-13.920438766479492,5.346136569976807,-20.291053771972656,20.77077293395996,7.465958595275879,8.376326560974121,-8.585142135620117,-4.715512275695801],[7.3112406730651855,2.1907215118408203,2.149820327758789,-16.32829475402832,-6.574709892272949,-5.777801036834717,1.9504108428955078,-23.430992126464844,24.599224090576172,-7.914909362792969,-2.3574068546295166,-5.177484035491943,-2.772327184677124,5.516695499420166,1.1997311115264893,18.759782791137695,-13.033398628234863,12.204967498779297,-6.607635021209717,-11.411511421203613,9.38698959350586,-1.6898493766784668,13.362650871276855,-20.03377342224121,-13.868886947631836,-10.115903854370117,-6.69845724105835,10.238685607910156,17.705156326293945,-8.777692794799805,6.500662326812744,6.337578773498535,8.97110652923584,24.309146881103516,22.398006439208984,11.558648109436035,-11.602017402648926,14.95767593383789,-4.7129807472229,-17.99186897277832,0.1590709090232849,-2.560854196548462,17.412704467773438,10.77928352355957,-5.23884916305542,-2.1580073833465576,-4.232436180114746,-4.683185577392578,-11.066221237182617,-5.1133952140808105,4.546524524688721,-14.15939712524414,13.564208984375,-14.7210693359375,3.613025188446045,-5.2368879318237305,3.1855483055114746,-12.374042510986328,6.85992431640625,-11.49516487121582,1.8740506172180176,10.52795124053955,9.939297676086426,15.388238906860352,-22.09062957763672,8.451255798339844,10.203743934631348,-17.683948516845703,0.7732552289962769,-20.450031280517578,-7.192056179046631,8.237602233886719,-12.244733810424805,-6.06324577331543,-7.626463413238525,-0.1035345196723938,-22.539627075195312,-3.547941207885742,0.14697282016277313,-3.821648120880127,5.727692604064941,-29.111764907836914,10.771885871887207,5.285010814666748,-11.40903091430664,1.4062296152114868,-11.498309135437012,-6.110816955566406,0.9945122003555298,11.494845390319824,-27.876502990722656,13.987360000610352,5.083103179931641,-11.0972900390625,1.6733884811401367,-0.0027324557304382324,-7.962047576904297,-2.2106759548187256,-34.24118423461914,-29.352481842041016,4.415588855743408,11.682770729064941,9.834253311157227,8.385713577270508,19.315319061279297,13.973037719726562,8.531855583190918,-14.156305313110352,-0.26969051361083984,-11.25997257232666,13.51735782623291,-11.430160522460938,16.114368438720703,-19.3214168548584,1.191576600074768,-6.85403299331665,-21.867259979248047,15.982433319091797,20.855228424072266,-9.859085083007812,-2.581294536590576,3.26291561126709,-14.648573875427246,-4.402256965637207,2.72011137008667,10.853497505187988,0.6742595434188843,-11.660608291625977],[16.73081398010254,-6.981754779815674,6.726341247558594,-6.066913604736328,3.974477529525757,-17.551956176757812,-9.229716300964355,13.227210998535156,7.1159892082214355,15.435049057006836,2.9031591415405273,-4.449095249176025,-15.755289077758789,-11.20727825164795,-1.0963575839996338,5.53825044631958,-1.2753610610961914,9.206633567810059,-7.7120184898376465,17.712156295776367,-8.315463066101074,9.190265655517578,-13.734659194946289,-16.188663482666016,-12.781940460205078,-8.111699104309082,-17.372840881347656,-7.555161476135254,-6.359447479248047,-22.99924659729004,14.213522911071777,-4.888489723205566,-11.199254035949707,3.2569966316223145,2.442429542541504,-11.282258987426758,4.543325901031494,-5.877824783325195,7.854362487792969,22.78794288635254,0.5904624462127686,-8.267474174499512,4.144736289978027,-12.744307518005371,18.326862335205078,-21.1199893951416,-10.053030014038086,2.5734286308288574,3.7576870918273926,2.4611501693725586,-7.3920793533325195,-6.89932918548584,4.868081569671631,1.5663862228393555,2.2393054962158203,19.61124610900879,26.029329299926758,10.83819580078125,-14.622153282165527,-0.993635356426239,-9.913736343383789,-1.6595535278320312,-9.108975410461426,13.95574951171875,-1.5366207361221313,19.055469512939453,-5.753100395202637,0.36694473028182983,-11.511024475097656,4.708909034729004,-3.9757165908813477,8.760231971740723,12.21085262298584,9.768095970153809,-1.955202341079712,11.040694236755371,25.539703369140625,7.0738396644592285,2.924952745437622,3.3304948806762695,1.71905517578125,-5.80537748336792,-0.07218658924102783,-11.278103828430176,1.1254009008407593,4.8259687423706055,13.1535005569458,-15.13670539855957,-4.5908966064453125,6.918392658233643,6.627033710479736,4.734272003173828,-9.752798080444336,6.422873020172119,-1.7348113059997559,15.599075317382812,9.914692878723145,14.968801498413086,-20.877452850341797,13.196452140808105,-10.875471115112305,-0.17634302377700806,-16.020368576049805,-4.708131313323975,-1.282066822052002,-7.637948036193848,11.214323997497559,15.09594440460205,1.7295321226119995,5.661709785461426,-11.343561172485352,4.754635810852051,8.63157844543457,-5.582454681396484,18.10866355895996,12.055560111999512,1.6977827548980713,20.957399368286133,-5.740306377410889,13.972308158874512,-9.8485746383667,10.947540283203125,14.57913589477539,22.49183464050293,6.247769355773926,8.877678871154785,12.559172630310059,16.18506622314453]],"output_sha256":"c566e3e7e7328edc91fce26add3f8b44fd525b7a11e49d8c8264c515619ce5f4"},"holdout_hardware":{"output":[[12.768847975409438,1.3915272089604622,-15.604546037041734,-2.5177077916498893,-9.354460206353258,0.029554400122571656,0.7062836023930794,-13.717486825310777,-14.435115304314683,3.775496515906263,8.348279509222914,8.298876318610121,-16.16129728826244,2.177269730246473,-4.208427872979235,-12.008543458306383,10.226198706305434,-10.193500962578844,-8.011694398247789,23.692281279242444,16.73922875849049,1.4484968515996224,-10.197093453728746,7.762930426276136,22.29669717279713,-7.063766923272204,-0.9157738355036491,5.362906012213636,-3.0357422498102897,-0.4352335599299186,7.126729998267103,-17.44733664067943,4.419079336798597,30.10229829279225,0.6290908190373665,7.6600566240910775,-4.593841996514391,-2.365738835656237,-2.369828667962145,8.563746962225844,5.905715498602796,5.843569311774183,-10.67417761357982,-28.413649049126697,-11.29179235967357,-20.929359879815173,-0.7271318105097526,0.7410476538304573,-12.489836182915758,-14.41599890264232,-1.631974425637316,-29.39757772954662,-6.007731881463122,-16.131094422661853,-3.554367509209704,6.016437086737562,-3.993276086175036,-8.43172213109691,-4.346409287774157,-10.867954697930406,-15.880213227593492,4.279511484778333,-13.5971617368098,18.74341157404225,-21.658041444146228,8.438807043707778,21.568238768256116,8.080115351355483,-3.0442485478754753,4.568159136450697,-20.0916161206599,-7.400624242150378,8.570500883734633,-3.988912072503161,2.7779760691289193,-5.830219712578844,14.843417677557875,-0.3665702012415641,11.723252806342055,1.582179579413343,-2.7866730359431022,-6.882674661004137,2.418786081946302,-18.026941743218494,23.322301420844006,-2.634364095055651,-2.8332147267695182,11.946569952643324,9.862760100043227,-5.521814790093493,-4.019186463677477,-11.327200379693101,11.96395829645436,-8.568967309319566,-19.745062318169666,3.08420518366139,7.840512785590101,2.5429768892888314,-6.269955125176501,8.511910948431899,4.205488714850355,20.387153181708264,3.628310713446546,15.383737120306899,-0.08854052098948889,-3.0405873921747917,3.800887140906263,-26.27305265935619,-4.841935124718737,10.750460180914809,15.723086867011,-12.802902665459703,-15.976614442193101,0.6197190615300423,-1.25553771527965,-3.0330943730707878,7.552563700354505,-10.782015290581773,3.534069571173597,-7.916937318169665,-22.11254354985912,-11.497542825066636,-3.113637891137194,-21.114569154107166,-6.881319489800524,6.915609869635511,-6.399445977532458,7.839670691168714],[-7.153246846520495,2.2070746752385384,-0.8129033711786979,12.831873449957778,1.1370739075307137,-6.4011826184626335,-16.01000639470775,-7.486254182183337,-13.283558335625719,18.639602217352795,3.281853470480848,-6.46307846578319,0.6943345400456673,7.904534372961927,4.188567671454359,-7.319393601739001,-5.360275712334704,-3.03447100194652,-0.15437897714335852,-7.782876458489489,-5.018714394890856,-1.7406575349207634,11.039475950873305,7.464648279822279,17.04381516901295,-12.171583619439195,13.012996229803969,9.0676913591985,-12.364941087090562,5.372992548621107,4.625396761572767,-8.324823823296617,14.080207380927016,27.737685713446545,-7.108891930901598,-5.405565705620837,-20.03637930425365,-1.4833902982111686,3.3906331392888314,-7.285038438164782,-5.06253668340404,-1.0344030526514763,-0.16947695287425452,-1.013075318657946,-14.244057145440172,1.791440996802259,16.8358683916692,-6.846268620812487,8.67887357202809,-13.532841172539781,8.786843809760024,0.6619258257512337,-9.128779855095933,-5.543923344933581,9.503432783759047,-0.15585609945018225,2.1474275919560677,-25.370802369439197,-2.505814996087145,-0.7456092503901237,7.739250692999769,9.048836264288832,-0.5490091708536857,8.732811484015395,-9.26842924627025,-3.1420955327387565,21.75304177728932,7.92491677728932,11.113106283820082,-3.691988435113024,4.4197120997075325,0.09106400934498377,4.603061232245374,-11.81369062932689,20.302573713934827,8.342749151862074,16.40210298029225,7.261375460303236,0.9695818754796273,8.371321234381606,11.533469710028578,2.5993504854802376,6.974532637274671,-15.39217134984691,-10.152404275261949,9.666317495978285,-12.096415009820054,5.8358731600407845,7.69110158411305,3.821005377448011,-0.21504017385203772,10.87256196466725,-7.872331109368395,10.204608473456313,-7.2085885671015495,-2.777355637871813,2.2029470535878426,2.5345425936345345,-7.700909104668688,16.185832533514905,7.363977942145277,4.268625769293714,0.8973112436894661,-5.9928879407282585,1.7463176581029183,2.0420823427800423,10.953328642523696,1.2397666308049446,4.558088812506605,12.324443373358656,-0.8396224645014518,8.574120077765395,4.347580465948988,8.512360129034926,15.281657728827406,-2.8974175122614616,16.073580298102307,7.874503168738294,-6.695776906334948,14.783576521552016,5.472618136084486,-1.3920597699518913,-2.0041298535700554,-4.104898419701647,5.504546675360609,-1.1310324338312858,8.571659598029067,4.367279562628675],[7.902629408514906,10.84419110742848,-12.07914587529857,-3.3728298810358757,10.784614119208266,4.867128882086683,11.996173414862563,-4.439360585534167,-5.851231065117907,3.897259030020643,-1.249487843834948,5.880050692236829,4.945498976385999,2.447603735602308,14.062234434760024,2.0974111887578255,11.272789511359145,-17.09863516362865,1.3919586273793465,-4.237565007531237,4.325212034857679,1.6585686537389046,21.18236497370045,-1.2734808591242546,-7.440302338921618,7.283403429663587,-0.6827406552668327,-1.5972675946589225,-1.478564706170153,-10.336604562127183,-4.128909077965807,-0.13803860219676428,1.141141447699476,-10.025379624688219,8.323304686224867,2.2225003573064095,-6.394431081139635,-0.1794066098566764,-5.366261449181628,7.011716398871351,5.619529757178236,-0.27456923993785315,-17.132036652886462,27.500318083441663,-9.431075539910386,-0.1464042333002799,13.433053526556899,5.288637194312025,-5.488944974267077,-1.21309443982799,-5.316541638695788,11.069049391425063,-1.9722227719660514,15.877557310736586,-14.221415009820054,-10.791170564019273,-13.196945634209703,-1.5648440984125846,5.689425024664808,7.085534128821302,11.520700964606215,3.8270001742009407,0.5518079134587532,-2.9216622975702995,0.5990302893285042,0.2269492479924447,-7.692440476739001,15.527451071417739,18.56836274591725,-13.509370293938707,14.16896203485768,10.17964318720143,14.995868239081313,0.13456681696217127,-14.569044556939195,-2.5305046704645866,7.0829835268620736,6.399562391913343,-16.474087205254627,4.699430021918226,9.722594771063735,-11.418020692193101,-0.5968079236384147,11.724351439154555,3.2946114870671517,-9.917630639397691,-7.971410241448473,-4.919067349755358,-5.246077504479479,1.1564436289433724,-1.8975126412745231,7.473236117041517,-3.146110501610827,4.06110480753224,-11.176548447930406,15.209474119818617,5.506205114996839,-0.7585582402582878,-11.38511225255687,20.226272139227795,14.001643690741469,-8.735134568535875,-12.717198815667222,-3.851367917382311,-5.478959527337145,-5.704103913628649,16.878175291693616,9.352990660345961,-5.8686508801813835,-26.46151587041576,2.855307135260511,-4.731424775445055,-11.32320448430736,-8.390367951714586,10.398689779913832,18.651092085516858,-22.84105917485912,21.461900267279553,-5.409122910821032,-23.991541352593494,0.5119610163335091,11.757971319830824,3.6387677523259407,2.814073118842054,-7.211692300164294,-9.695555177056383,3.286426577246595,5.346361193335462],[-2.0288915303583854,3.130322012579847,0.3953144880894906,-6.6342243817682975,-15.029572930657457,0.14947465387623377,-6.534087624871325,-14.03927656682689,7.04361680475514,-3.798149552666735,3.682635817206312,-10.01454397710521,9.982163939154555,-5.2615294125910514,-1.644117799126696,10.89975694147389,-11.393129792534898,9.0777650210027,-11.856724229180406,-5.748976197564196,-4.637044873559069,0.708198103583265,-27.718780961358142,6.980833563483167,10.864100966132094,6.815742048895765,11.15080789057057,-18.385763612114978,6.465012106573988,14.171419653571059,8.864400419867446,12.653697523749281,3.3339324328068978,13.110757383978774,-4.245297875725817,-2.608797517144274,-24.94368025335033,-5.656210866295885,1.0065150591496712,-5.928863492333483,-0.4160372880335563,-1.6065306332941764,3.466365370428968,-14.73771521123607,3.049765143073011,-3.572354760491442,9.257941755927016,2.9686522814397103,8.336233648932387,10.605880293524672,-22.395233598076892,-8.59809347661693,-5.426529374444079,8.256427321112563,22.634873900092053,11.90490010706227,9.888578924811293,6.664046797430921,4.971175703680921,-17.919237580620837,-18.21352430852611,2.0293569895390755,-4.562909570061755,-3.3590397504206413,-11.11744162114818,3.4663706156377083,9.246226820624281,5.96464780298512,16.09428361383717,-5.613100495659899,-8.46221300634105,5.669328245795179,-0.011690106713365844,-3.136155095421862,-7.8010592130060905,14.220124754584242,-13.940273728692125,4.436554464972425,-0.6569676068659538,9.362377676642348,9.612889799750258,-11.699349847161363,9.826196226752211,-6.782272305810046,-3.6528401044245475,8.56673100916188,-13.916913476311754,0.609079394019056,-3.0751704839106315,3.84735158411305,8.18309024301808,2.396602186835218,13.822329077399184,-0.30465837987620764,-7.336963620507311,12.957500013983656,-0.8538505700464958,-1.2748355534907096,-22.219656434380603,1.154050860083509,-0.4482636121149772,5.6381755205754525,9.99452069727223,3.0071311327580696,-4.701279130303454,-6.316665139519762,3.9215801092747933,-1.3214339879389518,-6.041930165612292,-7.187130418145251,4.7867069574956185,-8.475592103325914,-14.861990418755601,1.1930156084660775,9.362353834784438,8.321679625189711,12.208731207526137,-25.757837739312244,1.3122258516911751,1.151306185400892,-10.938534226739,-7.05719992192943,7.516910109198499,-0.48752328427989416,0.08623031107227869,18.02685883966725,4.390022310889173,-5.833240952813219],[-27.54735800298412,6.422940764105726,3.17656997171681,-8.455675568902086,14.666176352179457,7.809028658545423,-9.43648287328441,-5.654738869988512,7.121442351019788,13.489724669135024,-12.302817788445543,-10.621097054802965,-2.5194735196467155,6.550140890753675,0.12739423242847986,6.606940779364515,-8.179213013970445,7.168971571600843,2.0167856547002083,-2.630462613427233,11.688413176215102,-20.553392854058337,6.844748053229261,-0.7223596242304557,-27.56687017949779,-7.1032747891779655,7.209057364142347,0.09087422815601892,-9.765524354302476,9.434512648261,-15.484858002984117,-0.8056549695368522,7.974940809882093,-15.33445307286937,-9.276930299126695,10.462447676337172,-3.9882869389887565,11.68797830072682,14.973081144965102,9.923154387152602,1.4222655626897103,-12.085108247124742,12.171274695074965,-0.1273770001765006,-10.06581636937816,-1.7798399594660514,9.781313452399184,-6.687910523736071,4.754334482825208,-9.692009415947984,13.280006918585707,7.0392799708012825,-1.8370027211542839,-1.326394524895739,3.340170416510511,-18.904791322075916,-7.122112717949938,12.060554060614516,-2.5698794988032096,-4.876014199578356,2.3788962694768196,-7.912420716607165,0.1850791308049447,-18.78909918340404,-21.521532502495837,13.85268071619313,-5.9142536786432975,8.827621016180922,-4.4987826016779655,6.489954981482435,4.065211805975843,5.869734320319105,1.2188806864384896,1.6729450556401497,-3.949139085137438,12.74890473810475,-0.1363920834894889,12.98970178095143,-5.765589204155993,3.519662890112806,2.694835695898939,6.160927805579115,0.9783482882146126,-0.7630815175410026,-1.8428620961542839,-22.120394196831775,5.099685702002454,14.129165205634047,-5.191101041161608,1.628861937201429,1.443376097357679,6.525167021429945,8.357199225104262,-3.088055100762438,-4.771614995324206,3.3862929674748665,3.2794161173466927,-5.211407151543688,-30.137253251397205,-7.628969636284899,19.437509092963147,-3.3415274289484733,4.235391173041273,-3.7864908841486686,2.4458346697453743,4.522724661505628,22.165257963812756,0.44097903696339197,9.958172354376723,18.07397225824635,19.859742674506116,-13.62498327764232,-2.1842960980768913,4.069669279730726,0.3961410853032357,3.5808630320195443,-0.6952085164423698,-6.851705041253161,5.1051063868169075,-4.832781281792712,-16.05220076116283,1.5151214930180794,4.571365866339613,-10.661419358574937,-0.7756256726618522,14.617271933234145,5.9989896151189095,-9.780306306206773],[-17.027647462212634,-4.05958315404613,-1.0315870908137077,4.802006277716566,-3.669325318657946,-13.020045724236558,-2.3557228711481804,-2.8723182347651237,7.338887724554945,8.16676763025563,0.05748036829273767,10.025134596503188,-7.36446424993236,-0.8837322858210319,16.362771544135022,17.576348814642834,9.012740645087172,6.51976254907887,-0.01983305486400061,18.547044310248303,0.5238335463170296,0.9741607042912728,-5.213695016228747,-9.763306107842515,4.481997046149183,-8.615247216546129,-5.000141587578844,12.574942145026137,-7.502443757378649,6.770592245734144,2.45551923242848,15.307395491278578,12.490937742865492,-0.49799152883250647,8.385254416144301,1.7169618937138802,-18.39029547246654,-1.1340384152765983,-17.534450974785877,-16.22083517583568,8.986706289923598,2.9682743879918343,-11.073488679253648,-8.53683516057689,11.445493254340102,1.286332640326429,0.7146802279118782,7.1988139483098275,-5.232593026482653,-2.2932514813776725,-0.35475966008861,19.38989022699635,7.548220667517591,12.501588377631117,-5.803685632073473,-10.371375527703355,0.9844727846745736,-0.938243832909655,-7.625150170647692,-9.108814683281969,-4.352899995171618,-15.013609376275133,-2.017418113076281,-35.039942231499744,-8.409559693657945,5.065042051947523,-1.7307390836115593,5.21927598444264,6.870923552191663,-0.7484407094355339,-11.801880326592515,18.361430678046155,13.50259355036061,0.7669840189580208,11.151393446600844,7.135497603094984,3.2790708872441536,8.44774392572682,-2.3530325559015983,15.839692625677992,0.7205987307194954,-11.98691889318187,-5.027286973321032,6.720418486273695,-14.235155549370836,13.595220122015883,-16.77710958989818,-12.811074700676988,4.799575361884046,16.366189512885022,-10.603133645379136,3.1752028795842415,8.038034948981215,-1.1232847836848014,-7.939615693413805,-18.523239579522205,7.103522333777357,-17.402388062798572,-9.9679531720515,7.2798476549748665,-1.9078349736567253,-4.517423119866442,-3.2137789395685905,0.6968708368901497,18.350917372382092,-9.239700761162828,-17.93244406255443,-10.065528359734605,-15.234613862359117,-16.978886094414783,-6.488508668267321,0.6952982279423958,-14.637892213189195,0.7240867945317513,5.309634718573499,-19.116169419610095,25.986512694037366,-8.72567793401439,-14.254808869683336,15.510028395331313,19.65576699701588,-3.299994435631823,-10.814307656609605,8.629848036444594,4.85886863199513,-2.85613962682445,10.09289887872975,-5.100995507561755],[-5.966949906670641,8.9925599428777,-8.952111687981676,-13.755158868157457,13.363683256781508,0.9895458552006966,13.959291014349867,0.4871707293156869,-1.5240153935786003,5.803490194952894,11.8206210466985,-3.393204655968737,-8.927006211602281,26.670688185370373,-22.370789017998767,-1.533695664727282,-13.25667616399486,-6.74808355840404,-3.786913838707995,-4.834873643242907,11.669398817694594,8.780230078375746,34.14222100702565,-7.036404099785876,11.032416853583266,-28.007755723321033,-11.97636553319652,-12.188208070122789,19.994153532660413,-3.0466665891047233,-4.029805627190661,-20.761719193780017,4.3787503573064095,18.456130537665295,-29.04999777349193,26.78333047357838,6.998054060614515,-26.754496064507556,7.375696692145277,-13.101675477349351,1.6103520723943001,-4.055971589409899,1.4052539202336556,-29.16087004216869,0.038534197485852906,-21.071638551079822,-7.453279939019274,-8.287725892388414,-1.9359020856257194,-17.689863648736072,2.3059068056706673,-23.021259751641345,-23.42895170720775,-6.593655553185534,17.993165526068616,29.93262246576588,3.432380232489515,-22.4430508283015,9.444673094427992,-19.612059083306384,16.512376341498303,10.226622137701918,8.843696150458266,-5.15805670293529,-29.95931860479076,0.7701421114568001,8.358521971381117,25.218610319769788,-2.885912862145495,9.806100401556899,-8.653454270684312,5.520768675482679,16.45727876154225,-23.023699250542712,-14.836970773064683,-4.615900483452868,-6.610020604455065,-8.63583704503734,20.69153932062428,12.910283598578383,-6.072894540154528,-4.064828362786364,9.917926344550063,8.213045630133559,1.9892669054631478,1.354738745367933,18.45345452753346,4.493660483038831,24.074288878119397,-5.334636178338122,-3.9028958943720573,-1.9562267926569694,0.7017236086491829,-5.720005479180407,43.75272515741627,0.5570307108525521,0.8984666201237923,2.346581492102552,-10.587780442559312,-4.526358094536852,-15.087065186822008,11.17884973017018,-9.25853106054027,-18.197880235039783,5.027226004279066,-3.7006497052546257,29.918973478949475,4.710234198248792,9.352672133124281,8.340997252142836,15.206405195868422,4.057045492804456,-26.772901978814197,-10.939751115166734,-18.717318024956775,-7.641332116448473,-3.426304307305407,-8.202907052361558,-20.98777433904369,-7.198406663262438,-14.850971665703844,1.1233277651433236,-2.917916741692614,-13.499523606621812,-31.727945771538806,3.6295600268010384,1.633310351050306,-2.378605332696032],[-0.6266479161616081,-19.524916138970447,7.137896094000745,8.278243574774672,-5.406190362298083,-0.34634634526927405,7.191111120856214,14.366984877264906,3.7046590181950814,-3.698727574669909,2.612117323553968,7.844075712836195,6.1495890947942025,-17.937927689873767,3.9263086649541146,-0.2032556203242057,-6.710279908501696,-8.597088303887437,-1.6662678387995475,5.342581782019544,-19.267591920220447,-3.5198425916071647,25.344787153876233,5.257472548163343,-25.985681977593494,-13.56935354741771,-1.7714380887385124,-12.058000054680894,-1.7965588239069694,-12.531199899041246,7.01369622675221,14.939670118964125,0.9022889467839486,-17.456066575371814,13.897140059149672,-17.108234849297595,-3.5446834233637565,-3.7118820813532585,13.987699064886977,-10.30207010778148,11.088840040839125,-3.1395954755182975,2.1595378252629525,10.221405539191176,2.501150402701307,2.2027230593327767,17.435040983832288,-8.331664529168199,-4.64434763463695,18.017802748358655,17.882134947455334,20.252049956000256,-8.388978448235582,8.092001471198012,-23.830225434624744,2.256881270087171,10.42798188654225,-12.40697905095775,1.4491811129216439,-1.6638707784052604,-0.014128175103258422,6.979181799567152,-2.889457669579577,2.343693766272474,7.485765013373304,8.845419439948012,-10.463718858086656,-1.9373879102106804,8.859878096259047,-8.32536169561107,5.8293471666936165,-13.07657190831859,6.235896620428968,2.022360357916761,4.7111454340581185,1.7752333017949349,-13.264236893975328,-6.3714069989557975,-0.08309837850291663,5.326782259619642,-3.905789819085192,-9.4898619321223,2.8121724459294564,1.4288030001286751,8.11804536310475,8.339011702216078,-10.71699759038646,-7.00269838842113,-11.10232874425609,11.891627821600844,-3.0982575085993522,-3.373142686211657,-17.173799958550525,9.135421309149672,11.1492343279485,15.618741545355727,12.985995802557875,7.3616581293706185,8.541652235663344,4.3892836901311165,3.1134257647160775,12.90393403497975,-9.649944749199937,9.668356451666762,13.166070494330336,7.542642149603773,5.925416025793958,-2.1721834805842155,-7.842734780633044,-1.255405869805407,2.1593709322575814,9.686437163031508,-15.567079987847398,-3.623072114312243,0.3698292109135873,3.6010747286443,8.742659125006606,-9.291697945916246,17.99533227411549,5.0104995104436165,20.53541139093678,11.736829313910414,-10.716931786858629,16.340291533148694,2.2510505053166634,4.996223959601331,-9.34743544133861,1.9332461687688118],[-2.3928537038202995,-11.217888322197984,13.85707238642018,-0.6690587666865104,6.375524077094007,-7.5070786145563835,-3.1741032269831413,10.243432554877211,21.218606505072522,4.517251047766615,-21.972921815239978,-2.584404673897814,-4.700042214715075,-1.860813584649157,-0.9275307324763054,18.277963194525647,-2.571469273888659,18.19718888727467,-22.690098252617908,2.071011814749647,-11.553944077813219,2.951787027991224,-6.250995602929186,-17.20183226140697,-5.162215676629137,1.7920146319035775,-19.222555604302478,-4.904556718194079,6.643776449835706,9.23506310907643,-4.154809918725085,2.5857258173588997,-2.373603310906481,18.79741433588307,-6.380471673333239,-6.634737458550524,-1.414949860894274,-4.369613137566637,0.04974225488941736,-6.970601525628161,18.194728407538342,-7.3259873059626335,-0.45485254796702795,6.423175367987562,3.5364938112859017,8.727614912665297,-33.07203909429271,5.608004126227308,15.888413939154555,-2.2075915006037468,-11.046944108330797,-16.43271490606029,-8.408949342095445,-24.39126440557201,-2.2498902943964714,-11.366586175286363,12.222734961188246,-5.701462235772204,9.960024389899184,-0.2376651433344596,-5.911180939995837,0.6174989077214486,15.444035086310317,3.433645281470228,-4.910679307305407,-20.93055197271068,2.063888106024671,-15.686195817315172,-9.510580506646226,17.01693109003346,-23.035696473443103,-10.786266770684312,2.174276861823011,13.031734022772719,-2.621323075615954,3.8025927874211556,-4.425314393364977,-5.294650044762682,8.84392312494557,-15.584135499322008,14.690502676642348,0.4245086046818978,6.865245375311781,19.735974821722913,-10.065087762200426,-3.0220412877436393,2.7971153589848763,-21.527506318413806,2.8616912695531136,6.033497366583753,-18.719683137261462,1.9585585924748665,0.2215915056828744,-6.154838052117419,20.18040994135182,-19.425978150689197,-3.9407190945978874,-10.935574975335191,-8.563841309868883,-15.615337815606187,-7.395863023125719,5.557764563239027,-10.357799973809312,-13.58029505284984,19.443084273016858,1.5417571398381478,5.863946470892835,2.935636791861463,-13.77873083623607,-18.850027528130603,5.990994963324476,-2.489926781975817,11.155132803595473,14.071967634833266,-3.976796593987536,-0.14467116864879065,-4.840040650689196,0.1708426806096322,-1.810093369805407,19.52260735956471,-2.1434268620844596,5.149602446234632,6.371203932440687,-12.766012635552476,7.257049116766859,20.54655984369557,1.9367575976018196,-2.3830957082148307],[-3.2108730939265007,6.852923903143812,1.227119240439344,-7.739445176446032,-8.48769136937816,1.6297839018468148,-2.672132935845446,-12.497092690789293,1.3006959292058236,-6.1084227231379264,1.8734282585744149,-8.06269308599193,5.623946699774671,7.9194703432683236,-7.00693365606029,21.967441115057873,-2.6051292088862175,4.67612937418263,-1.2328357365961784,-20.504021134697986,-2.2570910123224968,-12.147827592217515,-3.1604389813776725,-6.012983765923571,-5.8297762540217155,-3.7653717664118522,-3.203195062005114,-3.0028862622614616,15.070519957220961,8.625463041937758,6.939313444769788,17.086160216010022,2.3739776941899544,0.6037636133794075,7.463193449652601,14.899285826361586,-14.222468819939683,-19.423727479302478,1.5031490656499154,-1.3623807099695915,-15.04181906255443,-11.467262711846422,-9.617274728142808,4.7362709375981575,4.772652182257581,-10.397018876397203,6.146430525458265,11.473247084296156,1.50205186334889,-2.699912991845202,4.630154642737318,0.747939142859388,7.671713385260511,-15.26951452764232,-17.137892213189197,-8.939295258843492,-0.4024133351679557,-4.5354904797907585,-3.8945769933100456,-13.671116319024156,-6.415354695641589,-0.7771637109156364,-2.0020217564936393,-0.0758769181605094,2.4521785112981087,0.8659801813725716,16.355475935614514,-3.3693904546137565,6.921986136115003,-11.859781709038804,10.956374678290297,4.906380209601331,10.891497168219496,0.34332135645191736,13.367755446112563,-15.340433564507554,-7.35191484960277,-7.184300866448473,25.98895791498463,19.235738310492444,-0.8260340360041374,-6.578517403924059,17.79647210565846,-6.053533044182848,-15.187874284112047,-0.9836508897181266,-11.57237383397777,-11.586610284173082,6.516165766394544,3.9229979845647103,-2.7838759091730827,1.9086747500066048,9.043471846259047,16.242757353461194,6.938626799261976,3.306541952765394,-16.69816252263744,2.782659086859632,2.3260555597905404,-4.385501828515124,-4.358266320550036,8.462275061285903,-3.8630165723200554,-1.524908986413073,-2.084946599328112,-0.021593537652086547,-3.5592469838495964,-10.842594590508531,0.3419065806035287,-4.39448830159862,5.595275435126234,-10.55442377599437,7.52061704126637,5.58455804315846,-8.924528565728258,-8.299440827691148,-5.390288796746325,-20.401062455498767,4.640354666388441,-9.60202070745189,-9.112467255913804,-18.31960913213451,-9.26950403722484,3.816939863837171,0.38140586344044275,7.657489332831312,-2.9438481000300163,-2.4044403699274772],[2.9506550165776497,24.411513838446545,-4.251685586297106,-8.62582441838939,12.24721959558766,12.167797598517348,2.660921606696058,5.122213396704603,-8.997436013543199,-6.1260761884089225,2.891901764548231,8.886234793341567,20.689595732367444,-5.283212151848864,0.4322238299016244,7.502820524847913,-19.69069716008861,6.5572877260808236,-9.621830430352281,-2.890779223763537,16.05712655512135,-3.061250653588366,-3.0528764394160026,6.5936880442265755,-23.473122086846423,1.3704998823766,8.09691146341603,11.010699782050063,25.75279763666432,7.140999350226331,-2.107916798913073,-0.2631206181879752,3.3871779772404915,10.637464079535414,2.9750447603825814,12.846129927313735,19.83731797663014,-13.255118813836168,3.476194414771009,-6.127780881249499,7.688035521185804,9.728852781927992,6.1116066309575325,-3.2222697404261345,24.641541990912366,9.28894380060475,17.877870115912366,-16.650896516167712,-2.494034257256579,12.529299292242934,-3.1594385770197624,16.36287835565846,-0.49811216863353186,11.603267225897719,6.335307631171156,-1.2324900296564811,10.748778853094985,10.927392515814711,-3.855453934990954,0.9205278488759285,2.1151585909489876,1.4916016193989998,3.3443529936436898,-23.73647924932201,5.074843916571546,-6.874921288811755,14.671822104132582,-13.996938195550035,-3.1409525540705436,-5.15109869512279,16.079503569281506,-25.39466902288158,14.104024443304946,9.297071013129164,15.317813429511,-10.601839509331773,-23.703258958184314,-2.706530537926745,3.219658407843519,5.662392172491956,-8.313350167595933,-14.17118402990062,2.7703543039922005,21.75383523432057,-1.5729403165217155,10.067600760138442,-14.46836420568187,-11.287820306145738,2.3530950876836068,2.5450873705510384,-11.259853806817125,-11.94404074224193,8.380531344092299,10.628221068060805,-1.3942382005091423,-4.595674958550524,15.143771681464125,3.558514151251722,13.433868918097426,-5.181720700585436,14.228119406378676,8.278287443793227,3.5305042597417122,2.080581221259046,7.7600159975651986,-10.111397233330797,-9.495543923699449,10.248973402655531,25.069047484076428,15.377711805975844,-8.176006760918687,0.38459685770313806,-0.3706116345759147,18.15662148920338,8.664703879034926,-8.147194352471422,5.112248930609632,-18.66095968755443,6.191302809393812,5.749958548224378,6.22754767862599,3.302227053320814,-5.3644489911432975,16.126620802557873,3.5818896624211556,20.945117506659436,15.42555669275563,2.3473458620671517],[7.701774630225111,20.25903848139088,7.430449995673109,5.456654104865003,-28.47193953069408,0.4550564619664437,15.202956709540297,2.4708752962712532,5.3853164049748665,-12.82378527196605,-10.63142630132396,9.273904356635024,-4.9370407727595085,-12.22642656835277,-12.163046326958726,-10.357794251763414,-8.087336030327867,11.049535307562758,-5.522296395623278,27.300862822211194,-7.28730246099193,-7.61609884771068,-17.996391740166736,6.589371237433363,20.64334252802174,24.225751433051038,-1.9903700021143669,-4.778336015069079,10.085366758978774,-5.889376130425524,-8.701229539239,-6.891002145134997,13.039521727240492,2.595372233069349,-0.763202157342028,1.743964705145765,18.42813256708424,7.691490683234144,-2.2440704968806022,2.570018801367689,-4.49250265630443,23.61084512201588,-9.940099206292222,2.691451582587171,2.3653860422734505,-5.84879156621654,10.443629774725844,-20.823749986016345,-6.293171372735094,-2.569879975640368,13.852249655402114,-8.149786439263414,-1.0493900445338005,1.283346686041761,19.981460127509045,3.0787358614568,1.5944166514043099,-2.110416856133532,9.545590910590102,-28.802435365044666,-0.4159822133417838,4.723586115515638,6.094728502905775,-8.857565369927476,-6.026765313469958,2.3006062838200814,4.609353575385023,4.524538550055433,17.628203901923108,5.126662764227796,-1.5640320447321647,-10.70945879491527,-10.009392228447984,3.068833861029554,-2.493438210808825,12.319909605658461,-0.4294683602686637,-2.9730510381098503,-7.934280839287829,-14.222354379021715,0.49558690515797205,13.290755781805922,-11.551573243462633,10.29679063288014,6.9668593737248665,7.4559083315495736,18.55324128595631,-18.588770356499744,-9.262149300896715,-6.999730553948473,22.677409681952405,-16.638044801079822,1.4446580740575081,-7.831697907769274,6.446225199377943,-10.925988641106676,3.588425669348646,-13.670303788506578,-0.09693285497386389,-31.015158143364978,1.9611626001958138,6.975956473029066,6.108749899542738,9.431542906439711,11.134424719489028,-7.784812417351794,-15.077076402031969,8.213809523261,4.9830642077092415,12.79104569879811,7.069207701361585,-5.177226510369372,-9.865380730950426,12.511015448248793,16.50390962091725,-13.331617799126695,15.48801377741139,0.40554383722584314,-10.174832787835191,-9.441640343987535,6.16432574716847,11.718172583258559,2.531275782263685,-3.6030068066950554,10.423997435248305,-5.068758454644274,5.736468825018812,-2.7588748601313346],[10.31760362116139,13.830295118964125,-6.6954588559504264,-9.253844704949449,6.004141363776136,2.5925917955998665,3.722437891638685,-1.1871909764643425,8.113708529150893,-12.4036802914973,9.82283166376393,-24.27681776555736,16.337235960638928,0.6337347361211068,6.562004599249769,5.616676840460706,13.011133703864028,-1.4325024751063102,4.745875868475843,-20.125181641900134,3.7801518770818,8.856700453436781,-6.728158440911364,24.92940667597096,2.1129796835545784,-8.969090905510972,14.661950621283461,4.781776461279798,-13.394421067559312,-0.8640784886713737,-14.675734010064195,1.1130202147130257,17.838662657416272,3.4550938936833626,3.7345733973149544,7.255407366431165,14.299896750128676,17.20209268060963,6.6074281069401986,4.508985075629163,0.3546469542149789,-9.97702070745189,-12.559299912774156,3.0044455858830696,16.233865294135022,0.6056533190373665,13.839060339606215,6.075160059607435,-8.520657029473375,9.567040953314711,-13.163142648064683,0.807626757300306,11.482589277899672,-0.9179477361078971,0.9145994516972786,-8.016037431084703,-1.1351308492060417,10.492157492316176,1.5622659060124642,10.908181700385024,11.792537245428969,-8.481145348870347,-1.635798182808947,4.560004744208265,16.437211546576428,-0.7910051015253776,-6.839675393426012,-4.673530545556139,0.757434878027845,-7.038464036309313,6.330647978461195,-4.637506928765368,23.24326280084889,13.795712980902602,12.280002150214125,2.3117666575078255,-0.9683890012140983,-9.502665009820054,-17.907566514336658,5.2147136065129525,-18.4769978192683,9.267315420782973,14.114503416693617,-3.525364365899157,-0.12230345281321936,5.6250529619817025,-6.68561264547069,-5.770397630059313,-3.4450006154413932,-23.933004823052478,-4.081538644158434,-14.617054429375719,-19.551113572442127,7.024355921423841,-16.805817094170642,-2.7174179223414177,19.985541853583264,-4.571720567071032,15.190432104742934,-4.9734129575129264,-13.29563471349437,-15.20279261144359,-9.561014619195054,9.63772538629811,14.285851988470961,15.703177961981703,4.060349974310804,1.1316166254643685,11.387033018744399,-6.746570554101061,-8.738478150689195,4.64703944650929,22.55186418024342,-0.3797249463434928,15.059214148199965,4.829355749762464,3.8544421526555306,7.177763018286634,16.239305052435803,-6.583895173394274,28.747968229926038,9.625625166571547,-21.779377427422595,29.3811621996526,-3.1146206525202507,-3.6440062192316764,10.775931868231703,-0.3219122556086295],[-11.12257620366771,5.0570998522404915,12.880309614813735,-0.12212034734446936,-2.4301650193567985,-8.079788651787828,-8.090401139580797,-25.73052450689037,19.383924040472913,16.795369658148694,-1.4552254346247429,-25.813049760186267,12.67418435541432,-3.6103081372614616,11.751119169867446,-3.9752583173151725,9.420960936224867,8.23772195307057,9.13430741754811,7.847613844550062,-2.66278025182445,5.076456579840589,12.425698790228774,5.814103636420179,17.129010710394788,-8.707621064507554,18.663983854926038,7.146125349677015,-16.929415192925525,0.06832149950306482,-2.7917790082331413,-2.9729294446345085,5.5755300852422005,10.463593992865492,4.660150084174085,-3.273430314385485,8.816808256781508,15.203336271918227,8.820314917242934,12.435650381720473,1.7104175421361214,-20.180553880059314,-0.16755768331248694,5.5781569811467415,4.670216116583753,6.404989752448011,3.708174261725355,9.554280790961196,6.980159315741468,-16.1784138348933,0.9291849466923958,-6.721318688714098,19.04360345331471,-10.746397462212633,22.858840498602795,-3.7617730763788932,0.2925315233830697,4.387774977362562,3.0656004282597786,8.543772253668715,-10.70546194585521,-16.53303000005443,1.217292341864515,1.8491115900639779,-4.940900769555163,-5.3277668622370475,8.311763319647719,-3.8515324262018913,4.591596159613538,-10.188532319390367,-4.216854539239001,-6.929767098748278,4.617264303839613,6.368380102789808,-7.127546754204821,3.2082677218083626,14.91726354090016,-12.117887940728258,-13.32560583623607,2.860056433356214,17.143445524847913,1.5850239130620247,20.255692991888928,-2.2802538541193718,4.071824583685804,-14.214614358269761,4.0767274233464486,-5.251911130272936,-7.39223524602611,-10.67433687719066,-12.514149155938219,4.458539518988538,-9.996576752984117,-0.16635176213939123,-6.795534577691149,21.025786909735608,-11.976677384697984,-10.339029755913804,0.9459753367070443,-7.384688821160387,6.2466798159245736,-5.804983582818102,11.296163115179946,-8.110524621331285,-3.0544962552424186,13.963439497626235,-9.348240342461656,-10.414253678643297,14.042827162421156,6.670595678961683,9.757109198248793,0.44918492761890955,2.8174147936467415,1.414973768866468,-7.358688798272204,-7.2998337415095085,2.9130704733495003,20.826581511176038,-1.3994130757685417,-3.389317002617907,3.5968737932805306,2.2887072893742806,9.547587904608656,1.7948363157872445,-15.326746430718492,-10.675585236870836,-5.9692768720026725,-14.842312302910875],[1.9425715538625008,12.566369566595961,6.297891649878431,-0.2979267505045646,-6.205469575249743,11.26962235895436,2.0735094877843148,13.784226927435805,-1.8294145730372184,5.885608229315687,9.378572020209242,-3.3138031628962272,1.1535854670171029,-0.9151907828684562,7.031280073798109,-6.30199333699901,6.547887358344007,-13.32126947911937,-14.500148263299058,3.267294439948011,-1.3385939267512077,1.1188977095250374,2.7285707327489144,16.450929197943616,-5.100883450829577,-5.73056646856029,32.42896417108815,14.85207036463063,10.597425017035414,-12.358389344536851,-5.08366533788402,19.08353379694264,-17.81279989751537,0.057674917853284546,-14.354979005181383,7.6360392901067025,8.081463370001723,-3.778592553460192,8.225463900244643,-9.186626878106187,5.090215239203382,-0.7496238616343254,16.04199555841725,-0.26283785375316077,18.798450026190686,-4.7277512219782585,4.833656820929456,-3.241733994805407,0.5107097956303841,-13.283462014519761,-7.335730996453356,0.8520331713322884,-15.833046403252672,6.566868338263441,5.451437506354261,9.40596154657643,-11.209448304497789,-1.476020064675402,-9.594429459893297,20.6229834887151,-5.734537091576647,-0.6587297585840934,10.14718297449391,8.41165116754811,2.428833040869642,-0.2509448197718375,6.37697747675221,-7.925827470147204,-0.9820302394266838,-2.589615311944079,5.914172682440687,-1.1665658620234245,11.87955716577809,5.913621935522962,-6.53501507314403,-6.971534219109606,-10.904926743828844,4.401413473761488,1.2256927820805794,13.351192030585219,6.4671340319279915,9.600675139105727,-0.5066891578074211,-2.6860403684015983,-2.770909276330065,-1.4591192868586296,7.4665751787785775,10.877489599860121,-6.000148263299059,8.314550909674574,8.139647040045668,-1.688312020623278,-9.485628571831773,-7.102799859368395,2.0355159374837166,-13.455022301995347,-6.113729920708727,-0.05681606801707678,6.547396216071058,10.984054121649672,-21.57049032720287,-7.2401060727473014,26.20004418817799,6.7577786776189095,-7.690874543511462,10.717903647101332,-21.78186270269115,-9.712898698174547,-10.016735520684312,-1.1001267102595085,11.578500303900649,-5.243348565423083,8.152454409277846,0.6514966818455941,1.7349661919240242,6.3760366770390755,3.047163996375013,26.73759988275807,-14.069586243950914,5.288816008246351,0.6764567228917366,7.0804691645268685,5.412911924994398,-1.117548671090197,1.3022468420628792,7.416981253302503,-13.336892571770738,-4.042707887017321],[-4.857162919365954,-2.5775572923060173,1.0989327761296517,-10.748578515374254,1.8204241129521614,8.890080008185317,-3.988654580437731,24.369567427313733,21.165998015082288,5.846337351477552,10.2413392397527,12.87926248041432,0.24999359575550623,9.88534501520436,10.120557341254164,12.8043275210027,-12.805765595757554,-0.9875631001826042,10.994036230719496,5.7315678927068,8.814107451117446,9.086945089972426,8.744018110907485,-31.98037573369701,-1.2700314191218132,-12.942823853814195,9.991952452338149,-1.2116458085413688,-0.9648995068903679,-5.60099932225902,-19.983904328667712,-13.29228064092357,-3.575398888909411,3.3588407370213753,16.786771330511975,29.70394280878346,1.7175774904851204,-0.5359666016932243,13.669194731390883,-7.051220383965563,-7.541972604119372,15.378062758124281,-8.00693842443187,-6.683976617180895,-19.02346655400951,5.007425341284681,4.039652380621839,5.843660864508558,0.2594008776311166,21.89425042597096,-0.6906656888361686,20.50037721124928,10.24329999414723,0.8169658514622933,-3.7639565137263054,-8.348041978203844,-10.859900918328355,-11.213092294060777,-1.3532788422938102,0.1438205572728402,-5.932081666314196,13.701908621466567,-0.19624992879588538,10.286614927924086,8.738736662543227,9.290614638007094,-3.0837692883845085,1.8281383844975716,1.1990433069829232,-2.4593205121393913,7.227885279333997,24.175382170355725,-3.0078436997767204,11.395586523688246,13.936195883429457,10.204614195502211,-1.0135018494959587,-1.2503597405787223,8.169900927222182,-10.610277619683336,-0.10115810903270178,-14.137960877739976,-0.8150581982966179,-0.000643458687853149,8.954167875922133,-7.00227114232738,1.179931912100721,4.799571070349622,-3.604637112938952,-11.475002732598375,6.378829989111829,-10.891271081292222,-10.314820733391832,6.717869791663099,9.405626806891371,9.959163221991469,-1.696220841729235,11.306045088446547,-13.332986321770738,1.2922773691777474,5.421483549750257,-15.173727479302476,-5.139744248711657,-6.147726502739977,3.569925341284681,5.774436983740736,3.7845373484257943,18.074363264716077,-0.23686834844310217,-29.072601762139392,13.942153486884047,-12.910576310479234,-9.28011366399486,-7.94333502324779,-0.2598251965876334,-4.359907594048571,-13.057917085015367,-20.259838548028064,-0.30098482640941077,7.830555472052503,-24.459492173516345,-20.741774049126697,5.585238966620374,7.647659811652113,0.4206710192326791,-7.750656571709704,11.112859282172133,-5.597208466851305]],"output_sha256":"eda3ab47887d8ebd3bb89fe8fc1bac1c18fe0045f9961bc14be92aa87989fa5a"},"claim":{},"meta":{"model":"opus-4.8","note":"generated by make_fixtures.py; hardware output is numpy-emulated (roadmap, not on-silicon)"}}