{"schema":"quantum-harness/proof-bundle@1","task":"kernel-correctness-oracle","problem_id":"gemm_bf16_tile1","constraints":{"shape":[16,128,128],"tile":[8,128,128],"declared_dtype":"bf16","accum_dtype":"fp32"},"kernel":{"name":"tiled_gemm_bf16","source_sha256":"f8081aad736ba9d7fd930e9807481d7185140ae39ad1e8478a4303075b960eea","grid":[2,1],"block_spec":{"a":{"block":[8,128],"index_map":"(i,j)->(i,0)"},"b":{"block":[128,128],"index_map":"(i,j)->(0,j)"},"out":{"block":[8,128],"index_map":"(i,j)->(i,j)"}}},"oracle":{"numeric":{"runner":"numpy.float64","reduction_len":128}},"hardware":{"device_kind":"TPU v5e","output":[[5.416600704193115,-24.589420318603516,-15.08106803894043,0.46022701263427734,1.7075386047363281,-6.176959991455078,-20.02753257751465,6.089202404022217,6.046273231506348,-0.5131886005401611,6.3528242111206055,3.1670355796813965,3.0934805870056152,-14.124408721923828,-10.861032485961914,-2.4363269805908203,4.75921630859375,20.772109985351562,11.004261016845703,-13.556114196777344,-21.13134002685547,-5.638758659362793,-7.57748556137085,-1.161170244216919,-8.367353439331055,-11.315811157226562,14.524144172668457,13.56396770477295,2.6980981826782227,-4.273567199707031,27.167844772338867,-5.212502479553223,-9.26573657989502,0.026174545288085938,16.77271842956543,-28.646154403686523,13.342019081115723,-20.09014129638672,2.231161594390869,-27.97923469543457,16.488401412963867,5.298501491546631,9.711408615112305,-16.302602767944336,3.1476900577545166,-8.75561809539795,-3.6617493629455566,-7.872688293457031,-6.195240497589111,-24.291061401367188,3.1944782733917236,7.095808506011963,27.386075973510742,-2.5923683643341064,-17.2635440826416,-16.49496078491211,8.251582145690918,6.7498931884765625,12.66007137298584,-17.15683937072754,-1.0477770566940308,4.109927177429199,10.83981990814209,-6.95859432220459,-4.102764129638672,9.454619407653809,12.122474670410156,-13.405712127685547,-17.4943904876709,-5.135093688964844,9.740447044372559,-11.849846839904785,6.082411766052246,-3.219517946243286,8.551779747009277,-14.131109237670898,-5.50047492980957,-14.684059143066406,11.239115715026855,0.12799715995788574,20.077909469604492,14.980401992797852,1.1085078716278076,0.5600681304931641,-15.866605758666992,1.8174644708633423,-0.9492201805114746,6.109656810760498,-7.290243148803711,3.2445902824401855,-21.181671142578125,-1.0042963027954102,-12.550975799560547,-1.645298719406128,-2.5252223014831543,-4.44915246963501,4.659116744995117,-1.0627517700195312,5.581575393676758,-14.989551544189453,8.654061317443848,-14.174736022949219,2.657621383666992,-3.525195837020874,1.2239699363708496,8.992178916931152,-1.0888259410858154,13.327665328979492,-16.653396606445312,11.003150939941406,-15.43704605102539,11.832226753234863,-0.9829986095428467,6.75777530670166,28.544008255004883,0.2213425636291504,-0.24993038177490234,1.527158260345459,11.514593124389648,-6.029723167419434,-11.008963584899902,13.715953826904297,-18.23769760131836,12.306796073913574,17.199569702148438,5.777988433837891,-2.2564737796783447,-11.018681526184082],[-6.524828910827637,6.540079593658447,-6.797935485839844,5.12005090713501,-10.110397338867188,14.393614768981934,-3.031892776489258,-4.668245315551758,-7.3184943199157715,6.325161933898926,3.858917236328125,7.481612205505371,-24.77603530883789,-11.843338012695312,-17.497493743896484,-4.255148410797119,-23.425067901611328,6.477692127227783,23.815937042236328,-19.773807525634766,-2.418224334716797,9.780713081359863,-6.520117282867432,12.147364616394043,9.011819839477539,-8.993066787719727,-7.338581562042236,-14.820840835571289,6.739513874053955,-5.635666847229004,-13.960880279541016,-3.0647459030151367,-14.671806335449219,-2.670741558074951,-7.842705726623535,33.76191711425781,-0.816382884979248,19.540184020996094,1.9489259719848633,-4.630021095275879,8.424077033996582,0.01300954818725586,14.109383583068848,-9.81120777130127,-22.643089294433594,5.053328514099121,-10.679109573364258,-1.3310728073120117,-7.6037492752075195,3.267120361328125,-4.463132381439209,-13.77998161315918,0.6055593490600586,-15.134807586669922,11.877786636352539,9.975903511047363,-7.22492790222168,-15.671469688415527,11.632854461669922,5.286829948425293,6.626588821411133,-10.473702430725098,9.522016525268555,-9.183208465576172,-2.252805233001709,13.824973106384277,16.604063034057617,11.210406303405762,19.051116943359375,-9.493183135986328,8.090597152709961,16.770923614501953,-7.361743927001953,-10.749231338500977,13.42784309387207,-16.148950576782227,-0.17103290557861328,-25.320728302001953,-2.6834006309509277,7.687221527099609,23.57452964782715,-9.369060516357422,-7.723718643188477,22.315471649169922,7.240572452545166,-13.399312973022461,6.078313827514648,-7.247551918029785,-21.291126251220703,8.70807933807373,-2.1625800132751465,5.9019598960876465,16.736663818359375,5.208796501159668,-26.248149871826172,2.3239755630493164,2.2561721801757812,1.524324893951416,14.855342864990234,-4.698253154754639,-7.598288536071777,-1.0480284690856934,22.556520462036133,21.953996658325195,-14.394515991210938,-2.793917179107666,-6.101431846618652,-8.70798397064209,-13.708221435546875,12.521407127380371,-8.570075035095215,7.989601135253906,7.704169273376465,-6.522943496704102,6.984501838684082,14.910386085510254,-3.3906402587890625,19.857467651367188,0.6508793830871582,12.332897186279297,-3.6856284141540527,-8.246597290039062,-7.896404266357422,-6.020206451416016,1.5177621841430664,-6.658222198486328,0.95751953125,-1.7145285606384277],[3.87727689743042,-8.786957740783691,-1.2578001022338867,3.7654600143432617,-3.4746084213256836,-8.354240417480469,16.132770538330078,13.72607421875,4.468252182006836,1.7554931640625,-3.9072699546813965,20.586639404296875,9.664039611816406,-13.78929328918457,-8.961841583251953,-26.605276107788086,-13.304426193237305,6.0065107345581055,-0.686892032623291,-2.242921829223633,-0.21578645706176758,13.415746688842773,3.3217759132385254,-10.886070251464844,-10.060556411743164,-9.721455574035645,7.232873916625977,-26.294750213623047,-6.07219123840332,-10.715503692626953,15.561500549316406,14.496440887451172,6.584312438964844,-5.6478166580200195,-23.576772689819336,-6.662934303283691,-18.1262149810791,-13.946065902709961,2.490513801574707,4.012711048126221,19.95693588256836,-12.724370956420898,-17.019744873046875,21.685001373291016,-9.181760787963867,-8.797724723815918,5.848031520843506,-1.3102312088012695,18.468196868896484,7.765703201293945,5.692432403564453,1.3491325378417969,-7.724732875823975,4.520199775695801,24.178932189941406,11.257552146911621,8.254014015197754,-12.625218391418457,-1.3603603839874268,4.399850845336914,23.024797439575195,13.535648345947266,6.321323394775391,5.946606636047363,5.584342002868652,20.405698776245117,-14.237844467163086,4.842243194580078,4.646592140197754,-0.7750473022460938,2.292941093444824,28.150482177734375,-11.118062019348145,20.770809173583984,4.3618388175964355,-1.6179141998291016,5.929518699645996,8.749961853027344,26.868253707885742,-8.090683937072754,-6.727665901184082,-13.074771881103516,-0.47469425201416016,30.26176643371582,11.541840553283691,12.644450187683105,4.650792598724365,15.69678783416748,6.35886287689209,-20.672683715820312,8.720149040222168,-7.812429428100586,-12.02014446258545,8.358420372009277,4.114365577697754,-16.305814743041992,15.21218490600586,7.970783233642578,3.7915611267089844,-4.65604305267334,5.727041244506836,12.766407012939453,0.3324885368347168,3.867900848388672,12.100225448608398,30.041637420654297,11.332185745239258,10.09267520904541,2.1814308166503906,-3.982543468475342,17.625280380249023,-8.13782024383545,-6.780747413635254,15.383512496948242,1.927222728729248,-4.373507499694824,-10.803771018981934,-15.543688774108887,11.941448211669922,-1.4142632484436035,-17.941774368286133,-18.787036895751953,3.4045944213867188,13.508291244506836,-6.560746192932129,-13.46658706665039,9.00477123260498,-7.912332534790039],[-11.373738288879395,5.851299285888672,-20.597457885742188,-14.868587493896484,3.033601760864258,-3.009908437728882,5.285098075866699,-4.787402153015137,3.780625820159912,6.280246734619141,-14.924545288085938,14.062583923339844,-10.841331481933594,-5.722513675689697,-1.183053970336914,-3.190723419189453,-3.487330913543701,-12.172104835510254,20.8461856842041,1.8819599151611328,-8.030160903930664,20.933992385864258,-10.285149574279785,8.9169921875,8.865928649902344,3.972294807434082,-6.245809555053711,5.120057106018066,-40.36277770996094,-15.41054916381836,-11.156489372253418,-7.694736003875732,-5.859617233276367,4.839219570159912,-4.701314926147461,5.636767864227295,-7.203210830688477,-33.53084945678711,-19.02534294128418,8.337065696716309,-35.128456115722656,-19.4674072265625,22.025693893432617,17.16710090637207,-5.136674880981445,25.223873138427734,-11.566259384155273,-16.484512329101562,5.86861515045166,-10.137359619140625,-0.30502021312713623,9.234329223632812,13.413768768310547,-2.702888011932373,-13.4198579788208,-1.6529045104980469,6.237412452697754,10.547611236572266,-6.550598621368408,-12.338438034057617,3.945016384124756,4.023417949676514,12.205426216125488,-5.608148097991943,12.009910583496094,4.526029109954834,8.393592834472656,15.56753921508789,13.765087127685547,7.884032249450684,5.72985315322876,2.9557478427886963,-9.830682754516602,-4.888947486877441,5.507787704467773,-10.349629402160645,4.377406120300293,17.671382904052734,11.287410736083984,-9.590890884399414,9.444483757019043,6.895627021789551,8.397175788879395,2.3005666732788086,4.320955753326416,-8.632246971130371,0.07479476928710938,7.685213088989258,-6.952276229858398,-1.8652982711791992,-12.36341667175293,7.702024459838867,-7.815300941467285,13.062346458435059,-1.8308749198913574,5.702214241027832,10.238428115844727,-12.637602806091309,20.561769485473633,5.530582427978516,-9.07224178314209,10.505002975463867,4.104207515716553,4.368732452392578,-7.03910493850708,11.994729042053223,-5.3900532722473145,-13.810343742370605,4.919994354248047,3.946946144104004,14.279476165771484,22.79420280456543,-2.633007049560547,27.798906326293945,6.486031532287598,6.2433671951293945,-30.471399307250977,-24.659225463867188,-3.3982534408569336,-17.122913360595703,2.742013931274414,3.6035046577453613,12.320058822631836,5.280290603637695,18.93259048461914,-4.592914581298828,-1.83392333984375,-10.693795204162598],[-12.03105640411377,-4.793041706085205,-11.206047058105469,7.203951835632324,1.4839863777160645,11.365097045898438,23.265830993652344,2.9776759147644043,-11.606319427490234,11.828583717346191,-9.409042358398438,1.3230857849121094,-6.816341400146484,5.393764495849609,-8.629352569580078,-17.966859817504883,-7.397674560546875,-0.7778415679931641,6.357407569885254,25.906213760375977,2.998058319091797,-18.622652053833008,-10.82194709777832,5.532137870788574,4.459165573120117,12.797826766967773,3.026594638824463,15.458516120910645,-7.488619804382324,-12.232889175415039,9.430325508117676,14.278498649597168,-2.6324400901794434,-11.183917999267578,-10.296550750732422,8.90893840789795,5.189739227294922,-0.6729259490966797,2.2657582759857178,-5.693605422973633,-2.9571871757507324,5.636187553405762,-19.28571891784668,-6.551881313323975,-9.894240379333496,-8.36376667022705,6.232122898101807,-14.32815933227539,2.2642314434051514,-6.615572452545166,21.983524322509766,-2.488239288330078,-0.8231358528137207,-25.407272338867188,18.73003578186035,12.947640419006348,0.2748110294342041,14.031585693359375,10.457708358764648,16.54641342163086,17.775272369384766,20.19735336303711,-13.802584648132324,20.533092498779297,-11.747553825378418,-0.2645992040634155,-15.900304794311523,19.241233825683594,10.102280616760254,-8.018232345581055,7.415714740753174,8.2991304397583,-20.876129150390625,8.325647354125977,18.197988510131836,-6.687518119812012,-10.200056076049805,20.253541946411133,6.421414375305176,-2.5719470977783203,-7.083218574523926,-8.071484565734863,15.660961151123047,28.633014678955078,11.247198104858398,-10.407721519470215,-8.443733215332031,1.4794697761535645,-9.337079048156738,-13.662376403808594,-5.061408042907715,-3.2852706909179688,2.073300838470459,3.3267083168029785,-17.5513858795166,-5.926360130310059,-9.826912879943848,3.4354336261749268,-0.2779688835144043,8.142956733703613,-1.6032695770263672,6.391474723815918,-0.05003714561462402,14.708916664123535,-1.751570463180542,5.528850078582764,-0.22604084014892578,23.75946807861328,-21.776857376098633,-5.7135820388793945,-4.6077704429626465,-2.0814638137817383,4.923040390014648,3.7712340354919434,-9.384905815124512,-4.907139778137207,12.108153343200684,19.57056427001953,13.107451438903809,0.6631898880004883,-7.925533294677734,5.370511054992676,-18.902114868164062,30.628000259399414,11.1764497756958,-10.348898887634277,8.578685760498047,-3.666886329650879],[-17.67034149169922,-12.873379707336426,-16.160762786865234,-23.98333740234375,24.945608139038086,0.14419198036193848,-7.668994426727295,-22.43050765991211,2.6682233810424805,6.630423545837402,18.021007537841797,9.439006805419922,21.303142547607422,1.372596263885498,-8.599712371826172,-4.010478973388672,9.459442138671875,-6.808128356933594,1.6932826042175293,0.07885599136352539,-10.489057540893555,13.047611236572266,-3.270869255065918,6.812610626220703,24.456985473632812,5.80751371383667,-7.938106536865234,13.07420825958252,-5.330108165740967,17.56884002685547,-10.579751014709473,-8.406096458435059,-26.473400115966797,-10.284082412719727,8.267496109008789,8.486279487609863,-13.665467262268066,-16.762901306152344,-8.03862476348877,5.796247959136963,-13.770890235900879,0.5731148719787598,17.603477478027344,3.3604516983032227,-16.861618041992188,1.0802321434020996,-18.839984893798828,-19.1248836517334,6.489483833312988,-8.807554244995117,17.719331741333008,-2.176589012145996,-8.887989044189453,-4.8701934814453125,-5.300019264221191,9.543960571289062,-5.952339172363281,-17.411869049072266,4.739926815032959,13.5001802444458,8.709649085998535,-2.7684144973754883,17.715885162353516,11.72780990600586,10.22707462310791,-23.377107620239258,8.027704238891602,16.728652954101562,-21.65385627746582,17.130332946777344,12.809965133666992,-11.186286926269531,6.7092437744140625,-4.177253723144531,-19.142473220825195,13.927196502685547,3.8400917053222656,2.875641345977783,-1.3131935596466064,1.6765937805175781,0.035387516021728516,-1.3755946159362793,-0.11846017837524414,11.585983276367188,-4.23350715637207,-10.683111190795898,-18.896133422851562,-1.0428524017333984,-3.1945252418518066,-22.564638137817383,14.248899459838867,-11.545703887939453,-1.0908279418945312,-24.23732566833496,-7.280789852142334,6.5868682861328125,7.797540664672852,-3.9990882873535156,-9.360666275024414,0.42789220809936523,-11.512165069580078,8.50905990600586,-5.416203498840332,-0.1934518814086914,16.126991271972656,21.995046615600586,-11.452848434448242,3.816068649291992,20.167573928833008,-5.354714870452881,-5.398663520812988,-14.894379615783691,-2.3523921966552734,-6.335205078125,-0.6207475662231445,3.831448554992676,10.036121368408203,-6.276059150695801,-0.49605417251586914,-7.293143272399902,21.121315002441406,10.004366874694824,-1.0842399597167969,11.580484390258789,14.426311492919922,-12.358447074890137,9.309500694274902,-9.920597076416016],[6.0946044921875,-13.361028671264648,7.081655502319336,-29.235292434692383,-0.4628424644470215,5.432652473449707,-22.436548233032227,-12.878094673156738,-11.839341163635254,1.2234272956848145,6.421482086181641,6.426247596740723,13.731186866760254,3.034727096557617,3.814572334289551,9.438048362731934,45.25700378417969,-0.6597590446472168,-6.783720016479492,-3.152726173400879,-6.909725666046143,-17.332054138183594,3.5078282356262207,0.5497398376464844,-10.932357788085938,3.3247556686401367,2.6450376510620117,6.512385845184326,6.487181663513184,9.831552505493164,12.004684448242188,-5.740786552429199,-15.902502059936523,2.531747817993164,16.14041519165039,-23.135711669921875,6.581967353820801,-1.0119552612304688,9.261165618896484,-9.880882263183594,-4.496514320373535,4.885158538818359,-16.305370330810547,-16.30508041381836,1.0761423110961914,-8.682973861694336,-17.563812255859375,5.930000305175781,-2.155207633972168,-8.045064926147461,15.29273796081543,24.03759002685547,-4.131993770599365,-6.434289932250977,10.935672760009766,-5.760787010192871,-11.545341491699219,-2.3211240768432617,6.645459175109863,-11.705224990844727,-2.9384617805480957,-3.9434375762939453,-24.771562576293945,6.654644966125488,1.0031976699829102,-5.220019817352295,8.818623542785645,-0.007363319396972656,-4.836402893066406,22.089122772216797,-8.736187934875488,-6.184549331665039,18.507726669311523,-12.06734848022461,-0.4748234748840332,-2.1335859298706055,2.8896923065185547,-2.0978260040283203,8.05739688873291,-1.9023737907409668,-8.095857620239258,-9.576123237609863,0.6279101371765137,-8.183032989501953,-21.322032928466797,-4.8276495933532715,-23.08720588684082,21.19049072265625,17.652006149291992,42.59036636352539,-18.811325073242188,18.839092254638672,-7.302806854248047,-11.105463981628418,-1.0023870468139648,3.22225284576416,5.214845657348633,-12.71020793914795,-9.185399055480957,-14.340360641479492,-7.060885429382324,-12.210487365722656,2.005824089050293,2.2838189601898193,23.970102310180664,-8.988040924072266,-1.3760614395141602,-6.094063758850098,-4.820468902587891,-0.512789249420166,10.166922569274902,5.820907115936279,-0.44081592559814453,-7.100135803222656,6.490843772888184,6.115593910217285,7.649531364440918,3.061039447784424,-3.0982046127319336,8.703869819641113,-5.027958869934082,3.4170079231262207,-6.300654411315918,27.522130966186523,15.951050758361816,17.654579162597656,-9.070884704589844,-7.653933525085449],[-3.0421648025512695,-13.864227294921875,-10.045790672302246,1.5687084197998047,-9.326314926147461,4.7331414222717285,6.652266502380371,-1.983565330505371,-14.987936019897461,-0.2908182144165039,-1.5812387466430664,3.278034210205078,21.7701473236084,1.0196285247802734,-3.1780076026916504,8.363100051879883,18.941829681396484,-3.031679630279541,-8.816564559936523,-4.555905342102051,6.366876602172852,-19.471160888671875,-6.081418991088867,5.610839366912842,-1.045703411102295,1.9012622833251953,6.119439125061035,7.123994827270508,8.40584659576416,6.151638031005859,-17.8787841796875,2.404493808746338,-11.346643447875977,-0.007002472877502441,15.852907180786133,-11.429496765136719,3.5138134956359863,6.52637243270874,-3.0048561096191406,-34.19145584106445,6.598601341247559,14.356196403503418,-3.2816944122314453,-0.7679719924926758,-26.805652618408203,10.747403144836426,-2.953369617462158,-10.591893196105957,-29.74570083618164,16.763301849365234,-10.57581901550293,7.6655988693237305,9.421710014343262,-12.991410255432129,6.726350784301758,20.767759323120117,12.435630798339844,-5.003081321716309,8.605914115905762,21.839065551757812,9.203951835632324,-14.6687593460083,2.0430331230163574,-6.366881370544434,-22.584369659423828,-1.076418399810791,8.157402038574219,-9.853767395019531,1.795684814453125,16.140724182128906,7.618480682373047,8.107236862182617,-12.812450408935547,-20.585874557495117,9.118199348449707,-7.503695487976074,-14.01844596862793,-22.080299377441406,1.8975481986999512,4.537572860717773,2.0054969787597656,-8.824373245239258,19.393266677856445,12.462272644042969,4.124092102050781,-16.277175903320312,-9.02076244354248,-9.586530685424805,-16.97041893005371,13.857379913330078,24.44585418701172,14.760730743408203,12.752307891845703,5.63698148727417,-6.8908843994140625,3.511871337890625,1.8868465423583984,11.96700668334961,-0.8024883270263672,4.806220054626465,-9.50146770477295,17.808094024658203,-0.10222911834716797,14.334232330322266,-1.865830898284912,0.38394641876220703,4.074059963226318,4.091163635253906,16.98556137084961,-19.329051971435547,2.7055482864379883,-11.349942207336426,-11.44731330871582,-19.74052619934082,-16.69512939453125,12.725442886352539,10.746191024780273,4.391937255859375,0.8155727386474609,11.695341110229492,17.833114624023438,-3.0206446647644043,18.241191864013672,-7.157010078430176,-12.377632141113281,7.764430046081543,-15.415618896484375,-1.0103950500488281],[-2.513373374938965,11.155585289001465,9.362746238708496,12.517366409301758,11.271002769470215,-1.0756604671478271,3.226313591003418,-5.858646392822266,0.47040653228759766,7.127226829528809,-12.980079650878906,-7.574312210083008,7.564708709716797,6.837518692016602,12.618682861328125,0.8232114315032959,0.042023658752441406,-6.611663341522217,4.425748825073242,0.5091648101806641,1.6985788345336914,17.349485397338867,-1.0802507400512695,8.452922821044922,16.07341957092285,-1.3443164825439453,-12.954683303833008,4.628560543060303,-19.902114868164062,2.747844696044922,7.250838279724121,0.9091200828552246,4.35853910446167,-6.586789131164551,-17.250831604003906,0.09211874008178711,-2.1020216941833496,16.73412322998047,-20.030208587646484,11.349546432495117,-5.050532341003418,-0.09491592645645142,12.281047821044922,13.126912117004395,-1.4623618125915527,-4.94846248626709,3.974763870239258,-20.627941131591797,-4.366544723510742,-26.179811477661133,-7.1868414878845215,-8.666946411132812,-4.022162914276123,2.537893533706665,-9.353163719177246,-18.399877548217773,-15.43948745727539,10.783612251281738,2.1481122970581055,-3.4340972900390625,-4.092609405517578,13.90872859954834,-3.2640724182128906,14.781036376953125,-4.334849834442139,-22.19816780090332,-11.7686767578125,7.118714809417725,-6.641462326049805,-9.037351608276367,-6.800785064697266,-10.8169584274292,-9.518945693969727,3.251706123352051,4.778270244598389,-9.408405303955078,16.894102096557617,-0.8429708480834961,19.574317932128906,-18.627981185913086,-23.53597068786621,10.333142280578613,5.74545431137085,9.997200965881348,8.323126792907715,14.09162425994873,12.57239055633545,-9.524067878723145,19.365209579467773,-6.0570855140686035,0.478564977645874,-6.368173122406006,29.670175552368164,-0.2886843681335449,-20.589824676513672,1.407660961151123,15.50478458404541,15.760909080505371,14.512011528015137,-1.0286064147949219,-20.73626708984375,6.0572075843811035,8.691210746765137,-26.677213668823242,-2.163588047027588,2.2843894958496094,-12.052650451660156,-2.2513532638549805,25.50210189819336,-21.742034912109375,5.30574893951416,-13.63092041015625,7.059031963348389,5.60612678527832,0.6367611885070801,9.862847328186035,-5.873476028442383,0.31079959869384766,-6.3481268882751465,-0.9323139190673828,-16.92790412902832,8.017674446105957,13.459118843078613,9.710770606994629,-7.293841361999512,-8.151540756225586,-7.706107139587402,8.414464950561523],[2.793905258178711,-11.162135124206543,-11.084988594055176,15.16329574584961,12.125590324401855,-6.134487152099609,-14.529454231262207,-5.6999359130859375,-1.7038497924804688,1.1741981506347656,-18.640472412109375,0.6469011306762695,7.3243408203125,2.2167930603027344,-0.8933777809143066,-2.4351205825805664,19.36649513244629,3.1353259086608887,-5.911276817321777,-20.003238677978516,-1.2903923988342285,7.070740222930908,-0.10593700408935547,0.7721662521362305,-15.200307846069336,5.941802024841309,-3.800405979156494,1.7037384510040283,-3.347525119781494,12.696321487426758,3.7993602752685547,21.998456954956055,10.183780670166016,-8.993534088134766,22.496458053588867,-12.227459907531738,-13.078556060791016,-2.2248995304107666,-12.100272178649902,-6.586737632751465,3.153104782104492,5.840728759765625,-9.194149017333984,2.944695472717285,-8.385486602783203,0.893517255783081,1.1206073760986328,-14.054914474487305,-17.643442153930664,-6.712210655212402,12.299376487731934,-31.210346221923828,0.5840747356414795,-9.392707824707031,5.334122180938721,-0.5359487533569336,-0.09528923034667969,9.329601287841797,20.209365844726562,0.05828738212585449,7.560901641845703,-0.6650609970092773,-9.251489639282227,-8.649519920349121,-26.35654640197754,-13.850008964538574,-2.7725439071655273,7.666383743286133,-10.92327880859375,2.0784778594970703,-4.153710842132568,-37.56154251098633,13.948471069335938,-8.306228637695312,-28.308650970458984,-2.188581943511963,-12.232197761535645,23.588857650756836,-17.919740676879883,-9.763954162597656,9.682853698730469,7.395729064941406,0.7439680099487305,-7.251442909240723,0.6513338088989258,-13.794676780700684,-10.052572250366211,8.026529312133789,1.8770942687988281,-0.7960362434387207,2.1212096214294434,-21.444133758544922,2.162466526031494,3.0272693634033203,-5.608676433563232,5.703062057495117,-10.384340286254883,20.46345329284668,-6.468171119689941,3.7626752853393555,-17.85436248779297,10.853670120239258,7.242036819458008,14.849842071533203,-13.495798110961914,0.47493553161621094,17.576549530029297,-10.232381820678711,9.580028533935547,-12.56736946105957,3.629581928253174,-11.595907211303711,-14.282039642333984,13.601319313049316,16.312335968017578,-5.432469367980957,-8.141712188720703,-6.640643119812012,-24.05403709411621,-7.972373962402344,6.336360931396484,-3.5612998008728027,-7.417636871337891,14.109827041625977,-4.117460250854492,11.80059814453125,-1.3942475318908691,11.569940567016602],[4.343727111816406,1.5336847305297852,18.209239959716797,5.033546447753906,8.872255325317383,1.382344126701355,-5.639797210693359,-6.984249114990234,18.28993797302246,-2.6048531532287598,-6.889304161071777,-16.511743545532227,1.721677303314209,5.241449356079102,-2.176149368286133,7.545797348022461,-10.591383934020996,-6.028702259063721,-30.155019760131836,-1.015150547027588,7.4305877685546875,6.303799629211426,28.262094497680664,8.341327667236328,-32.083045959472656,3.532158851623535,-8.36900520324707,9.942020416259766,30.631813049316406,13.294130325317383,16.80461311340332,4.202393531799316,24.725189208984375,-2.132786750793457,5.573328018188477,10.974040985107422,10.949150085449219,1.9381704330444336,-1.751655101776123,-20.072185516357422,17.21454429626465,6.689981460571289,8.533232688903809,5.0219011306762695,-14.67321491241455,10.846095085144043,-4.92965030670166,18.847335815429688,-20.620254516601562,-34.96070861816406,-0.43560075759887695,7.293956756591797,-11.248250007629395,3.459333896636963,-0.6601400375366211,6.481601715087891,-1.0378971099853516,13.180869102478027,29.225183486938477,-5.752643585205078,-13.080589294433594,32.902835845947266,-10.050128936767578,-9.486028671264648,-24.87238311767578,6.3177313804626465,9.088052749633789,-15.628576278686523,2.7623510360717773,3.8321480751037598,4.085614204406738,-6.10936975479126,20.44063949584961,-15.952078819274902,-3.4556379318237305,15.516026496887207,-2.345487117767334,-11.659646987915039,1.0083537101745605,6.675711631774902,10.218744277954102,0.5789337158203125,4.595804214477539,-2.933652877807617,-13.686896324157715,9.453922271728516,5.857331275939941,21.29798126220703,-9.249412536621094,4.092689514160156,-6.795927047729492,13.213873863220215,11.314912796020508,-8.529034614562988,-11.651572227478027,7.602277755737305,-3.735159397125244,4.104250907897949,9.386205673217773,-21.500106811523438,-16.03196144104004,7.794976234436035,2.6669912338256836,12.973438262939453,15.011796951293945,12.747498512268066,-2.943455696105957,-10.097439765930176,-8.272817611694336,-34.84494400024414,17.16230583190918,-6.7355499267578125,19.22457504272461,7.343609809875488,8.864263534545898,-2.700652599334717,-13.214232444763184,-1.7828559875488281,8.075906753540039,1.504685878753662,-22.24147605895996,14.118963241577148,-29.730464935302734,13.020374298095703,3.225177764892578,15.246641159057617,13.08244800567627,-1.8201563358306885],[-9.388236999511719,-19.92726707458496,8.474027633666992,3.2620038986206055,-33.2045783996582,20.389516830444336,9.493368148803711,8.84323501586914,-7.171372413635254,29.910175323486328,-19.51061248779297,-0.8024473190307617,-10.679313659667969,8.988706588745117,5.969802379608154,-3.4904098510742188,8.807677268981934,-30.5191593170166,1.3131036758422852,2.242197036743164,-9.040404319763184,-35.20730209350586,-7.680926322937012,-17.599193572998047,-23.266754150390625,15.215902328491211,8.021398544311523,14.333642959594727,15.334522247314453,11.436882972717285,2.325350761413574,9.494906425476074,3.4646806716918945,15.920061111450195,-21.396787643432617,16.592355728149414,2.8490190505981445,-18.36699104309082,-8.313055992126465,0.7361788749694824,12.91852855682373,14.942014694213867,-0.6985011100769043,-0.47739648818969727,-14.411687850952148,-2.5734031200408936,-12.660210609436035,-2.9193220138549805,-9.808293342590332,10.299541473388672,9.416595458984375,8.41185188293457,1.5350818634033203,5.955624103546143,12.765100479125977,7.139512062072754,-9.241109848022461,-7.027919769287109,12.147735595703125,6.451625823974609,6.286694526672363,7.884477615356445,4.723627090454102,-1.710029125213623,-10.6114501953125,-10.080558776855469,5.632345676422119,-17.922346115112305,22.617069244384766,-7.874534606933594,-22.074865341186523,-6.5426764488220215,8.843345642089844,-3.5615406036376953,3.922471046447754,20.528818130493164,17.135643005371094,-19.82111167907715,0.2581665515899658,-16.8107852935791,4.547924995422363,7.369068145751953,-4.53393030166626,5.874225616455078,-13.580122947692871,-4.663366317749023,3.54701828956604,8.985513687133789,-4.788392066955566,-3.785572052001953,-11.07879638671875,-10.92113971710205,-15.282552719116211,-18.922672271728516,2.1196844577789307,5.545026779174805,6.042978763580322,-6.453908920288086,14.839408874511719,-14.390060424804688,5.097376823425293,12.806285858154297,-12.834031105041504,21.940582275390625,14.557963371276855,-7.681443214416504,-4.712337970733643,-0.7504215240478516,1.0752201080322266,-15.549995422363281,-2.303264617919922,-6.223104476928711,-0.7442374229431152,-18.642915725708008,-21.19713020324707,-0.19709348678588867,20.011016845703125,19.211536407470703,-3.6984567642211914,15.456286430358887,2.736536979675293,-5.68400764465332,19.1883544921875,-4.980794906616211,-14.943397521972656,2.1705679893493652,-5.5784478187561035,9.905752182006836],[-4.0902204513549805,25.958778381347656,-8.424463272094727,4.340070724487305,-9.821056365966797,7.753231048583984,10.80367660522461,-1.294330358505249,-3.781907081604004,-3.7803032398223877,2.1192188262939453,2.384866714477539,13.149297714233398,-7.812557697296143,-8.980317115783691,-8.703778266906738,11.990135192871094,0.2923569679260254,-6.0604963302612305,17.586835861206055,4.600127220153809,-1.8948259353637695,8.381025314331055,10.492831230163574,-1.1710538864135742,1.5444345474243164,-14.19858455657959,-2.915513038635254,-4.9535722732543945,5.006402969360352,-4.0990824699401855,-7.653116226196289,-1.0900852680206299,-10.29720687866211,5.443962097167969,0.4572572708129883,-4.614816665649414,-2.659116506576538,12.466466903686523,-10.098894119262695,-22.10057258605957,13.555330276489258,-0.33505725860595703,-16.835275650024414,-14.043927192687988,-6.934381484985352,4.6082282066345215,-7.4519147872924805,-1.8598313331604004,-18.601438522338867,-1.488286018371582,7.763982772827148,-6.07688045501709,-10.104421615600586,-2.1421737670898438,-1.9409174919128418,-7.524572372436523,-6.425007343292236,0.006389141082763672,10.932714462280273,-5.873448371887207,22.441776275634766,-14.561395645141602,-4.138816833496094,8.29227352142334,-4.926132678985596,-4.314558029174805,4.3795166015625,-14.67822265625,1.4434261322021484,-0.24046707153320312,6.772922515869141,-1.1263294219970703,15.402091979980469,1.035484790802002,-3.6276321411132812,12.120011329650879,3.730215549468994,-0.5175540447235107,16.955354690551758,-9.633756637573242,-22.012874603271484,-4.693983554840088,0.2554662227630615,-20.186809539794922,-14.672113418579102,-0.7025296688079834,-15.883502960205078,-17.316986083984375,2.1700782775878906,-6.352490425109863,3.626971483230591,4.809665679931641,-17.960498809814453,1.4979557991027832,-5.89826774597168,-8.829754829406738,-1.864476203918457,-7.595171928405762,4.639385223388672,3.441950798034668,-11.886524200439453,1.3557453155517578,-15.435812950134277,5.878431797027588,2.6634793281555176,-15.49070930480957,1.9529552459716797,10.865608215332031,-20.560165405273438,0.5034408569335938,4.825128555297852,-1.1099169254302979,-7.03056526184082,2.7506189346313477,-8.604965209960938,19.287799835205078,3.9281773567199707,25.55710220336914,-27.167200088500977,-4.276548385620117,1.0965912342071533,10.260221481323242,-13.143806457519531,2.7351036071777344,-17.797739028930664,-5.222268104553223,6.084329605102539],[16.183349609375,-11.25793170928955,-3.9333176612854004,-3.125668525695801,13.485275268554688,-0.9230818748474121,-2.1174087524414062,-0.16515612602233887,2.6709141731262207,-14.611469268798828,-19.595129013061523,-12.115299224853516,7.479154586791992,4.761394023895264,3.3784711360931396,1.1376049518585205,24.209026336669922,1.9270081520080566,2.966200828552246,-13.253177642822266,-12.624164581298828,17.85662841796875,-3.780980110168457,-12.776302337646484,0.3894059658050537,-0.847196102142334,-3.530252456665039,24.987552642822266,10.951496124267578,10.789239883422852,9.87402629852295,10.391615867614746,-4.669253826141357,-1.0407001972198486,12.875160217285156,-8.726219177246094,-14.246055603027344,16.927165985107422,-23.07985496520996,1.8043842315673828,-4.80758810043335,3.4122133255004883,5.6375651359558105,1.909905195236206,12.446006774902344,10.552844047546387,-11.412405967712402,-0.7641973495483398,-8.625113487243652,-14.595312118530273,4.733120441436768,-16.40520477294922,15.031328201293945,7.801815986633301,0.7667913436889648,-8.00192642211914,13.332938194274902,-3.92203426361084,-0.41548824310302734,-2.1468515396118164,5.933743953704834,2.018223285675049,7.189380645751953,7.260105133056641,-14.196544647216797,-2.0961060523986816,10.535865783691406,-3.8514013290405273,-6.98621940612793,-6.849072456359863,-2.8334739208221436,-9.039793968200684,1.5008177757263184,8.784503936767578,0.08371329307556152,-7.819984436035156,-8.572820663452148,5.554091453552246,-12.099510192871094,-7.304869651794434,2.4230222702026367,-7.93984317779541,-8.476249694824219,-22.50523567199707,-4.57625675201416,-4.825328350067139,-0.8347110748291016,7.918963432312012,1.6760821342468262,11.389872550964355,-22.513940811157227,4.565873146057129,23.336647033691406,-4.368091583251953,5.682018280029297,15.890420913696289,-3.7520861625671387,7.566493988037109,-7.050907135009766,-24.726001739501953,4.327678680419922,-7.92658805847168,-2.085984706878662,-12.003244400024414,-0.3301572799682617,11.289188385009766,14.145994186401367,-0.86138916015625,16.20734405517578,-9.11865520477295,6.366069793701172,-8.803909301757812,3.257805109024048,17.44944190979004,7.9026594161987305,-6.489247798919678,4.6948747634887695,-0.3649141788482666,-10.658312797546387,-5.95474910736084,-13.920438766479492,5.346136569976807,-20.291053771972656,20.77077293395996,7.465958595275879,8.376326560974121,-8.585142135620117,-4.715512275695801],[7.3112406730651855,2.1907215118408203,2.149820327758789,-16.32829475402832,-6.574709892272949,-5.777801036834717,1.9504108428955078,-23.430992126464844,24.599224090576172,-7.914909362792969,-2.3574068546295166,-5.177484035491943,-2.772327184677124,5.516695499420166,1.1997311115264893,18.759782791137695,-13.033398628234863,12.204967498779297,-6.607635021209717,-11.411511421203613,9.38698959350586,-1.6898493766784668,13.362650871276855,-20.03377342224121,-13.868886947631836,-10.115903854370117,-6.69845724105835,10.238685607910156,17.705156326293945,-8.777692794799805,6.500662326812744,6.337578773498535,8.97110652923584,24.309146881103516,22.398006439208984,11.558648109436035,-11.602017402648926,14.95767593383789,-4.7129807472229,-17.99186897277832,0.1590709090232849,-2.560854196548462,17.412704467773438,10.77928352355957,-5.23884916305542,-2.1580073833465576,-4.232436180114746,-4.683185577392578,-11.066221237182617,-5.1133952140808105,4.546524524688721,-14.15939712524414,13.564208984375,-14.7210693359375,3.613025188446045,-5.2368879318237305,3.1855483055114746,-12.374042510986328,6.85992431640625,-11.49516487121582,1.8740506172180176,10.52795124053955,9.939297676086426,15.388238906860352,-22.09062957763672,8.451255798339844,10.203743934631348,-17.683948516845703,0.7732552289962769,-20.450031280517578,-7.192056179046631,8.237602233886719,-12.244733810424805,-6.06324577331543,-7.626463413238525,-0.1035345196723938,-22.539627075195312,-3.547941207885742,0.14697282016277313,-3.821648120880127,5.727692604064941,-29.111764907836914,10.771885871887207,5.285010814666748,-11.40903091430664,1.4062296152114868,-11.498309135437012,-6.110816955566406,0.9945122003555298,11.494845390319824,-27.876502990722656,13.987360000610352,5.083103179931641,-11.0972900390625,1.6733884811401367,-0.0027324557304382324,-7.962047576904297,-2.2106759548187256,-34.24118423461914,-29.352481842041016,4.415588855743408,11.682770729064941,9.834253311157227,8.385713577270508,19.315319061279297,13.973037719726562,8.531855583190918,-14.156305313110352,-0.26969051361083984,-11.25997257232666,13.51735782623291,-11.430160522460938,16.114368438720703,-19.3214168548584,1.191576600074768,-6.85403299331665,-21.867259979248047,15.982433319091797,20.855228424072266,-9.859085083007812,-2.581294536590576,3.26291561126709,-14.648573875427246,-4.402256965637207,2.72011137008667,10.853497505187988,0.6742595434188843,-11.660608291625977],[16.73081398010254,-6.981754779815674,6.726341247558594,-6.066913604736328,3.974477529525757,-17.551956176757812,-9.229716300964355,13.227210998535156,7.1159892082214355,15.435049057006836,2.9031591415405273,-4.449095249176025,-15.755289077758789,-11.20727825164795,-1.0963575839996338,5.53825044631958,-1.2753610610961914,9.206633567810059,-7.7120184898376465,17.712156295776367,-8.315463066101074,9.190265655517578,-13.734659194946289,-16.188663482666016,-12.781940460205078,-8.111699104309082,-17.372840881347656,-7.555161476135254,-6.359447479248047,-22.99924659729004,14.213522911071777,-4.888489723205566,-11.199254035949707,3.2569966316223145,2.442429542541504,-11.282258987426758,4.543325901031494,-5.877824783325195,7.854362487792969,22.78794288635254,0.5904624462127686,-8.267474174499512,4.144736289978027,-12.744307518005371,18.326862335205078,-21.1199893951416,-10.053030014038086,2.5734286308288574,3.7576870918273926,2.4611501693725586,-7.3920793533325195,-6.89932918548584,4.868081569671631,1.5663862228393555,2.2393054962158203,19.61124610900879,26.029329299926758,10.83819580078125,-14.622153282165527,-0.993635356426239,-9.913736343383789,-1.6595535278320312,-9.108975410461426,13.95574951171875,-1.5366207361221313,19.055469512939453,-5.753100395202637,0.36694473028182983,-11.511024475097656,4.708909034729004,-3.9757165908813477,8.760231971740723,12.21085262298584,9.768095970153809,-1.955202341079712,11.040694236755371,25.539703369140625,7.0738396644592285,2.924952745437622,3.3304948806762695,1.71905517578125,-5.80537748336792,-0.07218658924102783,-11.278103828430176,1.1254009008407593,4.8259687423706055,13.1535005569458,-15.13670539855957,-4.5908966064453125,6.918392658233643,6.627033710479736,4.734272003173828,-9.752798080444336,6.422873020172119,-1.7348113059997559,15.599075317382812,9.914692878723145,14.968801498413086,-20.877452850341797,13.196452140808105,-10.875471115112305,-0.17634302377700806,-16.020368576049805,-4.708131313323975,-1.282066822052002,-7.637948036193848,11.214323997497559,15.09594440460205,1.7295321226119995,5.661709785461426,-11.343561172485352,4.754635810852051,8.63157844543457,-5.582454681396484,18.10866355895996,12.055560111999512,1.6977827548980713,20.957399368286133,-5.740306377410889,13.972308158874512,-9.8485746383667,10.947540283203125,14.57913589477539,22.49183464050293,6.247769355773926,8.877678871154785,12.559172630310059,16.18506622314453]],"output_sha256":"c566e3e7e7328edc91fce26add3f8b44fd525b7a11e49d8c8264c515619ce5f4"},"holdout_hardware":{"output":[[12.324411392211914,0.9470906257629395,-16.048982620239258,-2.962144374847412,-9.798896789550781,-0.41488218307495117,0.26184701919555664,-14.1619234085083,-14.879551887512207,3.3310599327087402,7.903842926025391,7.854439735412598,-16.60573387145996,1.7328331470489502,-4.652864456176758,-12.452980041503906,9.78176212310791,-10.637937545776367,-8.456130981445312,23.247844696044922,16.29479217529297,1.0040602684020996,-10.64153003692627,7.318493843078613,21.85226058959961,-7.508203506469727,-1.3602104187011719,4.918469429016113,-3.4801788330078125,-0.8796701431274414,6.68229341506958,-17.891773223876953,3.974642753601074,29.657861709594727,0.18465423583984375,7.215620040893555,-5.038278579711914,-2.8101754188537598,-2.814265251159668,8.11931037902832,5.461278915405273,5.39913272857666,-11.118614196777344,-28.85808563232422,-11.736228942871094,-21.373796463012695,-1.1715683937072754,0.29661107063293457,-12.934272766113281,-14.860435485839844,-2.076411008834839,-29.84201431274414,-6.4521684646606445,-16.575531005859375,-3.9988040924072266,5.572000503540039,-4.437712669372559,-8.876158714294434,-4.79084587097168,-11.31239128112793,-16.324649810791016,3.8350749015808105,-14.041598320007324,18.298974990844727,-22.10247802734375,7.994370460510254,21.123802185058594,7.635678768157959,-3.488685131072998,4.123722553253174,-20.536052703857422,-7.8450608253479,8.12606430053711,-4.433348655700684,2.3335394859313965,-6.274656295776367,14.398981094360352,-0.8110067844390869,11.278816223144531,1.1377429962158203,-3.231109619140625,-7.32711124420166,1.9743494987487793,-18.471378326416016,22.877864837646484,-3.078800678253174,-3.277651309967041,11.5021333694458,9.418323516845703,-5.966251373291016,-4.463623046875,-11.771636962890625,11.519521713256836,-9.01340389251709,-20.189498901367188,2.639768600463867,7.396076202392578,2.0985403060913086,-6.714391708374023,8.067474365234375,3.761052131652832,19.942716598510742,3.1838741302490234,14.939300537109375,-0.5329771041870117,-3.4850239753723145,3.3564505577087402,-26.71748924255371,-5.28637170791626,10.306023597717285,15.278650283813477,-13.247339248657227,-16.421051025390625,0.17528247833251953,-1.6999742984771729,-3.4775309562683105,7.108127117156982,-11.226451873779297,3.089632987976074,-8.361373901367188,-22.55698013305664,-11.94197940826416,-3.558074474334717,-21.559005737304688,-7.325756072998047,6.471173286437988,-6.8438825607299805,7.395234107971191],[-7.597683429718018,1.7626380920410156,-1.2573399543762207,12.387436866760254,0.6926373243331909,-6.845619201660156,-16.454442977905273,-7.930690765380859,-13.727994918823242,18.195165634155273,2.837416887283325,-6.907515048980713,0.24989795684814453,7.460097789764404,3.744131088256836,-7.763830184936523,-5.804712295532227,-3.478907585144043,-0.5988155603408813,-8.227313041687012,-5.463150978088379,-2.185094118118286,10.595039367675781,7.020211696624756,16.59937858581543,-12.616020202636719,12.568559646606445,8.623254776000977,-12.809377670288086,4.928555965423584,4.180960178375244,-8.76926040649414,13.635770797729492,27.293249130249023,-7.553328514099121,-5.850002288818359,-20.480815887451172,-1.9278268814086914,2.9461965560913086,-7.729475021362305,-5.5069732666015625,-1.478839635848999,-0.6139135360717773,-1.4575119018554688,-14.688493728637695,1.3470044136047363,16.39143180847168,-7.29070520401001,8.234436988830566,-13.977277755737305,8.3424072265625,0.21748924255371094,-9.573216438293457,-5.9883599281311035,9.058996200561523,-0.6002926826477051,1.702991008758545,-25.81523895263672,-2.950251579284668,-1.1900458335876465,7.294814109802246,8.604399681091309,-0.9934457540512085,8.288374900817871,-9.712865829467773,-3.5865321159362793,21.308605194091797,7.480480194091797,10.668669700622559,-4.136425018310547,3.9752755165100098,-0.35337257385253906,4.158624649047852,-12.258127212524414,19.858137130737305,7.898312568664551,15.957666397094727,6.816938877105713,0.5251452922821045,7.926884651184082,11.089033126831055,2.154913902282715,6.530096054077148,-15.836607933044434,-10.596840858459473,9.221880912780762,-12.540851593017578,5.391436576843262,7.246665000915527,3.3765687942504883,-0.6594767570495605,10.428125381469727,-8.316767692565918,9.760171890258789,-7.653025150299072,-3.221792221069336,1.7585104703903198,2.0901060104370117,-8.145345687866211,15.741395950317383,6.919541358947754,3.8241891860961914,0.45287466049194336,-6.437324523925781,1.3018810749053955,1.5976457595825195,10.508892059326172,0.7953300476074219,4.113652229309082,11.880006790161133,-1.2840590476989746,8.129683494567871,3.903143882751465,8.067923545837402,14.837221145629883,-3.3418540954589844,15.629143714904785,7.4300665855407715,-7.140213489532471,14.339139938354492,5.028181552886963,-1.836496353149414,-2.448566436767578,-4.54933500289917,5.060110092163086,-1.5754690170288086,8.127223014831543,3.9228429794311523],[7.458192825317383,10.399754524230957,-12.523582458496094,-3.8172664642333984,10.340177536010742,4.42269229888916,11.551736831665039,-4.8837971687316895,-6.29566764831543,3.45282244682312,-1.6939244270324707,5.435614109039307,4.501062393188477,2.003167152404785,13.6177978515625,1.6529746055603027,10.828352928161621,-17.543071746826172,0.9475220441818237,-4.68200159072876,3.8807754516601562,1.2141320705413818,20.73792839050293,-1.7179174423217773,-7.884738922119141,6.8389668464660645,-1.1271772384643555,-2.0417041778564453,-1.9230012893676758,-10.781041145324707,-4.57334566116333,-0.5824751853942871,0.6967048645019531,-10.469816207885742,7.878868103027344,1.7780637741088867,-6.838867664337158,-0.6238431930541992,-5.81069803237915,6.567279815673828,5.175093173980713,-0.719005823135376,-17.576473236083984,27.05588150024414,-9.87551212310791,-0.5908408164978027,12.988616943359375,4.844200611114502,-5.9333815574646,-1.6575310230255127,-5.7609782218933105,10.624612808227539,-2.416659355163574,15.433120727539062,-14.665851593017578,-11.235607147216797,-13.641382217407227,-2.0092806816101074,5.244988441467285,6.641097545623779,11.076264381408691,3.382563591003418,0.10737133026123047,-3.3660988807678223,0.15459370613098145,-0.21748733520507812,-8.136877059936523,15.083014488220215,18.123926162719727,-13.95380687713623,13.724525451660156,9.735206604003906,14.551431655883789,-0.30986976623535156,-15.013481140136719,-2.9749412536621094,6.638546943664551,5.95512580871582,-16.91852378845215,4.254993438720703,9.278158187866211,-11.862457275390625,-1.0412445068359375,11.279914855957031,2.850174903869629,-10.362067222595215,-8.415846824645996,-5.363503932952881,-5.690514087677002,0.7120070457458496,-2.341949224472046,7.028799533843994,-3.5905470848083496,3.616668224334717,-11.62098503112793,14.765037536621094,5.061768531799316,-1.2029948234558105,-11.829548835754395,19.781835556030273,13.557207107543945,-9.179571151733398,-13.161635398864746,-4.295804500579834,-5.923396110534668,-6.148540496826172,16.433738708496094,8.908554077148438,-6.313087463378906,-26.90595245361328,2.4108705520629883,-5.175861358642578,-11.767641067504883,-8.83480453491211,9.954253196716309,18.206655502319336,-23.28549575805664,21.01746368408203,-5.853559494018555,-24.435977935791016,0.06752443313598633,11.3135347366333,3.194331169128418,2.3696365356445312,-7.656128883361816,-10.139991760253906,2.8419899940490723,4.9019246101379395],[-2.473328113555908,2.685885429382324,-0.04912209510803223,-7.07866096496582,-15.47400951385498,-0.29496192932128906,-6.978524208068848,-14.483713150024414,6.599180221557617,-4.242586135864258,3.238199234008789,-10.458980560302734,9.537727355957031,-5.705965995788574,-2.0885543823242188,10.455320358276367,-11.837566375732422,8.633328437805176,-12.30116081237793,-6.193412780761719,-5.081481456756592,0.2637615203857422,-28.163217544555664,6.5363969802856445,10.41966438293457,6.371305465698242,10.706371307373047,-18.8302001953125,6.020575523376465,13.726983070373535,8.419963836669922,12.209260940551758,2.889495849609375,12.66632080078125,-4.68973445892334,-3.053234100341797,-25.38811683654785,-6.100647449493408,0.5620784759521484,-6.373300075531006,-0.8604738712310791,-2.050967216491699,3.0219287872314453,-15.182151794433594,2.6053285598754883,-4.016791343688965,8.813505172729492,2.5242156982421875,7.891797065734863,10.161443710327148,-22.839670181274414,-9.042530059814453,-5.870965957641602,7.811990737915039,22.19043731689453,11.460463523864746,9.44414234161377,6.219610214233398,4.526739120483398,-18.36367416381836,-18.657960891723633,1.5849204063415527,-5.007346153259277,-3.803476333618164,-11.561878204345703,3.0219340324401855,8.801790237426758,5.520211219787598,15.649847030639648,-6.057537078857422,-8.906649589538574,5.224891662597656,-0.45612668991088867,-3.5805916786193848,-8.245495796203613,13.775688171386719,-14.384710311889648,3.9921178817749023,-1.1014041900634766,8.917941093444824,9.168453216552734,-12.143786430358887,9.381759643554688,-7.226708889007568,-4.09727668762207,8.122294425964355,-14.361350059509277,0.1646428108215332,-3.5196070671081543,3.4029150009155273,7.738653659820557,1.9521656036376953,13.37789249420166,-0.7490949630737305,-7.781400203704834,12.513063430786133,-1.2982871532440186,-1.7192721366882324,-22.664093017578125,0.7096142768859863,-0.8927001953125,5.19373893737793,9.550084114074707,2.562694549560547,-5.145715713500977,-6.761101722717285,3.4771435260772705,-1.7658705711364746,-6.4863667488098145,-7.631567001342773,4.342270374298096,-8.920028686523438,-15.306427001953125,0.7485790252685547,8.917917251586914,7.8772430419921875,11.764294624328613,-26.202274322509766,0.8677892684936523,0.7068696022033691,-11.382970809936523,-7.501636505126953,7.072473526000977,-0.931959867477417,-0.35820627212524414,17.582422256469727,3.9455857276916504,-6.277677536010742],[-27.99179458618164,5.978504180908203,2.732133388519287,-8.90011215209961,14.221739768981934,7.3645920753479,-9.880919456481934,-6.099175453186035,6.677005767822266,13.0452880859375,-12.747254371643066,-11.065533638000488,-2.9639101028442383,6.105704307556152,-0.31704235076904297,6.162504196166992,-8.623649597167969,6.72453498840332,1.5723490715026855,-3.074899196624756,11.243976593017578,-20.99782943725586,6.400311470031738,-1.1667962074279785,-28.011306762695312,-7.547711372375488,6.764620780944824,-0.3535623550415039,-10.2099609375,8.990076065063477,-15.92929458618164,-1.250091552734375,7.53050422668457,-15.778889656066895,-9.721366882324219,10.018011093139648,-4.432723522186279,11.243541717529297,14.528644561767578,9.478717803955078,0.9778289794921875,-12.529544830322266,11.726838111877441,-0.5718135833740234,-10.510252952575684,-2.224276542663574,9.33687686920166,-7.132347106933594,4.3098978996276855,-10.136445999145508,12.835570335388184,6.59484338760376,-2.2814393043518066,-1.7708311080932617,2.8957338333129883,-19.349227905273438,-7.566549301147461,11.616117477416992,-3.0143160820007324,-5.320450782775879,1.9344596862792969,-8.356857299804688,-0.2593574523925781,-19.233535766601562,-21.96596908569336,13.408244132995605,-6.35869026184082,8.383184432983398,-4.943219184875488,6.045518398284912,3.6207752227783203,5.425297737121582,0.7744441032409668,1.228508472442627,-4.393575668334961,12.304468154907227,-0.5808286666870117,12.545265197753906,-6.210025787353516,3.075226306915283,2.250399112701416,5.716491222381592,0.5339117050170898,-1.2075181007385254,-2.2872986793518066,-22.564830780029297,4.655249118804932,13.684728622436523,-5.635537624359131,1.1844253540039062,0.9989395141601562,6.080730438232422,7.912762641906738,-3.532491683959961,-5.2160515785217285,2.9418563842773438,2.83497953414917,-5.655843734741211,-30.581689834594727,-8.073406219482422,18.993072509765625,-3.785964012145996,3.79095458984375,-4.230927467346191,2.0013980865478516,4.0782880783081055,21.720821380615234,-0.0034575462341308594,9.5137357711792,17.629535675048828,19.415306091308594,-14.069419860839844,-2.628732681274414,3.625232696533203,-0.04829549789428711,3.1364264488220215,-1.1396450996398926,-7.296141624450684,4.660669803619385,-5.277217864990234,-16.49663734436035,1.0706849098205566,4.12692928314209,-11.105855941772461,-1.220062255859375,14.172835350036621,5.554553031921387,-10.224742889404297],[-17.472084045410156,-4.504019737243652,-1.4760236740112305,4.357569694519043,-4.113761901855469,-13.464482307434082,-2.800159454345703,-3.3167548179626465,6.894451141357422,7.7223310470581055,-0.38695621490478516,9.580698013305664,-7.808900833129883,-1.3281688690185547,15.9183349609375,17.131912231445312,8.568304061889648,6.075325965881348,-0.46426963806152344,18.10260772705078,0.07939696311950684,0.52972412109375,-5.6581315994262695,-10.207742691040039,4.03756046295166,-9.059683799743652,-5.444578170776367,12.130505561828613,-7.946880340576172,6.326155662536621,2.011082649230957,14.862958908081055,12.046501159667969,-0.9424281120300293,7.940817832946777,1.2725253105163574,-18.834732055664062,-1.578474998474121,-17.9788875579834,-16.665271759033203,8.542269706726074,2.5238378047943115,-11.517925262451172,-8.981271743774414,11.001056671142578,0.8418960571289062,0.27024364471435547,6.754377365112305,-5.677029609680176,-2.7376880645751953,-0.7991962432861328,18.945453643798828,7.103784084320068,12.057151794433594,-6.248122215270996,-10.815812110900879,0.5400362014770508,-1.3826804161071777,-8.069586753845215,-9.553251266479492,-4.797336578369141,-15.458045959472656,-2.4618546962738037,-35.484378814697266,-8.853996276855469,4.62060546875,-2.175175666809082,4.774839401245117,6.426486968994141,-1.1928772926330566,-12.246316909790039,17.916994094848633,13.058156967163086,0.32254743576049805,10.70695686340332,6.691061019897461,2.834634304046631,8.003307342529297,-2.797469139099121,15.395256042480469,0.27616214752197266,-12.431355476379395,-5.471723556518555,6.275981903076172,-14.67959213256836,13.15078353881836,-17.221546173095703,-13.255511283874512,4.355138778686523,15.9217529296875,-11.04757022857666,2.7307662963867188,7.593598365783691,-1.5677213668823242,-8.384052276611328,-18.967676162719727,6.659085750579834,-17.846824645996094,-10.412389755249023,6.835411071777344,-2.352271556854248,-4.961859703063965,-3.6582155227661133,0.25243425369262695,17.90648078918457,-9.684137344360352,-18.376880645751953,-10.509964942932129,-15.67905044555664,-17.423322677612305,-6.932945251464844,0.25086164474487305,-15.082328796386719,0.2796502113342285,4.865198135375977,-19.560606002807617,25.542076110839844,-9.170114517211914,-14.69924545288086,15.065591812133789,19.21133041381836,-3.7444310188293457,-11.258744239807129,8.18541145324707,4.414432048797607,-3.3005762100219727,9.648462295532227,-5.545432090759277],[-6.411386489868164,8.548123359680176,-9.3965482711792,-14.19959545135498,12.919246673583984,0.5451092720031738,13.514854431152344,0.04273414611816406,-1.968451976776123,5.359053611755371,11.376184463500977,-3.8376412391662598,-9.371442794799805,26.22625160217285,-22.81522560119629,-1.9781322479248047,-13.701112747192383,-7.1925201416015625,-4.231350421905518,-5.27931022644043,11.22496223449707,8.335793495178223,33.697784423828125,-7.480840682983398,10.587980270385742,-28.452192306518555,-12.420802116394043,-12.632644653320312,19.54971694946289,-3.491103172302246,-4.474242210388184,-21.20615577697754,3.9343137741088867,18.011693954467773,-29.494434356689453,26.33889389038086,6.553617477416992,-27.198932647705078,6.931260108947754,-13.546112060546875,1.1659154891967773,-4.500408172607422,0.9608173370361328,-29.60530662536621,-0.4059023857116699,-21.516075134277344,-7.897716522216797,-8.732162475585938,-2.380338668823242,-18.134300231933594,1.8614702224731445,-23.465696334838867,-23.873388290405273,-7.038092136383057,17.548728942871094,29.48818588256836,2.987943649291992,-22.887487411499023,9.000236511230469,-20.056495666503906,16.06793975830078,9.782185554504395,8.399259567260742,-5.6024932861328125,-30.40375518798828,0.32570552825927734,7.914085388183594,24.774173736572266,-3.3303494453430176,9.361663818359375,-9.097890853881836,5.076332092285156,16.012842178344727,-23.468135833740234,-15.281407356262207,-5.060337066650391,-7.054457187652588,-9.080273628234863,20.247102737426758,12.46584701538086,-6.517331123352051,-4.509264945983887,9.473489761352539,7.768609046936035,1.544830322265625,0.9103021621704102,18.009017944335938,4.049223899841309,23.629852294921875,-5.7790727615356445,-4.34733247756958,-2.400663375854492,0.25728702545166016,-6.16444206237793,43.30828857421875,0.1125941276550293,0.45403003692626953,1.9021449089050293,-11.032217025756836,-4.970794677734375,-15.531501770019531,10.734413146972656,-9.702967643737793,-18.642316818237305,4.582789421081543,-4.145086288452148,29.474536895751953,4.2657976150512695,8.908235549926758,7.8965606689453125,14.761968612670898,3.6126089096069336,-27.21733856201172,-11.384187698364258,-19.161754608154297,-8.085768699645996,-3.8707408905029297,-8.647343635559082,-21.43221092224121,-7.642843246459961,-15.295408248901367,0.6788911819458008,-3.3623533248901367,-13.943960189819336,-32.17238235473633,3.1851234436035156,1.1888737678527832,-2.8230419158935547],[-1.0710844993591309,-19.96935272216797,6.693459510803223,7.833806991577148,-5.8506269454956055,-0.7907829284667969,6.746674537658691,13.922548294067383,3.2602224349975586,-4.143164157867432,2.1676807403564453,7.399639129638672,5.70515251159668,-18.38236427307129,3.481872081756592,-0.6476922035217285,-7.154716491699219,-9.041524887084961,-2.1107044219970703,4.8981451988220215,-19.71202850341797,-3.9642791748046875,24.90035057067871,4.81303596496582,-26.430118560791016,-14.013790130615234,-2.215874671936035,-12.502436637878418,-2.240995407104492,-12.97563648223877,6.5692596435546875,14.495233535766602,0.4578523635864258,-17.900503158569336,13.452703475952148,-17.552671432495117,-3.9891200065612793,-4.156318664550781,13.543262481689453,-10.746506690979004,10.644403457641602,-3.5840320587158203,1.7151012420654297,9.776968955993652,2.056713819503784,1.758286476135254,16.990604400634766,-8.776101112365723,-5.088784217834473,17.573366165161133,17.437698364257812,19.807613372802734,-8.833415031433105,7.647564888000488,-24.274662017822266,1.8124446868896484,9.983545303344727,-12.851415634155273,1.004744529724121,-2.108307361602783,-0.45856475830078125,6.534745216369629,-3.3338942527770996,1.8992571830749512,7.041328430175781,8.400982856750488,-10.90815544128418,-2.381824493408203,8.415441513061523,-8.769798278808594,5.384910583496094,-13.521008491516113,5.791460037231445,1.5779237747192383,4.266708850860596,1.330796718597412,-13.708673477172852,-6.81584358215332,-0.5275349617004395,4.882345676422119,-4.350226402282715,-9.934298515319824,2.3677358627319336,0.9843664169311523,7.673608779907227,7.894575119018555,-11.161434173583984,-7.447134971618652,-11.546765327453613,11.44719123840332,-3.542694091796875,-3.8175792694091797,-17.618236541748047,8.690984725952148,10.704797744750977,15.174304962158203,12.541559219360352,6.917221546173096,8.09721565246582,3.9448471069335938,2.6689891815185547,12.459497451782227,-10.094381332397461,9.223919868469238,12.721633911132812,7.09820556640625,5.4809794425964355,-2.6166200637817383,-8.287171363830566,-1.6998424530029297,1.7149343490600586,9.242000579833984,-16.011516571044922,-4.067508697509766,-0.07460737228393555,3.1566381454467773,8.298222541809082,-9.73613452911377,17.55089569091797,4.566062927246094,20.090974807739258,11.29239273071289,-11.161368370056152,15.895854949951172,1.8066139221191406,4.551787376403809,-9.791872024536133,1.488809585571289],[-2.8372902870178223,-11.662324905395508,13.412635803222656,-1.1134953498840332,5.931087493896484,-7.951515197753906,-3.618539810180664,9.798995971679688,20.774169921875,4.072814464569092,-22.4173583984375,-3.028841257095337,-5.144478797912598,-2.3052501678466797,-1.3719673156738281,17.833526611328125,-3.0159058570861816,17.75275230407715,-23.13453483581543,1.626575231552124,-11.998380661010742,2.507350444793701,-6.695432186126709,-17.646268844604492,-5.60665225982666,1.3475780487060547,-19.6669921875,-5.348993301391602,6.199339866638184,8.790626525878906,-4.599246501922607,2.141289234161377,-2.818039894104004,18.352977752685547,-6.824908256530762,-7.079174041748047,-1.8593864440917969,-4.81404972076416,-0.39469432830810547,-7.415038108825684,17.75029182434082,-7.770423889160156,-0.8992891311645508,5.978738784790039,3.092057228088379,8.283178329467773,-33.516475677490234,5.163567543029785,15.443977355957031,-2.6520280838012695,-11.49138069152832,-16.877151489257812,-8.853385925292969,-24.83570098876953,-2.694326877593994,-11.811022758483887,11.778298377990723,-6.145898818969727,9.51558780670166,-0.6821017265319824,-6.355617523193359,0.17306232452392578,14.999598503112793,2.989208698272705,-5.35511589050293,-21.374988555908203,1.6194515228271484,-16.130632400512695,-9.95501708984375,16.572494506835938,-23.480133056640625,-11.230703353881836,1.7298402786254883,12.587297439575195,-3.0657596588134766,3.358156204223633,-4.8697509765625,-5.739086627960205,8.399486541748047,-16.02857208251953,14.246066093444824,-0.019927978515625,6.420808792114258,19.29153823852539,-10.50952434539795,-3.466477870941162,2.3526787757873535,-21.971942901611328,2.417254686355591,5.5890607833862305,-19.164119720458984,1.5141220092773438,-0.22284507751464844,-6.599274635314941,19.735973358154297,-19.87041473388672,-4.38515567779541,-11.380011558532715,-9.008277893066406,-16.05977439880371,-7.840299606323242,5.113327980041504,-10.802236557006836,-14.024731636047363,18.998647689819336,1.097320556640625,5.4195098876953125,2.4912002086639404,-14.223167419433594,-19.294464111328125,5.546558380126953,-2.93436336517334,10.71069622039795,13.627531051635742,-4.421233177185059,-0.5891077518463135,-5.284477233886719,-0.2735939025878906,-2.2545299530029297,19.078170776367188,-2.5878634452819824,4.705165863037109,5.926767349243164,-13.21044921875,6.812612533569336,20.102123260498047,1.4923210144042969,-2.8275322914123535],[-3.6553096771240234,6.408487319946289,0.7826826572418213,-8.183881759643555,-8.932127952575684,1.185347318649292,-3.1165695190429688,-12.941529273986816,0.8562593460083008,-6.552859306335449,1.428991675376892,-8.507129669189453,5.179510116577148,7.475033760070801,-7.4513702392578125,21.52300453186035,-3.0495657920837402,4.231692790985107,-1.6772723197937012,-20.948457717895508,-2.7015275955200195,-12.592264175415039,-3.6048755645751953,-6.457420349121094,-6.274212837219238,-4.209808349609375,-3.6476316452026367,-3.4473228454589844,14.626083374023438,8.181026458740234,6.494876861572266,16.6417236328125,1.9295411109924316,0.15932703018188477,7.018756866455078,14.454849243164062,-14.666905403137207,-19.8681640625,1.0587124824523926,-1.8068172931671143,-15.486255645751953,-11.911699295043945,-10.061711311340332,4.291834354400635,4.328215599060059,-10.841455459594727,5.701993942260742,11.028810501098633,1.0576152801513672,-3.1443495750427246,4.185718059539795,0.30350255966186523,7.227276802062988,-15.713951110839844,-17.58232879638672,-9.383731842041016,-0.8468499183654785,-4.979927062988281,-4.339013576507568,-14.11555290222168,-6.859791278839111,-1.2216002941131592,-2.446458339691162,-0.5203135013580322,2.007741928100586,0.42154359817504883,15.911039352416992,-3.8138270378112793,6.4775495529174805,-12.304218292236328,10.511938095092773,4.461943626403809,10.447060585021973,-0.10111522674560547,12.923318862915039,-15.784870147705078,-7.796351432800293,-7.628737449645996,25.54452133178711,18.791301727294922,-1.2704706192016602,-7.022953987121582,17.352035522460938,-6.497969627380371,-15.63231086730957,-1.4280874729156494,-12.016810417175293,-12.031046867370605,6.0717291831970215,3.4785614013671875,-3.2283124923706055,1.464238166809082,8.599035263061523,15.798320770263672,6.494190216064453,2.862105369567871,-17.14259910583496,2.3382225036621094,1.8816189765930176,-4.8299384117126465,-4.802702903747559,8.017838478088379,-4.307453155517578,-1.9693455696105957,-2.5293831825256348,-0.4660301208496094,-4.003683567047119,-11.287031173706055,-0.10253000259399414,-4.838924884796143,5.150838851928711,-10.998860359191895,7.076180458068848,5.1401214599609375,-9.368965148925781,-8.743877410888672,-5.834725379943848,-20.84549903869629,4.195918083190918,-10.046457290649414,-9.556903839111328,-18.76404571533203,-9.713940620422363,3.3725032806396484,-0.06303071975708008,7.213052749633789,-3.388284683227539,-2.848876953125],[2.506218433380127,23.967077255249023,-4.696122169494629,-9.070261001586914,11.802783012390137,11.723361015319824,2.216485023498535,4.67777681350708,-9.441872596740723,-6.570512771606445,2.447465181350708,8.441798210144043,20.245159149169922,-5.727648735046387,-0.012212753295898438,7.058383941650391,-20.135133743286133,6.112851142883301,-10.066267013549805,-3.3352158069610596,15.612689971923828,-3.5056872367858887,-3.4973130226135254,6.149251461029053,-23.917558670043945,0.9260632991790771,7.652474880218506,10.566263198852539,25.308361053466797,6.696562767028809,-2.5523533821105957,-0.707557201385498,2.9427413940429688,10.19302749633789,2.5306081771850586,12.401693344116211,19.392881393432617,-13.699555397033691,3.0317578315734863,-6.5722174644470215,7.243598937988281,9.284416198730469,5.66717004776001,-3.6667063236236572,24.197105407714844,8.844507217407227,17.433433532714844,-17.095333099365234,-2.9384708404541016,12.08486270904541,-3.603875160217285,15.918441772460938,-0.9425487518310547,11.158830642700195,5.890871047973633,-1.676926612854004,10.304342269897461,10.482955932617188,-4.299890518188477,0.47609126567840576,1.6707220077514648,1.047165036201477,2.899916410446167,-24.18091583251953,4.630407333374023,-7.319357872009277,14.227385520935059,-14.441374778747559,-3.5853891372680664,-5.5955352783203125,15.635066986083984,-25.8391056060791,13.659587860107422,8.85263442993164,14.873376846313477,-11.046276092529297,-24.147695541381836,-3.1509671211242676,2.775221824645996,5.217955589294434,-8.757786750793457,-14.615620613098145,2.3259177207946777,21.309398651123047,-2.0173768997192383,9.623164176940918,-14.912800788879395,-11.732256889343262,1.908658504486084,2.1006507873535156,-11.704290390014648,-12.388477325439453,7.936094760894775,10.183784484863281,-1.838674783706665,-5.040111541748047,14.699335098266602,3.114077568054199,12.989432334899902,-5.626157283782959,13.783682823181152,7.833850860595703,3.0860676765441895,1.6361446380615234,7.315579414367676,-10.55583381652832,-9.939980506896973,9.804536819458008,24.624610900878906,14.93327522277832,-8.620443344116211,-0.059839725494384766,-0.8150482177734375,17.71218490600586,8.220267295837402,-8.591630935668945,4.667812347412109,-19.105396270751953,5.746866226196289,5.3055219650268555,5.783111095428467,2.857790470123291,-5.80888557434082,15.682184219360352,3.137453079223633,20.500680923461914,14.981120109558105,1.902909278869629],[7.257338047027588,19.81460189819336,6.986013412475586,5.0122175216674805,-28.9163761138916,0.010619878768920898,14.758520126342773,2.0264387130737305,4.940879821777344,-13.268221855163574,-11.075862884521484,8.8294677734375,-5.381477355957031,-12.670863151550293,-12.60748291015625,-10.802230834960938,-8.53177261352539,10.605098724365234,-5.966732978820801,26.856426239013672,-7.731739044189453,-8.060535430908203,-18.440828323364258,6.14493465423584,20.19890594482422,23.781314849853516,-2.4348065853118896,-5.222772598266602,9.64093017578125,-6.333812713623047,-9.145666122436523,-7.3354387283325195,12.595085144042969,2.150935649871826,-1.2076387405395508,1.2995281219482422,17.98369598388672,7.247054100036621,-2.688507080078125,2.125582218170166,-4.936939239501953,23.16640853881836,-10.384535789489746,2.2470149993896484,1.9209494590759277,-6.2932281494140625,9.99919319152832,-21.268186569213867,-6.737607955932617,-3.0143165588378906,13.40781307220459,-8.594223022460938,-1.4938266277313232,0.8389101028442383,19.537023544311523,2.6342992782592773,1.149980068206787,-2.5548534393310547,9.101154327392578,-29.246871948242188,-0.8604187965393066,4.279149532318115,5.650291919708252,-9.302001953125,-6.4712018966674805,1.8561697006225586,4.1649169921875,4.08010196685791,17.183767318725586,4.682226181030273,-2.0084686279296875,-11.153895378112793,-10.453828811645508,2.6243972778320312,-2.9378747940063477,11.875473022460938,-0.8739049434661865,-3.417487621307373,-8.378717422485352,-14.666790962219238,0.05115032196044922,12.846319198608398,-11.996009826660156,9.852354049682617,6.522422790527344,7.011471748352051,18.10880470275879,-19.033206939697266,-9.706585884094238,-7.444167137145996,22.232973098754883,-17.082481384277344,1.0002214908599854,-8.276134490966797,6.00178861618042,-11.3704252243042,3.143989086151123,-14.114740371704102,-0.5413694381713867,-31.4595947265625,1.516726016998291,6.531519889831543,5.664313316345215,8.987106323242188,10.689988136291504,-8.229249000549316,-15.521512985229492,7.769372940063477,4.538627624511719,12.346609115600586,6.6247711181640625,-5.6216630935668945,-10.30981731414795,12.06657886505127,16.059473037719727,-13.776054382324219,15.043577194213867,-0.03889274597167969,-10.619269371032715,-9.886076927185059,5.719889163970947,11.273736000061035,2.086839199066162,-4.047443389892578,9.979560852050781,-5.513195037841797,5.292032241821289,-3.2033114433288574],[9.873167037963867,13.385858535766602,-7.139895439147949,-9.698281288146973,5.559704780578613,2.1481552124023438,3.278001308441162,-1.6316275596618652,7.669271945953369,-12.848116874694824,9.378395080566406,-24.721254348754883,15.892799377441406,0.18929815292358398,6.117568016052246,5.172240257263184,12.566697120666504,-1.876939058303833,4.30143928527832,-20.569618225097656,3.3357152938842773,8.412263870239258,-7.172595024108887,24.484970092773438,1.6685431003570557,-9.413527488708496,14.217514038085938,4.337339878082275,-13.838857650756836,-1.3085150718688965,-15.120170593261719,0.6685836315155029,17.39422607421875,3.01065731048584,3.2901368141174316,6.810970783233643,13.855460166931152,16.75765609741211,6.162991523742676,4.064548492431641,-0.08978962898254395,-10.421457290649414,-13.00373649597168,2.560009002685547,15.7894287109375,0.16121673583984375,13.394623756408691,5.630723476409912,-8.965093612670898,9.122604370117188,-13.607579231262207,0.3631901741027832,11.038152694702148,-1.36238431930542,0.47016286849975586,-8.460474014282227,-1.5795674324035645,10.047720909118652,1.1178293228149414,10.4637451171875,11.348100662231445,-8.925581932067871,-2.0802347660064697,4.115568161010742,15.992774963378906,-1.2354416847229004,-7.284111976623535,-5.117967128753662,0.31299829483032227,-7.482900619506836,5.886211395263672,-5.081943511962891,22.798826217651367,13.351276397705078,11.835565567016602,1.8673300743103027,-1.412825584411621,-9.947101593017578,-18.35200309753418,4.77027702331543,-18.92143440246582,8.82287883758545,13.670066833496094,-3.9698009490966797,-0.5667400360107422,5.18061637878418,-7.130049228668213,-6.214834213256836,-3.889437198638916,-24.37744140625,-4.525975227355957,-15.061491012573242,-19.99555015563965,6.579919338226318,-17.250253677368164,-3.1618545055389404,19.541105270385742,-5.016157150268555,14.74599552154541,-5.417849540710449,-13.740071296691895,-15.647229194641113,-10.005451202392578,9.193288803100586,13.841415405273438,15.25874137878418,3.6159133911132812,0.6871800422668457,10.942596435546875,-7.191007137298584,-9.182914733886719,4.202602863311768,22.1074275970459,-0.8241615295410156,14.614777565002441,4.384919166564941,3.410005569458008,6.733326435089111,15.794868469238281,-7.028331756591797,28.303531646728516,9.181188583374023,-22.223814010620117,28.936725616455078,-3.5590572357177734,-4.088442802429199,10.33149528503418,-0.7663488388061523],[-11.567012786865234,4.612663269042969,12.435873031616211,-0.5665569305419922,-2.8746016025543213,-8.524225234985352,-8.53483772277832,-26.17496109008789,18.93948745727539,16.350933074951172,-1.8996620178222656,-26.25748634338379,12.229747772216797,-4.054744720458984,11.306682586669922,-4.419694900512695,8.976524353027344,7.793285369873047,8.689870834350586,7.403177261352539,-3.1072168350219727,4.632019996643066,11.98126220703125,5.369667053222656,16.684574127197266,-9.152057647705078,18.219547271728516,6.701688766479492,-17.373851776123047,-0.376115083694458,-3.236215591430664,-3.4173660278320312,5.131093502044678,10.019157409667969,4.2157135009765625,-3.717866897583008,8.372371673583984,14.758899688720703,8.37587833404541,11.99121379852295,1.2659809589385986,-20.624990463256836,-0.6119942665100098,5.133720397949219,4.2257795333862305,5.960553169250488,3.263737678527832,9.109844207763672,6.535722732543945,-16.62285041809082,0.48474836349487305,-7.165755271911621,18.599166870117188,-11.190834045410156,22.414403915405273,-4.206209659576416,-0.15190505981445312,3.943338394165039,2.621163845062256,8.099335670471191,-11.149898529052734,-16.977466583251953,0.7728557586669922,1.404675006866455,-5.3853373527526855,-5.77220344543457,7.867326736450195,-4.295969009399414,4.147159576416016,-10.63296890258789,-4.661291122436523,-7.374203681945801,4.17282772064209,5.923943519592285,-7.571983337402344,2.76383113861084,14.472826957702637,-12.562324523925781,-13.770042419433594,2.4156198501586914,16.69900894165039,1.140587329864502,19.811256408691406,-2.7246904373168945,3.6273880004882812,-14.659050941467285,3.632290840148926,-5.696347713470459,-7.836671829223633,-11.118773460388184,-12.958585739135742,4.014102935791016,-10.44101333618164,-0.6107883453369141,-7.239971160888672,20.581350326538086,-12.421113967895508,-10.783466339111328,0.5015387535095215,-7.82912540435791,5.802243232727051,-6.249420166015625,10.851726531982422,-8.554961204528809,-3.4989328384399414,13.519002914428711,-9.79267692565918,-10.85869026184082,13.598390579223633,6.22615909576416,9.31267261505127,0.004748344421386719,2.3729782104492188,0.9705371856689453,-7.803125381469727,-7.744270324707031,2.4686338901519775,20.382144927978516,-1.8438496589660645,-3.8337535858154297,3.152437210083008,1.8442707061767578,9.103151321411133,1.3503997325897217,-15.771183013916016,-11.12002182006836,-6.413713455200195,-15.286748886108398],[1.498134970664978,12.121932983398438,5.853455066680908,-0.7423633337020874,-6.649906158447266,10.825185775756836,1.629072904586792,13.339790344238281,-2.273851156234741,5.441171646118164,8.934135437011719,-3.75823974609375,0.7091488838195801,-1.359627366065979,6.586843490600586,-6.746429920196533,6.103450775146484,-13.765706062316895,-14.944584846496582,2.8228578567504883,-1.7830305099487305,0.6744611263275146,2.2841341495513916,16.006492614746094,-5.5453200340271,-6.1750030517578125,31.984527587890625,14.407633781433105,10.15298843383789,-12.802825927734375,-5.528101921081543,18.639097213745117,-18.25723648071289,-0.3867616653442383,-14.799415588378906,7.19160270690918,7.637026786804199,-4.223029136657715,7.781027317047119,-9.631063461303711,4.645778656005859,-1.1940604448318481,15.597558975219727,-0.7072744369506836,18.354013442993164,-5.172187805175781,4.389220237731934,-3.6861705780029297,0.06627321243286133,-13.727898597717285,-7.780167579650879,0.4075965881347656,-16.277482986450195,6.122431755065918,5.007000923156738,8.961524963378906,-11.653884887695312,-1.9204566478729248,-10.03886604309082,20.178546905517578,-6.17897367477417,-1.1031663417816162,9.702746391296387,7.967214584350586,1.9843964576721191,-0.6953814029693604,5.9325408935546875,-8.370264053344727,-1.4264668226242065,-3.0340518951416016,5.469736099243164,-1.6110024452209473,11.435120582580566,5.4691853523254395,-6.979451656341553,-7.415970802307129,-11.349363327026367,3.956976890563965,0.7812561988830566,12.906755447387695,6.022697448730469,9.156238555908203,-0.9511257410049438,-3.130476951599121,-3.215345859527588,-1.9035558700561523,7.022138595581055,10.433053016662598,-6.444584846496582,7.870114326477051,7.6952104568481445,-2.132748603820801,-9.930065155029297,-7.547236442565918,1.5910793542861938,-13.899458885192871,-6.55816650390625,-0.5012526512145996,6.102959632873535,10.539617538452148,-22.01492691040039,-7.684542655944824,25.75560760498047,6.313342094421387,-8.135311126708984,10.273467063903809,-22.226299285888672,-10.15733528137207,-10.461172103881836,-1.5445632934570312,11.134063720703125,-5.6877851486206055,7.708017826080322,0.2070600986480713,1.2905296087265015,5.931600093841553,2.6027274131774902,26.293163299560547,-14.514022827148438,4.844379425048828,0.23202013969421387,6.636032581329346,4.968475341796875,-1.5619852542877197,0.8578102588653564,6.9725446701049805,-13.781329154968262,-4.487144470214844],[-5.301599502563477,-3.02199387550354,0.6544961929321289,-11.193015098571777,1.3759875297546387,8.445643424987793,-4.433091163635254,23.92513084411621,20.721561431884766,5.401900768280029,9.796902656555176,12.434825897216797,-0.1944429874420166,9.440908432006836,9.67612075805664,12.359890937805176,-13.250202178955078,-1.431999683380127,10.549599647521973,5.287131309509277,8.369670867919922,8.642508506774902,8.299581527709961,-32.42481231689453,-1.714468002319336,-13.387260437011719,9.547515869140625,-1.6560823917388916,-1.4093360900878906,-6.045435905456543,-20.428340911865234,-13.736717224121094,-4.019835472106934,2.9144041538238525,16.342334747314453,29.259506225585938,1.2731409072875977,-0.9804031848907471,13.22475814819336,-7.495656967163086,-7.9864091873168945,14.933626174926758,-8.451375007629395,-7.128413200378418,-19.46790313720703,4.562988758087158,3.5952157974243164,5.399224281311035,-0.18503570556640625,21.449813842773438,-1.1351022720336914,20.055940628051758,9.798863410949707,0.3725292682647705,-4.208393096923828,-8.792478561401367,-11.304337501525879,-11.6575288772583,-1.797715425491333,-0.3006160259246826,-6.376518249511719,13.257472038269043,-0.6406865119934082,9.842178344726562,8.294300079345703,8.84617805480957,-3.5282058715820312,1.3837018013000488,0.7546067237854004,-2.903757095336914,6.783448696136475,23.730945587158203,-3.452280282974243,10.951149940490723,13.491759300231934,9.760177612304688,-1.4579384326934814,-1.6947963237762451,7.725464344024658,-11.05471420288086,-0.5455946922302246,-14.5823974609375,-1.2594947814941406,-0.445080041885376,8.50973129272461,-7.446707725524902,0.7354953289031982,4.3551344871521,-4.049073696136475,-11.919439315795898,5.934393405914307,-11.335707664489746,-10.759257316589355,6.273433208465576,8.961190223693848,9.514726638793945,-2.140657424926758,10.861608505249023,-13.777422904968262,0.8478407859802246,4.977046966552734,-15.6181640625,-5.58418083190918,-6.5921630859375,3.125488758087158,5.330000400543213,3.3401007652282715,17.629926681518555,-0.681304931640625,-29.517038345336914,13.497716903686523,-13.355012893676758,-9.724550247192383,-8.387771606445312,-0.7042617797851562,-4.804344177246094,-13.50235366821289,-20.704275131225586,-0.7454214096069336,7.3861188888549805,-24.903928756713867,-21.18621063232422,5.140802383422852,7.20322322845459,-0.02376556396484375,-8.195093154907227,10.66842269897461,-6.041645050048828]],"output_sha256":"1eb3a1fcc4e2693c489187696d5c486b7621f19d8c8dc918b906d9b0311bba89"},"claim":{"declared_tolerance":1.325825},"meta":{"model":"opus-4.8","note":"generated by make_fixtures.py; hardware output is numpy-emulated (roadmap, not on-silicon)"}}